-6.320435683576877683e-02,3.560809938963718779e-02,1.170873100182281273e-02,2.075104810909047734e-02,2.379736595336481852e-02,-4.348164926897192420e-04,-5.966782286105047628e-02,6.714986342646181439e-02,-8.195607813614997142e-03,-1.074121392951276656e-02,-3.766076568567115063e-02,5.590331838466659070e-02,-4.069178250235350874e-02,4.093574351155521845e-02,4.626703474466090787e-03,3.417571258639330589e-02,-5.473649361278559722e-02,-7.600736500837308729e-02,5.878007108296050970e-02,3.091331553384856975e-02,-1.348485078475795962e-02,8.632165959744340922e-02,-8.461233488760044885e-03,-2.819158329694011408e-02,7.278976029183888315e-03,-6.673102496928812188e-02,-2.583622484870540942e-02,-1.114866537002188879e-01,-2.489304506836684250e-02,-3.459428738692045535e-02,7.824487393178288300e-03,-2.211182264079407031e-02,-1.032203630819397006e-01,2.105976082422350570e-02,6.650556504524476886e-02,3.141509081115220064e-02,-7.194045078889869937e-02,1.604518634236297425e-02,8.745449569383408062e-02,-2.348641455691350202e-02,-5.513009566619250096e-02,-2.062874832448470096e-03,1.066134685966147327e-01,-5.255770484040075269e-03,1.700689611686534344e-03,-3.087208987006560823e-02,3.280495363847217571e-02,-2.932127913183368850e-02,6.297786640869143526e-02,-4.969968182492937731e-02,-2.220231130578893819e-02,-1.611606367059193606e-02,-3.581383417485849846e-02,2.893519097226248185e-02,-6.490424453392937276e-02,6.899605617509040056e-02,4.418442202336864133e-02,6.397753074174108642e-03,1.818685051961221183e-02,-1.003775027453578522e-01,-9.396471765944540422e-02,1.294630735211346195e-01,9.218473281404579792e-03,4.993400671182212508e-02,6.243307322059430363e-03,-3.127019609123631722e-02,1.181544779714282373e-02,7.384418141823569093e-02,-9.782283771054266566e-03,9.178512129575026705e-04,-3.672395584245313066e-02,5.142908635259124672e-02,-2.007307444872584098e-02,6.315394486228972926e-02,-4.955105264099517876e-02,-1.018751904174386089e-02,2.104934142577011627e-02,-1.967192724067338624e-02,-2.867854607365971989e-02,8.413421139903688728e-02,-7.176502712587494448e-02,1.592420566520526271e-02,-6.107891426461793671e-02,-3.210466413328776081e-02,4.167341707228569732e-03,-1.403114803013653933e-02,-1.656348052384696776e-02,-5.208695900689746389e-02,-3.594283941973643037e-02,-4.687365786151604513e-02,1.022378891313637699e-03,-5.171022431816394219e-03,7.586119722174970714e-02,1.165796672905703921e-02,-7.487733399132989569e-03,7.133302976735507797e-03,6.869628902810571980e-02,-6.454556297718065661e-02,-6.467506702181308187e-02,7.804563717742770204e-03,-5.332559758236198044e-02,-2.571088606735597720e-02,7.304718799985768229e-02,-3.928661069029908831e-02,-9.155602463419507120e-02,6.410569397498394953e-03,5.278563484263758265e-02,-2.766738741677074714e-03,-5.353379870808047669e-02,-7.401000768982918254e-02,3.606687887454281525e-04,7.295809304510639248e-03,1.074901482969814470e-01,-2.753186210573238535e-02,1.871515220111814870e-02,-5.573636065672131490e-02,4.215561628311687709e-02,4.651659491966524812e-02,2.265043825349901882e-02,-9.106532604668069603e-03,1.334596698466314346e-01,-2.392300221029397458e-03,1.283561075764865986e-02,1.874825745631285984e-02,-3.074268203779150464e-03,7.520836603653781316e-02,6.624520357029148321e-02,-6.314042158920456227e-02
4.239016608612003467e-02,1.966552723308757564e-02,6.528390562024924404e-02,5.886707763848221531e-02,6.143216113317222227e-02,3.601232071386100547e-02,4.559403213771579672e-02,4.023452322489828523e-03,-1.074797642768188059e-02,6.670206749685327063e-02,-3.727136819616979485e-02,-2.546729763732818314e-02,3.474947671178302971e-03,-8.860899443172432985e-03,-6.952862489278321956e-02,-6.845610261223351867e-02,-9.136428497363714707e-02,2.175644652769589266e-02,-6.713272446923045610e-03,1.845972764435890867e-02,-5.128630856716143160e-02,-7.059559808721135865e-02,-3.139440417780364062e-02,-2.982556901665743554e-02,-6.160382408034471152e-02,2.751663061616516776e-02,9.184706224892471779e-03,3.935901839135778207e-02,2.907437759049718434e-02,6.272669359810594328e-03,3.286918419389069090e-02,-3.558157012197812191e-02,-6.175781210478620969e-02,-7.104484777535904905e-02,2.932976332231604019e-02,4.268807175275962651e-02,9.166512611374254271e-02,6.240036104955166280e-02,-5.644412002708353721e-02,-4.666737793204524948e-02,-9.987316214660610370e-02,8.961792786061802130e-02,-1.256022156065438045e-01,-1.564876403265617541e-02,3.801665528067756789e-02,-1.320002948105521851e-02,-3.128363976147069403e-02,6.017530917566279308e-02,-1.105369907405805291e-01,-3.598920099587776811e-02,5.464631197425500603e-02,-5.272616761121915602e-02,9.969945697595314349e-02,-5.237354673784321707e-02,-3.003465884123534060e-02,6.631153016928338813e-03,-3.551125886287790495e-02,6.592371633439803036e-02,-4.767272060813428775e-02,-3.076494692431843564e-02,-3.596998582427731600e-02,6.852763056389008477e-03,-2.259761268241880505e-02,-4.584772264482170345e-02,1.046667511536232553e-02,-1.172684897022027196e-03,-2.365657763530874987e-03,-8.222493200285464765e-02,-1.585657185967082397e-02,5.734609583135544947e-02,5.981405006666772051e-02,-8.734348138227453207e-02,4.903044817840344211e-02,-2.719335495174756562e-02,-5.523075807699485973e-02,-4.854026203961236269e-02,1.961491860372773996e-02,-5.942790723616542259e-02,3.761255658189689710e-02,-7.691416933648968779e-02,-5.534151286226079297e-02,6.023936116114715633e-02,1.754469859024623823e-02,1.322299940031244035e-02,-7.536740966902421082e-03,3.161356332732867536e-02,-3.750500354669927816e-02,-3.957724557835842760e-02,-5.284764862545194945e-03,2.562241217644636946e-03,-6.387892134676383810e-03,6.834636552125139541e-02,7.384124771968714369e-03,6.375729810827630850e-03,-1.654502932006974777e-02,1.772245163441052082e-02,-1.609896643576311584e-02,-8.070880774108973865e-02,-2.377490455251664997e-02,2.963705968984814768e-02,4.325022545277975444e-02,-8.520351909532300483e-02,-7.251892538289804457e-02,-7.483334795086832303e-02,-3.337578482504106880e-02,2.726424531979290342e-02,-2.391487398747283236e-02,4.041850779848608216e-02,1.387594313488360598e-02,-2.920271778710128649e-02,-1.284709669531521221e-02,1.043523369425526995e-02,1.121699926899530908e-01,4.654168381989758074e-02,-9.363190295222444115e-02,-9.483372050125803143e-02,-8.434564926169367538e-02,-1.526631942229544382e-02,-3.706613076695398912e-02,-1.257881819167197268e-01,4.468753289854932031e-02,-1.109461816885748582e-02,-8.620847916596154070e-02,2.275316561271608501e-02,-6.915132091328092534e-02,1.707528974093100171e-01,-5.198714724330347203e-02,-5.801608082484793760e-02
-2.608833194131437560e-03,-2.186559447318869170e-02,-1.548644364435621500e-02,1.947611199275735630e-02,5.250254084417794315e-02,1.727895456599313692e-02,9.756631772248168522e-02,-4.430003884167003914e-02,2.859095865608759363e-02,-3.113651800605991143e-02,3.415264487394084072e-04,4.288849636718558567e-02,-5.728702847416165811e-02,-5.275828368596702928e-02,-9.473084690641047495e-03,-6.099386019525063901e-02,4.715807943883131015e-02,-5.888902771968055477e-02,-2.906070808453399199e-02,-6.071521772525677839e-03,-7.565580673590660554e-02,4.859033797683394613e-03,-6.105823451223332116e-02,3.038956921975986825e-02,-2.487666071676874688e-02,-1.116698817197708284e-02,-8.255444587738172690e-02,-3.508842168803989053e-02,4.186526047058636985e-02,3.474608936678301452e-02,-7.726018848604225553e-02,-2.094174702216425668e-02,1.953360094359191459e-02,9.842304578179648933e-02,-3.788947111085798347e-02,9.763884537364818372e-02,-3.514812263617255166e-03,7.573641188400652424e-02,8.433378314837033235e-03,2.461575714166794673e-02,-2.018479628240101020e-02,8.784064297794684506e-02,-3.266848645458787087e-02,4.948887051597609249e-02,4.533900201645714445e-03,1.977272764090253279e-02,1.211612050348315726e-02,4.870834235535236034e-02,-4.231051455014905177e-02,3.274656873093487880e-02,-5.130571746690945623e-02,-3.513977546586882685e-03,-3.953665043265808254e-02,5.659186721312770875e-03,-3.744691624419517473e-02,8.341556041155632692e-03,-7.524309448704945280e-02,4.793893784254407708e-02,3.551710624851142639e-02,9.463114538591062275e-02,1.208323050910684602e-03,4.152269904418242480e-02,-8.562892166234277111e-03,4.936976195790243604e-02,-2.763124999892614675e-02,-3.096512954860733760e-02,-4.983571779178230104e-02,7.105176321053499611e-02,-7.672355583006720825e-02,1.431470413208986436e-02,-3.540643740418805696e-02,3.539183409802800200e-03,-6.030035368819196100e-03,-2.016844904395490370e-02,2.971534416357195230e-02,3.081890779357740126e-02,5.652040237010721698e-04,-1.023162270189536954e-01,9.581269906223960353e-02,2.069681400075981323e-02,-4.164095712334311972e-02,-2.395793442124769662e-02,4.419197679894261432e-02,3.452756275174797412e-02,-8.682166927557766201e-02,-3.343387310427253095e-02,2.080005205713538613e-02,4.567641260799187169e-02,1.649263179919648048e-02,8.659851968501555697e-02,-1.251674575327747785e-02,4.523831939459288520e-02,-5.870243597247833123e-02,6.531964168713332020e-02,-1.097753897831095365e-01,5.238378562147212592e-02,5.066246229656858058e-02,2.174861471705063706e-02,-1.088105454930484405e-02,2.506086277883905547e-02,-3.485061958217937350e-02,-5.576941649025486669e-02,-3.377793181549991475e-02,-5.203316764509510750e-03,5.425558750762292382e-02,1.309837620769919476e-02,-8.832846824953726958e-03,-3.268601121397968212e-02,5.246360614510643672e-02,-9.057801244310706087e-03,-3.483783674710153044e-02,4.670606172693814867e-02,-9.089155675733091855e-02,8.123140559274583117e-02,-6.133468510755382425e-04,-5.438147559471614989e-02,-1.516347350707242594e-02,-1.350365314310438512e-02,-2.402651221904438666e-02,-8.112477322417632752e-02,-3.088225736757143139e-02,7.515859861773378781e-02,-3.988832567545911451e-02,2.555722122412660766e-02,-3.472693683338159282e-02,4.180036298079931739e-02,1.198487152782382742e-01,-1.776769647283036940e-03
8.487800601946114687e-02,4.802307243981566304e-02,9.445188883694178791e-03,-3.670249209888177579e-03,4.781209765989557180e-03,2.508477842034293262e-02,-9.002179327768285166e-02,-1.574300923306010125e-02,-3.184313736987635229e-02,-6.173141769249045063e-02,-1.211180398912204553e-01,7.567937111086101010e-02,-6.180200889752944515e-02,-2.416273627304497615e-02,-6.735488895626644268e-02,1.822171854894039100e-02,1.212692446910173562e-02,7.969923297914908306e-03,2.498230599374694563e-02,4.450788854074143319e-02,-9.211941438125757428e-03,-3.052885534134593126e-02,3.247433358804008990e-02,-6.812303154081222889e-02,-4.642813914855006135e-02,4.917599682228153239e-03,-4.818837391800043918e-02,-1.006268364728404863e-01,-7.466694741188359408e-02,-3.345853357111682608e-02,-1.199759036784673119e-02,2.065822445799699730e-02,5.784598313456279506e-02,-9.195132370963578217e-02,-6.150480633035472489e-02,2.998176460406993746e-02,2.961419211110234012e-02,-2.283647046459345853e-02,-6.770569476314011736e-02,1.200194939706931453e-02,-4.381324600780056588e-02,-6.719693258194044594e-04,3.520315181650855718e-02,-1.007297402202141923e-01,6.810174244910749408e-02,1.767761514639711387e-02,1.187959466557803392e-02,-2.922716670213539730e-03,7.422872067729883831e-03,-4.856390406564816548e-02,-3.746450941341090274e-02,-6.302111754549752365e-02,-4.355082187105666774e-02,5.135247764597773885e-03,1.065061252569032488e-02,8.083473365455194626e-02,-1.709270789515439934e-03,-5.274549334460642419e-02,-1.565478392019159504e-02,1.510769346813356506e-02,-5.527139017818769040e-02,-3.284926672020547361e-02,-1.008778324616281530e-02,-2.337181489748165267e-02,-2.211205095732060588e-02,4.809853004069662014e-02,-4.248242261400619196e-02,-5.179701001703525265e-02,-3.123698722587588475e-02,-2.242407972469681599e-02,-3.485187404431983743e-02,4.555426456360314735e-02,1.127855173524707801e-02,-3.712538616960502687e-03,-3.258216623215628993e-02,6.235519286616312412e-02,2.718419550338090074e-02,2.492046997871607758e-02,-3.756982632478356871e-02,5.120283983965963348e-02,7.394629235270555601e-02,1.647474272122035135e-02,-5.301180205518078031e-02,-8.308062716181549567e-03,3.225964195976960963e-02,-7.865056698974881577e-02,5.476067450239160452e-03,1.644090550462781741e-02,-8.532302130345939539e-02,-5.907170581662930797e-02,5.009024797835120307e-02,4.469919788055970455e-02,-2.270127454694709224e-02,-2.319109207894226934e-02,-8.089092455046341086e-04,-3.948702838305850893e-02,8.609802283418410696e-02,5.447228483092722215e-03,2.575726498621290494e-02,-6.941270973680369223e-03,-7.930017820369364423e-02,3.157426566465874190e-02,2.641129491065406093e-02,-5.870248527896652392e-03,-3.842603030759950827e-02,-6.972537568054617239e-03,4.764914319288132694e-02,2.457559453110168615e-02,-1.963277550485143311e-02,-5.559267562261708661e-04,6.830292494675338499e-02,-7.265869036011385167e-03,-2.591021105906857885e-02,-2.499638397532765247e-02,4.693566172644583756e-02,-2.023850360296946399e-02,-3.045071040163001980e-02,3.447807620653706162e-02,1.715277749693280146e-02,4.748927176271101197e-02,-7.715908844819634009e-03,1.306593196372588805e-01,-6.726429833317028317e-02,7.506696016692346318e-02,-1.218546265898891486e-02,1.837953515428487547e-02,1.026986081543779517e-01,1.003075104378927107e-01
-9.128667309201121682e-02,-7.355675494758955046e-02,-3.316989450349992069e-02,-2.957072786937746389e-02,2.681275125432688519e-02,-6.272871331162042929e-02,-3.384040539212971460e-02,2.258646229399003530e-02,-4.282998073783045312e-02,5.605757976825680167e-02,4.803612096024132729e-03,9.828824783868690684e-02,-2.038701252870749395e-02,7.087712032378682553e-03,-7.525687468451842943e-02,8.033133821891941251e-03,-6.565261997281514501e-03,7.019469503901540341e-02,-3.522986370263735817e-02,-5.144537997915531180e-02,9.226480788561254587e-02,4.617515315610536131e-02,-1.106590827770845102e-02,-3.498299795450956345e-02,9.239046247650739216e-03,-1.430076659835099497e-02,-2.361851241099858015e-02,3.715457258808434193e-02,8.382737584488051188e-03,-5.858353721971496647e-02,2.800924477173644470e-02,-3.824772747820778113e-02,-2.507532490969107894e-02,4.232582062200849343e-02,6.820810234656908555e-02,-1.354004756867271259e-02,6.065713621821678531e-02,-1.564092809285475005e-02,-5.058019055984714664e-03,-1.030274934616861038e-01,4.209003613073862560e-02,-5.274252227856793263e-02,2.379680860699862413e-02,2.882868507358873206e-02,5.028077465095179277e-02,-3.921863725826774810e-02,-4.175000285930640515e-02,5.383113038731783540e-02,-1.475565251038375367e-02,2.915578419922241690e-02,-5.694262709468179279e-02,5.612761167937694445e-02,1.145694202273220552e-01,7.276789524495633210e-02,3.107641404872551246e-03,-4.023559207852976660e-02,-2.904937295549486417e-02,2.337756631681169473e-03,-1.979737781164358015e-02,7.530176459922765207e-04,-2.113400473564867182e-02,-1.224465013547160544e-02,7.001385027837887798e-02,9.073796921523244463e-02,-1.450218385809242012e-02,1.770679330633959797e-02,-2.280172039609400236e-02,-9.272254798824193511e-02,6.124558201757474007e-02,6.776255379732858131e-02,-4.335168351719367180e-02,-1.357340824110708430e-02,8.772178668990865402e-02,1.286134515627206445e-02,6.099001671650160911e-02,4.903987717251232208e-04,-7.834182699455193022e-02,-8.436823898993298099e-02,-7.466529772210024618e-02,-2.986726157601367684e-02,3.535613811420627254e-03,-4.235876485005536651e-02,-9.717672981498462481e-02,-2.302470012213227862e-03,7.493485409002899333e-02,-3.997755202790360951e-02,7.154673447818198084e-02,-2.888517448410537342e-02,-6.826165385985152878e-02,-3.704819035516988823e-02,5.809206541707119184e-03,9.019614561541271225e-02,-3.517503432735556018e-02,-4.230373014274134424e-02,-9.645494241204191632e-02,-5.533020543785323320e-02,1.263577885225051003e-02,-7.991445789870396318e-03,1.199338408661191572e-03,1.218484216283432023e-02,-7.622222275991341611e-02,5.189684243015555559e-02,4.103830211620017321e-02,7.561251015143106990e-02,-2.362126215192033793e-02,1.603243422569503307e-01,7.252833578479454812e-02,-3.948174284170060527e-02,1.740285564733170739e-02,-1.921989907060141917e-02,2.357018171467290327e-02,-6.391506034071790451e-03,8.385751401045792378e-04,6.643627687086384181e-02,6.006077803700455436e-02,-4.027369024839357048e-02,4.914191098359557523e-03,-3.232419258180551508e-02,-5.515080423273863164e-02,6.938352849437725949e-03,-3.421389879309400667e-02,-5.747115420757836768e-02,4.012629151413683176e-02,2.063286295342400128e-02,-5.564755725774058609e-02,-9.355700116679450951e-02,-3.127964639164107497e-02,-5.802574137811632865e-02
3.305284971423351481e-02,4.809594679816082963e-02,2.721450703403947152e-02,4.972675166152618065e-02,-1.224913719545830634e-04,6.331088152227799803e-02,-5.875989416555892769e-02,-6.736584345309178101e-02,9.047016744327009141e-02,-1.387430429999824133e-01,-1.921260778817248868e-02,-1.286427670361827173e-03,-1.107703648459767813e-02,4.888910401501618541e-02,-5.603768110576314715e-02,-7.400144473289671336e-03,2.193774252032672581e-02,-9.786660508673493408e-02,-6.059713537864527648e-03,1.250386609322761411e-01,-1.852530555358947867e-02,2.419131669368422902e-02,6.946521245938795663e-02,3.926223313560107259e-02,-4.306490404701561470e-02,-6.499085685406455482e-02,-3.126161429910733619e-02,7.141497938270041645e-02,-7.929395047266704633e-02,6.700152508960277586e-02,5.356539220748798152e-02,2.164801257957645400e-02,-2.325629887500245234e-03,-7.105687822457529279e-02,7.496114430956561658e-02,5.769452213965921283e-02,-4.013519743242678628e-02,-6.589218513684540202e-02,5.975252606200741334e-02,3.710512817708053190e-02,-5.632134814673387530e-02,3.900827105850418215e-03,-6.383335513089158364e-02,-1.567628855814402755e-02,-3.761017467058148239e-02,1.558452122645048558e-02,-1.236125814494544173e-01,1.096425664804520292e-02,-8.963080196192292940e-05,-7.032316999654389389e-02,2.721278281634747012e-02,1.982847657851854670e-02,2.163342580088916181e-02,7.245276301983877287e-03,-1.900451631155468044e-02,-6.730213302124481156e-02,3.202982007493999222e-02,5.798603995877661850e-03,1.097319106481711021e-02,-5.939635829668898220e-02,-3.068312665347237844e-02,3.481388476910762114e-02,-6.539308746834256517e-03,8.408192018568631798e-02,5.235286523517627966e-02,2.842079991417760867e-02,-5.480282080370499354e-02,3.220115171690571265e-02,3.253593989317117574e-02,-5.728434583332198821e-02,7.678738071759620698e-02,5.941562541190051339e-02,2.338653216176872149e-02,2.366921514874421179e-02,-9.625643416864304580e-02,4.747654585798975063e-02,-9.566771749923928814e-02,-1.412167434560035635e-02,-3.643852189421924875e-02,1.636491327354099674e-03,-1.134245444189113487e-02,2.928262103874786429e-02,-3.218005345590545935e-02,3.093730452451920118e-02,1.123838973621969425e-02,6.234203820954097724e-02,-6.962369508027589984e-03,2.232266982296118168e-02,3.443176374238560850e-02,-1.066104612100890296e-02,-3.050679705165319430e-02,7.395058716436406221e-02,9.387978806307488433e-02,-4.976829946235702962e-02,3.253316775918424584e-03,-3.477184983592954831e-02,1.368027134353361381e-02,4.691409998681213972e-02,-2.843983337254000696e-02,2.831906398113449852e-02,-9.286065923307848177e-03,2.712095697946399417e-02,-6.109098439977107137e-02,-3.707937322342843428e-02,1.406097235551067026e-01,4.226240202529043394e-02,1.079126278160804156e-02,6.244456422391877343e-02,-5.026865288160563966e-02,6.787694198232786455e-03,-2.605082981268384834e-02,7.060337652527363603e-03,-1.111248272119142767e-02,-5.596746124747277451e-02,-3.192189474757435586e-02,6.111543679955408481e-03,-1.969072389549711699e-01,-1.455256229817249725e-01,7.073622716986448407e-03,-2.280662235223416753e-02,-4.667612114839742726e-02,-3.825586157840157875e-02,1.334221771549716148e-02,3.488201345130897968e-02,1.888460333298925403e-02,-1.472614635692614908e-02,2.471669136230190619e-02,-1.261303678402119714e-03
-2.301782898904143008e-03,-6.415298807435214877e-03,-1.397436337881389767e-01,3.005874857429789368e-02,-4.284540285210758359e-02,7.723064889632561165e-03,-6.885819013372701872e-03,-3.353794031674999648e-02,2.247616976517244347e-02,2.331046347003228741e-02,-5.028994694361070550e-02,-1.118939357683479269e-01,-1.088542234847082596e-01,5.136229291682216369e-02,-1.721226616976842885e-02,-3.670405689180419179e-03,1.358870138725918469e-02,-8.898186738644270344e-02,7.849611757193043771e-02,-6.684871587731451570e-02,-1.360555154331426209e-02,-5.628889415761444831e-02,5.020933152362451468e-02,4.182675960391885744e-02,4.379103035932005450e-02,3.960783543234317611e-02,4.670707085915643680e-02,-7.071528695128175002e-02,-4.045837499038740931e-02,1.582149638139297709e-02,9.191523715568371278e-02,4.278384964575755040e-02,-1.057879793668012186e-01,-1.260328997282159427e-02,9.191647861125447350e-02,-2.653165824831209621e-02,5.165961162892562103e-02,4.949751843847037536e-02,8.039983784390630772e-02,-2.185855473917504288e-02,1.777796122876656873e-03,5.484345794048719417e-04,5.318678893115862116e-02,1.218008548963925852e-01,5.327742645065485644e-02,-5.935225895210518438e-02,2.972346722888598303e-02,1.539113733724351007e-02,-4.190920524278346493e-02,1.210683335409999152e-02,1.681413596231343816e-02,8.045965038582318651e-02,-9.580450159900357615e-03,-5.910855244362481914e-02,1.600787036940961097e-02,-6.009667695116973490e-02,1.176707230081295574e-01,3.400976258786894690e-02,5.846225765612125813e-02,-6.306677035984381390e-03,-7.016251231979664382e-02,-1.366806762629315386e-01,3.475075618902374441e-03,-2.667380679747164210e-02,-5.466850206324308514e-02,-8.621164002422380609e-03,2.073305536383392850e-02,2.425543459184757375e-02,-3.633895628209755924e-02,6.305974989632132099e-02,3.812339179452978871e-02,-2.279678187062273223e-02,-7.772534873343439621e-02,-8.976034580576293387e-02,-4.211182742019771441e-02,7.903762330462427155e-02,1.940000420510546233e-02,1.185406660322213118e-01,-2.166347669965215314e-02,3.541979700372811096e-02,-1.222009107330946677e-02,7.952909645863422139e-02,6.260895731656695128e-03,1.513128282742003464e-02,-1.238609119545595362e-02,-3.062568435464280495e-02,-4.653873307286043176e-02,-6.793860542283014503e-02,-1.496250670599006891e-02,3.028305125993461383e-02,-4.388218972113467481e-02,2.451172034195084337e-02,1.942505329806494194e-02,5.279697087606069483e-02,-9.789108533067859830e-02,-1.219100840330897186e-03,-1.124707402987202010e-01,-1.424928174630976825e-02,4.741948555135479942e-02,-6.828219974665827863e-02,8.545390699553999381e-02,2.621577620715824508e-02,3.161176143225313036e-03,1.232133297637709596e-01,-6.508406445702484555e-02,-4.401212562952578483e-02,2.348028187436852418e-02,-4.920667870405706634e-02,-2.557585872918132983e-02,-3.025491783461263517e-02,-4.684797455454672854e-02,2.019828825934035302e-02,4.334240445944942399e-02,-3.725021394116922319e-02,5.781017530453939901e-02,2.093778776959039425e-02,2.590604803531483188e-02,-2.873826517740142583e-02,3.121870450291159421e-02,1.236810863158517709e-01,-5.939245541182435785e-03,-3.830234725742798219e-02,-8.077501680732930567e-02,-9.788918159285142986e-03,6.462318925385675955e-03,2.962692760757828711e-02,7.823146677986927977e-02,2.592424741032654106e-02
-7.971509528425710367e-02,-6.972356274948214583e-02,-3.732444123750467465e-03,-1.315413609669535966e-01,1.578110420049487830e-02,-8.805113570674755197e-02,6.952271093797822432e-02,8.984557833607862212e-03,1.212757106292022824e-02,-4.844479770713899791e-02,-3.254739273262748089e-02,3.951695370445253153e-02,4.441575657831487584e-02,-2.326730412841660628e-02,8.529905523747789708e-02,2.437734671028378430e-02,-8.732323921406270895e-02,-3.002324200644611654e-02,2.111809197571138524e-02,3.825379180112116473e-02,1.302529296385966928e-01,-1.504813071779127938e-02,-1.717463960315320642e-02,2.294247745653596113e-02,-4.635937602900477156e-02,-1.834302333288262822e-04,6.779904994837231136e-02,-1.097580678976076141e-02,1.520542184089201942e-02,-3.959948462051641332e-03,1.209015198382717635e-02,4.432056445679830037e-02,2.175965798725934541e-02,9.488201306020938031e-02,-2.729491555764619257e-02,1.143427086953994337e-01,5.301914857886661902e-04,7.659849067466519001e-02,-1.977345028574776023e-02,-7.745135226935730144e-02,1.728890874585528245e-02,-4.959113292595093703e-02,-5.131445674407352983e-03,-1.565062940031181765e-02,1.377996578962577268e-02,-8.950215557812918332e-02,1.736479037343131165e-02,-6.803525454763838243e-02,-8.515834339120360863e-02,-1.423625070478306588e-02,2.610901065373028018e-02,4.516911018454839583e-02,5.008063874391649462e-02,4.027509959134031869e-02,8.454502952385936632e-03,-8.021068184736141003e-04,4.540573791860857966e-02,4.264106150544810098e-02,-5.387023255985582543e-02,-1.503107550450888050e-02,-2.488265837269714592e-02,3.393618517839949028e-02,2.106737517955759899e-03,-1.782422315634666840e-02,1.036590393748124533e-01,-7.774324272008664716e-02,4.536069641694086274e-02,3.981316434918472785e-02,8.291214430491862519e-03,2.677546477656155346e-02,1.105642907201318838e-02,-3.987864283722173525e-02,2.374469528862331591e-02,4.051146259230926916e-02,-1.859595583053803153e-02,3.688526020870203787e-02,-3.088325964321693776e-02,-5.854424668914651186e-02,-2.382746212322920352e-03,7.487646870036782781e-03,3.770088753637882567e-02,-3.627140085841131650e-02,8.543337416854929200e-02,-6.146072239211555766e-02,5.208635975361653597e-02,5.127541591031456458e-02,3.632481729816250393e-02,6.324428004893881128e-02,-1.703056375014035465e-02,-1.157727583921750033e-04,8.338233911934013476e-02,1.610011715191814879e-02,5.097124939136189054e-02,-1.576677527367054479e-02,1.995166924189695559e-02,-2.515721267063362326e-02,-5.602480438984853289e-02,1.446783296044675676e-02,7.376569511586868189e-02,2.689150331398576510e-03,-1.270084853628634936e-02,4.332661973089248914e-02,-2.602081831099647274e-02,5.402868507602865029e-03,3.033649548939468601e-02,-7.661138198788712550e-02,-1.077756229061623862e-02,2.667157555184839629e-02,-2.967587992525466158e-03,-8.449491307092627315e-03,1.659265599993184001e-02,-1.122631599075983935e-02,-9.247320474128448153e-02,-6.192418138706458526e-03,3.112811910149490199e-02,1.380633337039913720e-02,-1.884629506853706003e-03,1.008717885550842845e-02,-1.710927204168580934e-02,-2.949718827137673069e-02,6.907447309737883845e-02,1.898486541046271597e-02,2.108882538445632296e-02,8.256278931396718312e-02,-2.494430152635366410e-02,1.035224332726432731e-02,-5.126852341048106741e-03,7.458876062650986183e-02
1.904241297692031709e-02,6.343159512601567220e-03,6.411298993932604794e-03,2.474342391580523770e-02,-1.110862632084696697e-02,-5.301752906235615570e-02,1.210790528020018186e-01,3.230115563038758741e-02,-7.891276985731913649e-03,-3.125258563148593932e-02,4.341670609048969148e-02,-4.526630518474890341e-02,7.675685424272901680e-02,-9.230342523995004045e-02,6.776627852960403174e-03,-4.141721203320884725e-02,3.492420230117081886e-02,9.671995289627609294e-02,-1.673844633754733094e-02,-3.968329142392023473e-02,2.160987103453961347e-02,-6.221975577979328709e-02,-6.411203210891602833e-02,-3.483005497998926947e-02,-2.677662665892656391e-02,1.580102732532664978e-02,-9.056776700328822427e-02,-6.800080379279048459e-02,9.214252848194344481e-02,3.727609082147292224e-02,1.264570317331106288e-02,1.968816125304069520e-02,2.906141248511506792e-02,5.263676815912506773e-02,2.579452198947464886e-02,1.465992782032434459e-02,-3.830614964739929851e-02,-4.682680617565680714e-02,-3.548029340408968835e-02,-1.745739609138014306e-02,9.351116119911333235e-02,-5.732015650199074469e-02,-4.712463831296462985e-02,3.106407669851228570e-02,1.443053479078877654e-02,-3.117229146942206153e-02,-4.610345602916302715e-02,3.029650795574859862e-02,-2.448148016270159516e-02,4.915001502183930643e-02,8.350564599599631654e-03,-4.693630493562055660e-03,-7.396811540191838841e-03,3.064206787172726529e-02,-2.807756048504774643e-02,-4.121090692020611124e-02,2.996190489694541825e-02,-3.928861251054120924e-05,1.014033715176871492e-01,-2.933888923073438380e-03,8.540781572742940642e-02,3.997060875999486340e-02,3.483251293558735362e-02,-5.254877917304150159e-02,4.995659563965192812e-02,5.003149048327829723e-02,2.196982901901758673e-03,-6.119632807992574780e-02,-3.914122483386663770e-02,-4.613719924754105389e-02,-8.786916279951784148e-02,-6.226636477253479768e-02,-3.470287921152615408e-03,-6.564324637496930792e-02,-4.620240324248885144e-02,-1.083168534196732140e-02,-2.527970025340781773e-02,8.917557335642875907e-03,4.302944998072991828e-02,2.952107447325516901e-02,-4.883736016313236852e-03,2.343314285980984193e-02,-6.622712287338357318e-02,7.048416306850180738e-03,8.921374081327598793e-02,8.288716632296640185e-03,1.249216884668617744e-02,5.493709969017368348e-03,-9.204653388976309636e-03,1.136940647038932675e-02,5.028405994693627840e-02,1.236621354490018837e-02,-1.287275784886705576e-01,-5.736689407927115375e-02,1.069413569409217446e-01,5.313723468938628177e-04,2.023862109094198836e-02,-3.463019603099582594e-02,8.758803793176518637e-02,1.991797823657511131e-03,-3.177029203526734319e-02,-6.488238190930209481e-02,9.455112677271233779e-02,-8.104928460910029719e-02,-6.255127100480385727e-02,-6.813080153266665162e-02,5.181902652865517239e-02,5.920194295629842979e-02,4.112217427155903660e-02,-4.128687375878458549e-02,2.897712780573589997e-02,-8.228169895172710718e-03,-1.720135033315466425e-02,7.297088024330236622e-02,-4.656620668389126888e-02,-2.558633497056736136e-02,8.627501727070451681e-03,-2.065940331933224100e-02,3.481704549901037948e-02,-8.715796737991785004e-02,3.729738176930042642e-02,2.779484543646268749e-02,6.082902927699007645e-02,1.089927541498821387e-02,-4.523357511399437453e-02,1.295131323947906477e-01,-7.936553101897357576e-03,3.108037214172752749e-02
4.427651460323844823e-02,-4.005435490037666246e-02,7.481546080560146084e-02,2.414278865229620499e-02,-2.026049428898236623e-02,1.683494929811814658e-02,-1.108150966215493832e-01,-1.408477386402806619e-02,8.006535020822687365e-02,8.072188607567985785e-02,4.678214722598019598e-02,-6.240972084564466033e-02,7.304439498460214321e-03,1.247483470923311383e-01,1.102906442645209817e-01,1.783170741705245727e-02,-4.037264921357864439e-02,-2.034592941561681918e-03,-2.794030725099275886e-02,3.350481900253634432e-02,1.070198523607377439e-01,-3.352954872266546843e-02,-1.144722562068587884e-01,-2.001802911203472840e-02,-5.629449684401455906e-02,8.620409862883286756e-02,-5.715742259308854989e-02,3.209960245540437185e-02,8.416465182867680084e-02,7.281114578298070183e-02,8.506574463706031985e-02,1.203006011397253321e-02,-2.212745859894526754e-02,4.602000439514720813e-03,-2.000515933838287880e-02,3.082316189124123529e-02,-1.599177537771244786e-02,-2.522538072185117122e-02,-4.371088782650584675e-02,-3.882887176558504072e-02,3.433717376792055215e-02,-5.260994975794731909e-02,-2.510318526910385734e-02,-1.738021467561817399e-02,1.850995401597818266e-02,1.896375568751286489e-02,7.709184230076969457e-02,1.256454705201451132e-02,-3.514039682362796180e-02,4.346013478611066710e-02,-7.912086854686462044e-04,2.629273655000390064e-02,-1.981302064241476785e-02,-2.183907469726256018e-02,3.109325730903744409e-02,4.656723852554307819e-02,3.261205914608027168e-02,-2.491563530009886437e-02,8.098474760484951351e-02,1.781080097389561856e-02,-6.502558288714503643e-02,1.048062877752029692e-01,4.611640041509565413e-02,-4.274736955867103685e-03,2.411773537618161836e-02,9.591062335250256921e-02,-8.043249072122117885e-03,-6.078910312817165096e-02,-2.005022956266602069e-02,-5.416858663299053273e-02,4.938496494988241226e-02,9.859242791274636791e-03,7.689594330692080260e-02,-7.563457282452769326e-02,-4.500251890926874887e-02,-2.864252726087888196e-02,5.931524014080155095e-03,7.510647833124771931e-03,-1.010843355427700346e-01,1.315930097864643003e-02,7.603228117901399130e-02,4.109237449296513495e-02,-1.176141592626306354e-01,-5.770878919847383798e-02,3.790049176102786629e-03,5.048793250475072658e-02,5.486070951581223376e-02,4.356918349889865594e-02,7.711110350156444304e-02,3.491932381829700865e-02,2.531872976027293998e-02,-1.085761043599127729e-01,7.824208703260405670e-03,-3.529156154742463247e-02,-5.318526307285249138e-02,-4.823807728275595480e-02,6.790539213700781673e-02,-4.639177448449496692e-03,-1.838009556229978567e-02,1.186216136632265439e-01,-8.603384742570467647e-02,3.921411653424423938e-02,3.761471186201030548e-02,-2.293770826631640752e-02,-4.102491715795984067e-02,1.411090758806778922e-01,4.544453985623381903e-02,3.493143347864213072e-02,-4.581536833912425860e-02,1.566822205854979597e-02,-7.858040468946549117e-02,-9.382843834196696181e-03,6.675445215164571566e-02,6.916073322546262281e-02,-5.474904505732099830e-02,-8.572227560931761081e-02,4.829531270406850485e-02,-8.325491808871224308e-03,2.882052751295299808e-02,3.797387844899208480e-03,-7.041579981581115588e-02,-6.869723361856726329e-02,2.307326593783188065e-02,1.637698734431753680e-04,3.350148363715049760e-02,1.039835773721772133e-02,-5.980043330401867141e-02,3.382624098625941489e-03
-2.968381444366931937e-02,2.212504867228981542e-02,-8.431360468021432963e-02,7.870859957580843280e-02,1.875837293432152178e-02,4.966482710113015626e-03,3.534482569441783906e-02,8.995406513447559704e-02,-6.006983926552516596e-03,-1.655354126145384269e-02,3.054295048773978533e-02,1.588767571540724774e-02,-4.508856284190893363e-03,-5.185175421753444175e-02,-7.991010018394513470e-02,-3.468038833941661930e-02,-5.294501272564771516e-02,1.409487521557943775e-02,3.939524158059379624e-03,-1.056701820655789742e-01,3.706259724377641146e-02,-4.898742735822544242e-02,1.086040128756175262e-02,8.951611786403525575e-03,5.550725640265613547e-02,2.901633813872397938e-02,-6.121196047047172684e-02,4.975892176738679062e-02,-3.598084532008852254e-02,1.281299105216807642e-02,-5.569042979153664835e-02,-1.791258851958435136e-02,5.687727837057198615e-02,3.471812951653673041e-02,-6.816030041393154881e-02,-8.980192079802530591e-03,-3.286565811062137216e-02,1.075593780799865423e-02,1.786421732410212399e-03,-5.060601248543534353e-02,6.868817354271927744e-02,7.416032860090511492e-02,7.839541094434014645e-02,-1.286495137449051272e-02,-3.362082271700586687e-03,2.484746296257100626e-02,9.652837755588765389e-02,-4.510119898184837550e-02,-3.301863240499681301e-02,1.252406348901402566e-02,-1.492081048595210891e-03,-2.605777066903643482e-02,-3.758291519430560779e-02,2.992842544803901023e-02,3.738033887675980965e-02,-5.573863252447546629e-02,2.373754928804997638e-02,7.455418062691656668e-03,-9.078015897863330602e-03,-4.950426980380250724e-02,3.864079540713612204e-02,5.391257580512857223e-02,6.397284706973492552e-02,-2.027640404759966514e-02,1.077870544188602731e-02,3.392471890416907943e-03,-5.035732339463981633e-02,-6.624773543156774191e-02,-1.214642426121053352e-02,-9.014007333411953871e-02,8.925905326552675823e-02,1.194088375547012158e-02,3.103522303669549107e-02,2.069384626115815945e-02,-1.138299330403232806e-01,-4.430530158162354105e-03,7.639060452235833017e-04,-1.076865449169339337e-02,6.873123021227441065e-02,5.992268714612736941e-02,9.633067105167850142e-02,1.119847530096796002e-02,-4.649118813430994090e-02,4.736108683471002175e-03,-2.683799085041598323e-02,4.271727673755625759e-02,1.544976737873659210e-02,-3.443652591110739347e-02,-1.434815289770411360e-02,5.832338418622320941e-02,-6.183636859209519498e-02,-7.082807328163531757e-02,6.713439299288834206e-02,-6.629727930383623458e-02,8.386139283394419830e-02,1.988103574862475076e-02,-3.506887160718059893e-02,3.347502095069787575e-02,3.496784267654817757e-02,4.765609720250012053e-03,-3.266569062491633119e-02,4.581545197053360496e-02,1.098480896793906370e-01,-1.493710051105157956e-02,2.661315722468019992e-02,1.503389252724789300e-02,-4.221599941426271846e-02,-3.226732059637009431e-02,-3.926097827580135591e-02,2.282929884894872169e-02,-2.256443868260069041e-02,-6.802548324738966201e-02,-4.217573278289872551e-02,2.733894201122728448e-02,4.538681209078967993e-02,-7.378709271274949688e-02,-8.515743001901871986e-03,1.096676173069482084e-02,-1.962931174728145805e-03,8.461146117923926818e-03,2.624087671037456451e-02,6.858322939687074016e-02,-3.039112179592141569e-02,-3.673410500028376907e-02,1.095508460487259333e-02,-7.590958747449118305e-02,1.033400960952808451e-01,7.330165033511004680e-02
-3.240352367908770018e-03,-8.604706080045333716e-02,-3.995608132487267483e-02,2.670135033600602725e-02,1.449234451174857136e-02,3.504535744515942242e-02,-9.524167452653862359e-03,1.033361204348816169e-02,-9.431530133015935541e-03,-5.833169629022458974e-02,-8.243804283428346480e-02,-3.624845542945916155e-02,1.006514266975817862e-01,7.828445906654908637e-02,3.841647173674197363e-02,5.201858088609151443e-02,-1.764837341341804824e-02,3.256238968144323231e-02,4.137481629736937394e-02,-6.987638869231223250e-04,3.122966844336415998e-02,5.227765006363604278e-02,3.625036810368740745e-03,1.249489946665038528e-02,-2.646419266257109965e-02,4.928416012457691869e-02,-7.866790398454123756e-02,-2.278461572951124073e-02,1.532365370751683116e-02,8.752520730221405310e-02,5.784523494500352307e-04,4.310033815587539785e-03,-4.276146989869077791e-02,-2.847526784020629198e-02,5.374357897247204058e-02,-1.906456108815986206e-02,5.245172034071365723e-03,-4.259983227785384824e-02,-2.107056181038802385e-03,8.949300970830095445e-03,-2.771757373746733602e-02,-1.571517287748024419e-02,-7.065399572064630374e-02,4.104947096482736840e-02,3.241020904916702607e-03,-7.791675808505928516e-03,-2.416775172529229618e-02,-3.628594457005105550e-02,-7.500079766668048264e-02,-2.583626669009912030e-02,-1.166368094532805877e-01,4.945413382318496198e-02,3.863185572506425136e-02,-5.372578144633247121e-02,8.984991055415456410e-03,-2.168052649987712265e-03,-5.061029410645301319e-02,1.292276705776752160e-02,-2.128761455085722426e-02,8.248699492204199235e-02,-1.088200796378680293e-02,-2.224495991211743184e-02,-8.330648681173866144e-02,2.153322848247673713e-02,2.063428300076402405e-02,-4.697018933876295765e-02,2.411509527981077136e-02,-2.441685024458971690e-02,-2.460921376651463086e-02,-7.770816664896890158e-02,6.725031575568535258e-02,3.957516879524567571e-02,-2.617090015557971619e-02,3.422521871588089099e-02,4.118940536176283335e-02,-6.589750530197635570e-02,-4.605997463721739349e-02,2.930317959637441377e-02,-2.262045887750338546e-02,4.092699292137836481e-02,1.344171776567812220e-02,-3.894479810763036565e-02,-2.806983488228786613e-02,3.089152549607347351e-02,-2.568043019901735877e-02,2.631255731658100824e-02,-3.007397354781119955e-02,-4.498953836933822226e-02,-1.089534545528887677e-02,-1.208797314306824522e-01,-2.671375800169538406e-02,6.357369818505072268e-02,-8.346553076699565754e-02,3.114308644864302936e-02,-4.314820686341255991e-03,-2.020465338632255678e-02,1.041463269614857634e-03,-3.213393924744294833e-02,4.167356547189442206e-02,-2.398663086584785012e-02,2.041664935046423601e-02,-1.145357384168945586e-02,-6.510456442462324300e-02,-4.812998647665894109e-02,-1.582505599207535418e-01,2.115751882498417488e-02,3.403070470401283604e-02,-2.233630935291272199e-02,-2.633430119499007363e-02,9.093022147650656195e-02,9.180450152825751775e-02,-1.625855978516385983e-02,-4.460558887041736476e-02,1.040628534692708690e-01,6.925225366453872586e-03,-3.054340276375290195e-02,-2.624866849521934400e-02,3.941826494247958196e-02,-2.084817641624996110e-02,7.086308320659998050e-02,1.984484342706444721e-02,-1.102244922840073804e-01,-2.074983596455431348e-03,1.656698742058943311e-02,2.220266099319435915e-02,2.546954262473998670e-02,-1.716419627757008806e-02,-2.299957579326611032e-03
-1.801164028339574674e-02,-4.263270432450762260e-02,-6.343991215745338474e-02,8.553760622724890239e-02,1.250718331492308572e-02,-5.760193905944993586e-02,1.589408977306512316e-01,-2.780330593578507134e-02,-6.432579430941753884e-02,-8.148329352311244056e-02,-1.579796495892268893e-02,-1.899524123229533526e-02,-4.507146566213082739e-02,3.648811464822976358e-02,-8.905207299407023880e-02,1.865285881830528413e-04,-1.346583225744356904e-01,1.292260596492453631e-02,1.470964418953754280e-02,-2.521010623118147970e-02,-8.390935698947721288e-03,-7.813754205681124054e-02,7.559870159636788989e-02,3.045904673375176772e-02,-4.134758314270255142e-02,-3.254553840980756174e-02,2.932536811338878197e-02,-9.579307669101810863e-03,-4.640798840605460385e-02,-1.382921498769139768e-03,-1.745925549913749861e-02,-3.742428879750165499e-02,2.279234073684367756e-02,-3.396014340711472207e-03,-1.441448312519755075e-02,1.133371341275046969e-02,-3.447408942203696730e-02,-8.411724867627944080e-02,8.845602999935896216e-02,9.436891904351553048e-03,5.767060409372105900e-02,2.164836833670684066e-02,-4.859625432570405246e-02,-5.309147366294404702e-02,-2.006288555837333794e-03,-4.364188661756079890e-02,-1.413554413607438429e-02,-4.089753583222280331e-02,-3.412880048244102543e-02,-3.233211163081867179e-02,-2.659097056982399898e-02,8.831086322374170905e-02,-2.286285003209865413e-02,5.651811264534344070e-02,-3.853135054039696222e-02,4.970102169185498624e-03,-1.071717313463790983e-01,7.586914379917800155e-02,1.895705582571329678e-02,-2.678851669875699504e-02,-4.167463635326679183e-02,-3.251197221425354555e-02,2.012185405455176393e-02,-1.092314554850104709e-02,-1.426418631259130931e-01,-5.303987032602210799e-02,-4.849687404955850545e-02,-8.991940781182284140e-03,-1.052437835163214097e-02,4.234659308052380472e-02,4.806928360628862952e-03,1.623362910706102266e-02,-1.499829587375299056e-03,3.302273069580536485e-02,-1.261090470140874276e-01,9.394271522266375157e-03,-6.735133542398306916e-02,-1.820751111693463473e-02,-3.765256192634076904e-02,1.355580168568467497e-02,2.454353409817008284e-03,3.251578247556371343e-02,-4.020172085054219552e-02,6.556953498103426647e-02,1.490930597712026434e-02,1.736636459005823016e-02,5.693676470603271922e-02,2.609431247991000208e-02,9.817050807511051858e-02,1.442310744912439144e-02,-5.511788649377460936e-02,6.711496533914010180e-03,4.973673361964082995e-02,-7.929896888153982948e-04,7.754723391409970579e-02,-8.793035111192659507e-04,-3.182545650999010073e-02,-3.796970757524111700e-02,-1.999215482010242850e-02,9.298180981669852685e-02,-3.321010507561203418e-02,-2.733385455619632629e-02,-1.185113062066350392e-01,7.822862159120393436e-05,4.183085741906900079e-02,-8.132534351567632935e-02,-5.576731645594863729e-03,-7.649560101067374995e-02,3.764210502661917424e-02,6.560712948820966728e-02,1.292140624283558969e-01,1.615389558005965107e-02,-1.949139846815611463e-02,-7.281576159182667762e-02,-7.388803789670285449e-02,4.591950993964132033e-02,-4.571209763754259525e-02,3.396234270180963771e-02,3.617521517065041409e-02,-2.178602101067127206e-02,-8.643689866297663005e-02,-2.251396335243184554e-02,-2.972900570374047494e-02,-3.323718426091996220e-02,5.679338822628782202e-02,1.472812559189757772e-02,-5.679233941833029820e-02,-3.793893434241288332e-02
-3.135088411309429335e-02,-1.284613346199555035e-02,-2.736715821110698513e-02,-3.409074872923113786e-02,-5.931895799574317396e-02,-3.611512339983721787e-02,-8.160676640896119549e-02,-5.547692392451749818e-03,3.937619358848713780e-02,5.191144702046107846e-03,-2.480450399306914633e-02,3.419189271190262863e-02,4.447815298879267271e-02,2.823570952795498301e-02,1.300536515449404566e-02,7.460724077959104625e-03,-4.552583229261672471e-02,1.395529224593999341e-02,-6.892165244393898271e-02,4.302398503973318272e-02,-7.670750819110029595e-02,1.124732682204217585e-02,-4.986618566990360518e-02,9.891703505999605017e-02,-6.255218156796735207e-02,-1.184398202198891012e-02,-5.452858410518331145e-02,-3.522887354463572623e-02,-1.489824285010021322e-02,-2.839863614485368167e-03,-1.942269824752592550e-02,5.734367385171420389e-02,-8.675689935194060530e-04,6.070916002586271461e-03,-3.408328390215050602e-02,1.156161500543294307e-01,3.008074413872864269e-02,-8.063358442790474062e-03,1.218709815681195616e-02,4.417659380129051322e-02,3.184381981281932811e-02,-7.921161767377948859e-02,-9.451967011199642610e-02,6.461614346686180010e-02,-2.287862346890924894e-02,1.479893753599905160e-01,-2.120287425569097189e-02,-1.069191533828885675e-02,1.113557923033896280e-01,1.003051003905575111e-02,-3.915964991801848538e-02,2.456878574855273986e-02,-2.647386731957239881e-03,-3.323222726971224866e-02,-8.501819051507369940e-02,4.897165792737329798e-02,-9.194622710407480970e-02,1.146941346626081763e-02,-2.369206288834261112e-02,4.710817728976086916e-02,-2.709888579441233850e-03,3.260862803382394426e-02,-7.496113551556421450e-02,3.746242570068345629e-02,-1.298500305138561468e-02,-5.412748874371060837e-02,4.035498648778606395e-02,-5.509448486866951739e-02,-3.793775574060925804e-02,-3.761679993323784749e-02,-5.704326256684864871e-02,-6.803800706380316865e-02,3.832684678550211249e-02,5.954381776325519404e-02,6.099832879994020272e-04,3.454690577367649368e-02,-1.168024545067128947e-03,-6.666455245807971497e-02,6.536559809624595263e-02,-1.854214973098801053e-03,-2.880246525295730373e-02,6.198613185200171211e-02,-5.582824095157491034e-02,5.671808471060200973e-02,8.135278111842055015e-02,6.576696742884378943e-02,-2.743900640517982041e-03,7.868163181443346699e-02,1.119073728195752945e-02,-3.990423970778506774e-02,2.135127825212356292e-02,-4.010187452922171769e-02,-1.189283545170863841e-02,-2.639886631918933121e-02,-3.566943700645409943e-02,-7.489794654178046941e-03,1.763499358539722534e-02,1.062104682391477734e-01,7.517063227972306007e-03,-1.611137752381834598e-02,8.754125501976229434e-03,-1.015576500204174414e-02,2.541649090364532515e-02,-4.252317625874473678e-02,-3.554380997388235930e-02,-1.139031662592648875e-01,4.171757998121125577e-02,-2.538050332516107038e-02,-3.277149552732601390e-02,3.861200142188133538e-02,1.393236592553996449e-02,-6.022130220461431593e-02,-8.305734064594232080e-02,1.646550826227087885e-02,3.715405881158993090e-02,9.358555673057945487e-03,-4.095889904127543446e-02,-1.259580643403057088e-01,1.018964703110550665e-02,3.370303045161449074e-02,1.209845810940317866e-02,-1.264464234863890701e-02,-1.917255319290132182e-02,3.814593249595406299e-02,-1.019686507504367727e-02,4.064373059688302509e-02,-4.303437796883585742e-02,4.979270917901434251e-02
-6.440092657156010203e-02,6.883828657510136784e-02,5.209165218627961197e-03,-8.234793562759138569e-03,3.260345396975179721e-02,-3.660911550785322932e-02,5.799007076728208976e-02,6.468367005922194546e-02,6.181241122604884224e-03,3.400159015988362537e-02,6.087942899063506635e-02,5.451781076945973192e-02,4.771360966524306607e-02,-9.133714275223440981e-02,-3.119566238398796890e-02,-1.138689212099847775e-01,-3.665198310373442292e-02,1.803805451500763504e-02,8.086647918477993247e-02,-5.859927340733223078e-02,4.340382003008190492e-02,-2.241261218067580954e-02,-1.538375372685998367e-02,-4.922961727204592380e-02,-4.880090518053731286e-02,-8.623745446404444681e-02,1.727498985059816930e-02,-2.146952749127977941e-02,9.613636975727776757e-02,-6.037511338586946941e-02,3.923625655647957483e-02,1.591659164644253915e-02,3.408365549840915859e-02,-1.852463026144624816e-03,8.486059651760309575e-03,3.110687666906549083e-03,6.537148740273150682e-02,-5.458724353926246858e-02,7.637822231702601217e-02,-7.991077094379871182e-02,3.722310891377141311e-03,2.324381783025881651e-02,-1.782898723315719941e-02,1.371473680450004942e-03,4.498217243079512262e-02,-1.945089267014491960e-02,8.471699718602955509e-02,-3.441258824199112942e-02,-1.351748002452284568e-02,-4.019971520153971245e-02,3.516619270718726598e-02,5.078618569400417115e-02,8.854289977451181015e-02,3.943897568882152871e-02,-8.569319337753195792e-03,-9.117200092717584424e-05,-3.554714221169279209e-02,8.512206552076281851e-02,-3.805970507715614876e-02,5.639504265970650063e-03,-3.811389435206104931e-02,4.232736390613391769e-02,-3.669394906442225573e-02,-2.728240078137921746e-03,-9.639389669957849904e-02,-4.905691009010357782e-03,1.467884107319941157e-02,1.275695656079988971e-01,1.808592598691297765e-02,5.478998183882659995e-02,7.437453012282305154e-02,4.289733286713782318e-02,-3.120480867180567934e-03,-2.341858060229499647e-02,-8.318091364435122037e-02,3.694116812358659574e-02,-4.548204132982606313e-02,-5.633914461240842678e-03,-7.808875994920500864e-03,6.006464298360722487e-02,8.387790203402897826e-02,-3.101508623133983691e-02,-1.380958417435630345e-02,5.253265865968255455e-03,1.995158903925758551e-02,-5.372399325071532811e-02,6.436100271901189218e-02,6.707612645767754844e-02,-1.659500425535354734e-02,1.649068793055979421e-01,1.369740698905403190e-02,6.949062608061506996e-02,3.286080537070066622e-03,-2.366682291208433396e-03,-2.766831358269329633e-02,-1.036639376893177568e-02,3.486052319939003143e-03,3.065945359776220749e-02,-9.055106739339220320e-03,3.447443878479274082e-02,-1.069456430651834766e-01,2.028048677926723789e-02,8.073207599237681997e-02,4.603710689284815083e-02,-3.572925892958125904e-02,-3.086733011334105367e-02,-5.483512858566111370e-02,-6.297560758375600476e-02,7.731312789773230922e-03,-5.798381665641133380e-03,5.807653598298188197e-02,2.913006908585549348e-03,-5.613604974016569993e-02,8.275750272453133438e-02,1.354670686160591893e-02,2.456212886613829902e-02,8.621019385023623305e-02,2.435931332048422993e-02,2.691622774914579491e-02,-4.090162625614942454e-02,-4.963317890025860379e-02,-6.861824087082079270e-03,-5.683031346151857371e-02,8.176554153598646069e-02,-6.612438896135544586e-02,-1.095853612281973422e-01,-3.139615326613070384e-02,4.028901542734071584e-02
5.427892498883683109e-02,1.397834517336924744e-02,-8.221184954704702230e-02,5.441415057302206610e-04,-6.422335852326178929e-02,-5.232750805898530623e-03,8.737363644186706135e-02,2.402083164402787213e-02,4.470354378717807109e-02,-5.515661832885981886e-02,-2.477461626860069308e-02,-5.231370423917112988e-02,-9.774057309126307769e-02,-1.496063244236048436e-03,1.672413616358868829e-02,4.116201911867314878e-02,-1.736782809121362875e-02,-1.022575101650013973e-02,-4.229043915725880926e-02,-1.750413512407839739e-02,1.571795888482916542e-02,-3.838733031539882240e-02,1.624937725402247624e-01,1.234530689741509812e-01,6.926659163550602516e-02,-5.008011700019930623e-02,4.956980298666704282e-02,3.975672255645491815e-02,-3.203393279675588456e-02,-3.377530966665501233e-02,-9.617455191439981677e-02,-4.089243923644138301e-02,-2.151939029800836387e-02,4.989054722328627178e-02,-4.941981215897711839e-03,-3.265834017553320007e-02,-1.147692500201164395e-01,7.532463612019824062e-02,9.830142196073285432e-02,-5.810583678111538863e-02,-4.076823575997978732e-03,3.527349580262775092e-02,3.771298603868169369e-02,1.225310820108525961e-01,-4.761990843266412227e-02,5.271151161789613265e-02,-8.234464466831527274e-02,-5.943848523449461047e-02,1.571327281030931305e-02,2.065792646041044248e-02,2.365033925063826301e-02,3.186293675753445586e-03,-4.029148909520065963e-02,4.197943461537623905e-02,1.562961058615560533e-02,1.750569877705961466e-02,-2.598100084157081366e-03,1.187226834646876346e-03,2.032540805342169382e-02,6.092220144891500461e-03,-3.259227375979641128e-02,-1.553000950824698530e-02,6.144064472593894870e-03,-4.272039332041031173e-02,-7.858386594613844811e-02,-3.719492528191324643e-02,-6.249354923028558467e-02,-1.171096732285544818e-02,5.132991337171385893e-02,-1.930513847281510251e-02,-7.409215089030901646e-02,-3.903802586525799770e-03,-3.631331733338979961e-02,-5.326259392418612737e-02,3.709698861588024699e-02,-2.199811974066983797e-02,-5.610971682240568047e-03,-2.133719040142735557e-02,-5.106317360212245422e-03,6.523662889383152752e-02,2.360115176465042708e-02,-1.269762422601932415e-02,-4.673541885934732326e-02,-7.295876865596824523e-02,4.855062245388308551e-02,6.358577788581271095e-02,-4.723069114260105422e-02,-3.800800214976449848e-02,6.388793941007654860e-03,2.990152954649860292e-02,4.477705560221869469e-02,-1.071180809260906391e-01,1.430764734239984431e-02,-7.961257755676641457e-02,-2.094439570567498132e-02,7.959649210891912505e-03,-8.990124602896368278e-02,-1.974043975044877802e-02,-1.965632777212683244e-02,-1.482619744119190730e-01,-3.068834313663304850e-02,-3.101726778874425855e-03,-4.770023358082235709e-02,-4.432844330754092538e-02,-8.654285259708160635e-03,2.695988597430041753e-02,-8.686676775066844158e-02,-5.366674083797798311e-02,-3.215634579476767119e-02,-6.722848441170205247e-02,-5.571199478229688778e-02,-7.286320557299297285e-02,-5.181556140715837949e-02,5.101544348478379703e-02,-1.761729690815011171e-02,-1.813622613631689167e-04,-4.277607251996108639e-02,-5.254644761515779583e-02,-3.369245878742278821e-02,7.458614159634052720e-02,-3.828181773323981077e-04,1.095292074873905827e-02,3.817138761450371287e-02,-6.778713299440189671e-04,2.963964857651700535e-02,4.621031338883542505e-02,-1.913159889877179970e-02,4.293142902662267640e-02
-3.161001914638700283e-02,-6.452663379039760838e-02,2.881894948690576566e-02,4.213169200191722169e-02,5.429192131730634779e-02,-5.399661197747878533e-02,-3.290438158443947936e-02,-6.650896281489440676e-02,-5.948453394111521443e-03,-7.550560559016733508e-02,-2.507384957365573971e-02,1.379147727783523562e-02,1.652098550328136642e-02,2.672023087146539744e-02,2.636947130950705303e-03,-3.476943369180600374e-02,2.323924117094356909e-02,-2.837769821040611248e-02,-1.154876853139852610e-01,6.852380859224385667e-02,6.572997329661552958e-04,2.700664243182379631e-02,2.643124600349335690e-02,-4.755721703652024401e-02,-9.403878199621747147e-02,4.610820683892370708e-02,-2.700507088218113624e-02,-3.549692004378165316e-02,1.199179361793577259e-01,-2.585489888774519449e-02,-1.050102012527528855e-01,-5.614010701914418523e-04,-1.113116324462674889e-02,4.779740605773223454e-03,-5.267898377551172295e-02,1.507738855582886270e-02,-3.339596256400181873e-02,-6.630430783860254140e-02,-1.237892070710696658e-02,-1.077262561462323520e-03,-1.363400728412021853e-04,-1.947940903957310829e-02,-6.101428002753161300e-02,-1.280183007534769490e-01,7.217365054700922156e-02,-9.908045022907936705e-03,2.785767846833663713e-02,5.011095423162110346e-02,4.459159062599988427e-02,6.786195359720460958e-03,-3.147374791003141464e-02,-2.021949517115528283e-01,-5.427918231984313335e-02,-6.885637400148066078e-02,-1.294205983679641847e-01,3.770352432787104583e-03,-3.263803624980802370e-02,7.594263428849027005e-03,-5.375737358374609726e-02,6.376971996414578826e-03,-1.746313732480543959e-02,-1.965954907289564624e-02,-1.835843172118983152e-02,2.008242458231812577e-02,-1.856586145686965617e-02,-2.165239206488361878e-02,-5.214980528372523128e-02,-2.611341609740861196e-03,2.949712506350705282e-02,2.489537190305952247e-02,5.824963901994383540e-03,1.585635501283509609e-04,-2.789172133745565496e-02,3.598371687822352061e-02,-4.265068423236263034e-02,2.538450381379791371e-02,1.790488311017068455e-03,6.093997547934094927e-02,2.846950549089598617e-02,3.559060311682647054e-02,6.341728035247815032e-02,8.928895575719195121e-02,7.223929201669579414e-02,1.603387155786429458e-02,-1.708297763866278157e-02,-4.848949204257213541e-02,5.450139521428039313e-02,1.262065069352154810e-02,4.021006480113517231e-03,3.837077910138201459e-02,2.788206695019684184e-02,1.232509724344702179e-03,4.455796132475332849e-02,5.462631804769221833e-02,-9.601718136804765491e-02,4.050928330746648466e-03,-4.167852323852197331e-03,1.170169413067369268e-02,6.189283400189919682e-02,-1.296028488342623047e-02,2.927335462577257061e-02,1.600607449055735376e-01,-6.258526033441952352e-02,2.944334030890780746e-02,4.054933708863065617e-02,3.393421474417843836e-02,-2.834584317925251465e-02,-5.287045253262395716e-02,6.523277823899367722e-02,-4.692800875438821878e-02,-1.253477894670936010e-02,-1.518858378610131801e-02,1.570433316727409476e-02,-1.537426253569411545e-02,-2.120785995563365806e-02,-4.384486405083190888e-03,4.833570012104156793e-03,-1.839043271860586054e-02,1.834518363014071493e-02,5.393331617360584002e-02,4.450115449353265334e-02,8.440738526307370315e-02,2.095207335650722466e-02,1.116995347241606373e-01,1.398927100672144779e-03,-3.903272367194222242e-02,-1.838379979729101027e-02,-6.970262392144133123e-02
-1.033382560618941771e-02,-3.530409916630657119e-02,7.003282507122453315e-02,3.182823348871179070e-02,-8.251605684359397674e-02,-3.597755961811044401e-02,2.036087464741203473e-02,-1.754205560926797372e-02,-1.364681405141358883e-01,-6.845063893311794517e-03,-2.873709216121220211e-02,-1.435311913659845506e-01,-9.541081385392735648e-02,4.872765255420480335e-02,2.158152790824181128e-02,-3.411460007736780240e-03,-6.222082952030260489e-02,-3.478146213225235314e-03,-1.721690815336219399e-02,-5.077287385741535708e-02,5.095938936557697224e-02,8.321096245969293592e-02,-2.341590287483449190e-02,-3.113400526402836099e-02,1.981309406758187744e-02,5.904867057237860734e-02,-9.627695574981677551e-02,-5.314275671827316944e-02,-5.623443170376885014e-02,-6.710617255887214860e-02,-1.139018204510551177e-02,-6.220204346392872036e-02,-1.987007950407588056e-02,5.285775219194633473e-02,4.959143682635943490e-02,2.796759303545197362e-02,5.067317440598528150e-02,1.435048842076813713e-02,-1.551418850258129943e-02,-4.820816148905748832e-02,-1.043137553023731345e-01,-8.988932495338392004e-02,5.457926830585334982e-02,-1.559129268293747922e-03,-6.568543412976032836e-02,1.711018641719413980e-02,-2.818175770894992826e-02,6.871286675655377540e-02,8.003093118210392876e-02,2.593095108453709677e-02,2.608772861279873984e-02,1.866554158850098136e-02,3.605278951692337305e-03,-1.532557834083347946e-04,-6.558038725328353691e-02,4.146565209476631847e-02,1.320583673270723200e-02,7.083879693529407905e-03,-5.749025633709599348e-02,6.441948427122978771e-02,-4.702450201320539092e-02,-5.811992840449260039e-02,-1.815187947937473706e-02,5.413519676186331897e-02,1.780020341104966014e-02,1.556900620673434474e-02,-4.997837020741435071e-02,1.809950409688721590e-02,-1.091428867163470456e-01,5.899818054368666720e-04,-1.951875777861132241e-02,-1.132148472027827771e-02,4.589323609913826402e-02,3.581463558788906820e-02,7.634711535166317266e-03,8.812778340392693477e-02,-2.853322708070645669e-02,-4.631439241577620797e-02,-1.140147173175029734e-02,2.198388603470750879e-02,7.820917420746371484e-04,-1.993130356630748792e-02,6.506151643116299399e-02,4.054697025084744513e-03,3.011180326626946083e-02,-6.507320914305624038e-02,-5.663964724213006903e-03,2.752051844068991240e-02,-3.068130683019329452e-02,-1.865224494909985958e-02,2.079388569817406524e-02,-2.352496560721188332e-02,3.250774821800093972e-02,2.955535714832724023e-02,-8.186392740698741899e-02,3.707502473580555347e-02,-8.253656838707061974e-03,-3.593984547968021720e-02,2.178118475027704393e-02,2.138647140337826200e-02,8.691099707780176875e-02,5.689576448677716863e-02,3.187989841915483263e-02,-3.012734345093351449e-03,-1.867184156481881477e-02,-7.318291493439356421e-02,1.099510052569149937e-01,1.069171660294891274e-01,-6.134078190861304465e-03,-4.527620376804581542e-02,-4.327180399511909581e-02,-8.169543847683053556e-03,6.134400322410431261e-02,1.740993882378100198e-03,2.544804554586626091e-02,-2.206167302115820752e-02,1.340432098928876631e-02,2.444830744856408070e-02,-4.162756488671268823e-02,7.675806393679535100e-02,5.583447478431233929e-02,-8.747180419541697449e-02,-7.070445281700951656e-02,2.789772505745469894e-02,-5.701081555125661615e-02,-1.604345107464088399e-02,3.718110517155004402e-02,-1.669522299775648075e-02
-3.586536019353941951e-02,-1.756098002794103524e-02,5.834855151500063786e-02,7.230297529179810501e-02,-3.325370553893325365e-02,3.309372066532985379e-02,3.766183046940245471e-02,-2.667468474054994487e-02,-6.046591051023513658e-02,-1.955012037464593996e-02,1.343764995770903130e-03,-5.251077241130994860e-02,7.754932798610295053e-02,-8.503964900304088192e-02,1.357471531155114708e-02,1.251267972684333429e-02,-5.688378943699365364e-02,5.082870534434096726e-02,1.005197779169502911e-02,5.381831283810709077e-02,-4.069809394526378854e-02,-7.476593517209753625e-02,-1.975264968999152285e-02,5.129476016899277291e-02,2.279635435413677677e-02,7.626715398935715248e-03,3.918737141519341299e-02,-2.356105717974407709e-02,-4.733404186554926105e-03,3.939993026481268534e-02,-1.456523848365126605e-02,4.263696611533800140e-02,9.795086329041766127e-02,-7.943307970309228250e-02,2.766226487134941167e-02,-8.135395414420719395e-02,-1.314928900946191193e-01,-1.611666225578511219e-02,8.041700479904344279e-02,-4.747937644910016353e-02,2.239878716437102013e-02,5.544606504642996328e-03,6.416486650137792624e-02,4.185860317644145290e-02,1.619300562377041369e-02,-4.715749466698793829e-02,-7.933945920117565012e-03,4.426725164735385160e-02,6.967348890889976665e-02,2.432898131276607298e-02,-3.860205681575688136e-02,-3.276466409986722450e-02,-3.014065847271694965e-02,-6.355985041120307873e-04,-8.561381954297118957e-02,-6.013217391343563846e-03,-1.144275540086036325e-01,-2.818853227569144762e-02,-8.955990591911379417e-02,-2.926056680770237721e-03,-4.938430489027424708e-02,4.205431864294052052e-02,2.840655336610355131e-02,-1.771411480446491785e-02,5.720971926523444467e-02,5.704509636248907001e-02,1.776792998664448661e-02,6.000428827368952528e-02,6.309828679344577085e-02,-3.024479613843546535e-02,2.745833967092117692e-04,3.379239297701167044e-02,9.414344658083532991e-02,-9.929291301483562926e-02,-2.728258738602167000e-02,5.508690477679129872e-03,1.243977499060883313e-01,-2.304255484719402915e-03,5.940130698635072426e-02,-5.964835159330422916e-03,-1.201587980247166218e-02,4.810537514099493678e-02,1.107299738913209569e-02,-1.729954113350170436e-02,2.393053519572103786e-04,-8.264557853606935289e-02,3.712393309942326608e-02,-1.624591048592549311e-02,-2.886176215422936453e-02,-1.776645481962520548e-02,1.362548213349559952e-02,-2.354986900118391166e-02,-7.412117889680061578e-02,4.565154302007511100e-02,3.310113699753745170e-02,-1.748010320992332556e-02,1.868405520168846951e-02,3.591740977885595626e-02,-3.406356756671251318e-02,1.778380914053020317e-02,4.105676804814089448e-02,-4.734110851500519107e-02,-3.241158209908959198e-02,-1.824957369153108570e-03,7.270983147627833876e-02,7.056397437065840827e-03,-1.675199352356747384e-02,-2.741879881216123527e-02,5.810585613874820476e-02,2.302645435283970712e-02,3.330186812792879786e-02,8.481183344098283672e-02,6.367246431248951843e-02,1.322881897952685182e-01,-2.270571505382281557e-02,-2.399513469713148925e-02,-4.013624015576341270e-02,1.277340534838237313e-02,-8.696278757281905580e-02,-8.576454405153458374e-03,-8.647089842767843870e-02,-6.703395953177446707e-03,-3.145497663222869555e-02,-3.650471120036550415e-02,5.300948689767192440e-02,4.612763875784020584e-02,-4.276633966520423935e-02,-2.737009400741601331e-02
4.564111143386039710e-02,6.385254971121341605e-02,3.852429798283226597e-02,-1.223154744582373443e-02,-5.494984241863069829e-02,-1.255874327434522257e-02,-1.561487105981909929e-01,-2.101720728880697442e-02,5.027586158191642285e-02,7.056675103650188359e-03,2.090089873665612261e-02,-4.979289533436269399e-02,1.120236194926112760e-01,-5.343822413506173555e-03,2.498003020687658993e-03,-9.534976787555722588e-02,5.888291622636672613e-03,-8.877771506364279946e-03,8.917770202376978234e-03,1.269829087501434528e-01,-5.353091310811276815e-02,3.181273323324097790e-02,-3.602017931723556273e-03,2.368332933463025008e-02,3.912419890252932797e-02,-3.381552464583156142e-02,-1.283584432622287240e-02,1.081955555394006029e-02,-2.845186206064348813e-02,5.248857429023146004e-02,-3.159709838966735101e-02,2.025220637138142044e-02,-6.111208626539709789e-04,-1.907205805786185357e-02,2.639100800192959329e-03,-3.552749733274427474e-02,-5.403924923257447110e-02,6.019327279422170829e-02,-2.712367604413594077e-02,5.174157149799669259e-02,-6.525102698105144511e-03,-5.514513577735717306e-03,-1.623183870019088634e-02,2.120986744551319955e-02,3.910311265059505242e-02,-2.220701354273838316e-02,-1.867666585118723035e-04,4.256641647942867313e-02,-3.696013638156964848e-02,-3.038616547768632770e-02,3.095417287417653526e-02,-4.196615758410783548e-02,5.081561148678175738e-02,1.857170229279016260e-02,9.100546377943450130e-03,-2.766359239416069093e-02,3.476686282671654499e-02,2.086765697429716904e-02,9.105637513027176055e-02,9.795363047055699601e-02,4.455634882192618419e-03,1.853538194690965840e-02,8.498300917572353466e-03,1.435297024381007244e-02,-5.270070318045575082e-03,3.278567939805928505e-02,6.167779522635849498e-02,-1.904132450044766084e-02,-7.657833679575940834e-03,-3.144083346483413782e-02,1.547601781501523922e-02,2.414689764712103434e-02,6.560917829157209002e-02,1.216902054796889510e-02,4.540355782007200747e-02,-8.707335629238076649e-03,-4.638618799415902827e-02,-4.056456580815569202e-02,-1.064640990742062206e-02,-4.308300986216485884e-02,-3.152742100432166100e-02,2.710952766377911285e-02,-1.929310704342450736e-02,1.588978825953177992e-02,-1.555251449757154292e-02,4.979858793192702693e-02,-3.846710431316299056e-02,-3.081430331426223204e-02,-2.175652126043588555e-02,-1.938188340624573403e-02,-1.046220917480842477e-01,5.543433861579407512e-02,2.523189462165418423e-02,-5.039913640728891503e-02,2.554005248513456158e-02,-1.344721118579244971e-02,-2.147709674558807152e-02,8.442521943406111617e-02,-3.732563229337333352e-03,-5.978563828091567472e-02,2.064710377951404358e-02,8.044293581801460757e-02,2.671227856257673075e-02,-1.201792394886679223e-02,8.066190961148543559e-03,9.138045602419839208e-02,-5.193245647092106093e-02,-1.865897030332994144e-02,1.145519908778882927e-02,2.200459892981417032e-02,-4.463535251776067254e-03,-2.109078485696514599e-02,-6.861751498492441037e-02,6.879668991657222898e-02,3.930464873514586538e-02,7.104002589343816343e-02,-4.330208783608559438e-03,4.789723230179481449e-03,-7.407255756078259812e-02,9.056187699469978036e-02,9.376270087949860332e-02,7.383759334203739144e-02,3.576238160022903595e-02,5.018065708167934388e-03,7.201490510232165521e-02,6.879431748367384469e-02,-6.219949278025888040e-02,5.932827050402997293e-02
2.231242921833933440e-02,4.648695158355686113e-02,8.122312972415382526e-02,3.005995670906422626e-02,9.450888029617075456e-03,-6.430135077165784196e-02,-5.468365398747641187e-02,-3.789292625023425037e-02,1.384419432773788261e-02,-5.595824976055319144e-02,1.949433086880844298e-03,6.932861297521022807e-03,6.022692436026953755e-02,1.370605612161355236e-01,-4.330036192444504384e-02,-2.140334024110580879e-02,1.504218714531112755e-03,-1.119630820467835790e-02,4.020291892847923515e-02,7.979422006208575224e-02,9.077530216258802853e-03,-1.504087400723243956e-02,-3.672127975947062084e-02,6.758490546702600535e-03,-6.819219644499908972e-02,6.970345412528483608e-02,2.559804968952406057e-02,-3.412214008305765323e-02,-3.053707937548016602e-02,4.804557562183114396e-03,-1.822013719732980264e-02,-2.402518755238667800e-02,8.943246558655847112e-02,8.947950940294439881e-02,6.883639582761365630e-03,-9.315787943087258313e-03,-5.466067857264036989e-02,4.837330928169956620e-03,-7.175626873818839735e-02,-1.717049825810000249e-03,6.252171842808776359e-02,1.660097576818637954e-02,-2.992977019569314015e-02,1.513837344345772377e-02,-1.077334169288241689e-01,9.266123532272201382e-03,-4.345532802227447533e-02,-3.921743534926186783e-03,-4.809292415987378305e-02,1.813862688730520992e-02,-7.873874782409752762e-03,-4.035776070054327563e-02,-4.044840363401360633e-02,-5.083597298786611367e-03,5.265050444069463431e-02,9.221095739403652181e-02,-2.617434609807733903e-02,4.326103346500245056e-02,-1.112614764331089183e-02,-5.711690258879671689e-02,5.426678458385886424e-03,-2.859529886662550563e-02,3.257382864841602138e-02,7.672630489283334063e-03,-8.655543362102894461e-03,-3.158016767321355361e-02,-4.483318871891586038e-02,1.139734977270837708e-03,2.492124211039930398e-02,6.808395742270432691e-03,6.875391556173303387e-02,-1.961687858702238635e-02,3.531668258488353945e-02,-1.853875760759401926e-03,8.755314446076878365e-02,4.011947380823154691e-02,2.265699731017630197e-04,2.786246139694349352e-02,7.150174825932917311e-02,3.370923183419612112e-02,1.577956003633601903e-02,-2.827382067757865450e-02,-7.966181242829410702e-02,-6.486149611554752059e-02,1.017155166344274331e-01,6.679045446806046796e-03,-2.265408408046981278e-02,2.340880068649981924e-02,-9.961594806258194934e-02,-6.102044962999409600e-02,8.547887868739044784e-03,5.770806938911268030e-02,4.891612498931870688e-03,-4.896025613977114666e-02,-5.701036443425888667e-02,-1.644828659183270037e-02,8.636192323906931312e-02,-3.929287211899489224e-04,-1.078130953955378987e-02,2.497925575727377723e-02,-2.917794083016136616e-02,-1.268297421108990075e-01,-5.670168800068058068e-02,-3.426155170023990285e-03,-3.726753082092265634e-02,-2.772932821675588161e-02,-8.290879347529887811e-02,-2.982566402890494701e-03,7.832465686081491185e-02,1.026912668610848942e-02,5.347187593582658494e-02,-1.287563223560053705e-01,-1.134303160711002713e-02,4.508564194932811187e-02,-2.891328769017146704e-03,-1.412307119928874789e-02,-6.714649931006352879e-02,4.611954853506689683e-02,-1.307196624471521768e-02,-6.251822626418705731e-02,4.427356003710689047e-02,7.222831728243675475e-02,2.302776704817426079e-02,-4.503865920415032337e-02,-4.257927254133545003e-02,-4.030910984957469800e-02,-1.168585664078034686e-02,-1.229447112642392988e-02
3.958760264563178366e-02,-2.872497081792264872e-02,4.531402416502213620e-02,1.811639594572963738e-02,7.452141164065117195e-03,-2.832184473424682880e-02,6.409432412737942064e-02,-3.347285194810252495e-02,4.199895097882921230e-02,-2.259879303941004364e-02,5.647870029775989981e-02,9.763587894216734300e-03,2.100209484956722800e-02,6.032050227771557083e-02,4.439466243542085355e-02,3.561689189925071330e-02,1.153125526700283544e-02,4.121392702417249129e-03,6.896551758601196513e-02,-2.665630154972248311e-02,-2.316566078877426577e-02,-4.949387293414067579e-02,4.027274971000713993e-02,-5.342435906782706800e-02,2.553412874317531611e-02,-2.030859404785613845e-02,4.447593351559033306e-03,-7.308839064091929294e-02,8.154336038892663618e-02,1.543751620877354541e-02,-5.399506431389808347e-02,3.553427522985291853e-02,6.059025574730955536e-03,5.448414355089826328e-02,2.304831571852088146e-02,-3.395218178559343547e-02,4.770845237289527557e-02,6.412333647664372749e-02,1.531740533165221359e-02,4.091390722158434051e-02,-5.630752215776624152e-03,-3.516877698044627160e-02,4.149414783983578631e-02,-3.383012121096096170e-02,1.207783718920220767e-01,-3.495738987874442982e-02,-7.651342923601488211e-02,-1.265729404623436825e-02,2.811021903967400246e-02,6.394275153567588466e-02,-6.906877884012747881e-02,-7.679594278497454962e-02,-3.102089197872959919e-02,-4.182786529396921582e-02,-1.323151965766222390e-02,-2.446931587448676268e-02,-4.889730138066442078e-03,-6.128389527453474706e-02,3.498050946375411835e-02,4.545213424644393985e-02,-3.271974918461569015e-02,-9.125223299520562881e-02,1.324172394732543896e-02,4.155807520467365984e-02,4.878594655376577299e-02,4.480159907321010042e-03,-5.705848109573511545e-02,-3.715016141725444032e-02,-3.568119426260685234e-02,-6.011635907442502980e-02,-8.066101054570544437e-02,2.391642034177803369e-02,-1.972152972846522370e-02,-2.024743342922412023e-02,-3.287674321749399498e-02,-3.360651081310027377e-03,6.545577468861411841e-03,-1.501281321418844288e-02,-1.025904950170058311e-02,-5.483825363630166240e-03,5.818255152742373565e-02,8.959391085302499669e-02,-1.193176097101955047e-01,1.934528897393708244e-02,-4.816037276300732389e-02,5.567443733740952416e-02,-3.534229723888999281e-02,-1.912439090071084771e-02,1.000706110982482570e-02,-3.208723801135140996e-02,-5.521588165523721309e-02,-4.432183956111281770e-02,-8.576194980240263444e-02,1.307925620839445469e-01,-1.497362711299257514e-02,3.213171812678191491e-02,-8.189330202982257612e-02,2.653672843994499958e-02,6.093891062938942144e-02,-2.995933781558273497e-03,4.072471833376514055e-02,-3.893573646443521802e-02,-5.177153069376522199e-02,2.649332494160576423e-02,-1.065081975218460375e-01,-3.078229600780064620e-02,7.287242022268467651e-03,-1.225715853476622673e-02,-1.559395254326022447e-02,-5.476681036630429850e-02,-7.116542371053037608e-02,1.528353412624455961e-02,5.505117894473050139e-02,4.769796093102843942e-02,-2.279367485042028615e-02,2.546933905511131191e-02,-1.384242577309971467e-02,-3.475680988809163457e-02,-2.367345212592919523e-02,1.069982551719896730e-02,3.320709222978578817e-02,5.478795341502436245e-02,8.845308184166707222e-02,4.547554341598149252e-02,-9.125528264647554677e-02,-9.972044306587581064e-03,2.208431652373811505e-02,1.080677951167391820e-01
-3.916019740336815214e-02,3.428249937208591169e-02,5.027830090881026288e-03,2.398183788588818810e-02,1.975269157234676651e-02,-7.212117867525395798e-02,1.075489476883338125e-01,2.719162603713023638e-02,-4.709238701641020597e-02,-8.209429986778607469e-02,-9.089001043682276570e-02,-1.876557764497755951e-02,2.988174308246614383e-02,-2.507491436344915642e-02,-5.168706295160794585e-03,8.444086902506284936e-03,-5.652934201537957587e-02,-6.708028658059610183e-02,-1.984351497614983764e-02,-1.359689911688391484e-02,5.308229687858481011e-02,2.657115802903016900e-03,-3.540293111162372969e-02,-1.671739235192645431e-02,-6.905888336854396591e-03,-7.330461676137639548e-02,6.449584140031701905e-03,9.804550430668873551e-02,5.515232920194355209e-02,6.775466724304002319e-02,3.432206749300675125e-02,-1.982806653027251523e-02,4.932392666988383301e-02,3.943598510227641629e-02,7.195619168834574420e-02,-5.495345979529079466e-02,3.075382136639481789e-02,-2.051321627511828311e-02,-1.280075758884981381e-02,1.381249723273402126e-02,4.309975675890425489e-02,3.594442264912374452e-02,-2.518533471602022247e-02,5.096326086955096750e-03,6.713987387938309681e-02,1.024466869418447917e-01,-1.325062063565353096e-02,6.915843061571468053e-02,4.748655563517453077e-02,-2.335377660357442799e-03,-5.486033704643451803e-02,-7.897753371832651192e-02,-3.775092784383023842e-02,-3.503368141239794620e-02,-2.785294784932899285e-03,-1.045140394892594450e-02,-1.414790634504999728e-03,1.227443118940077689e-02,6.772448173575630614e-02,4.891489807543705076e-02,4.090943340554478724e-02,-4.454587865939754060e-02,-6.562198196699087216e-02,4.505682030187695836e-02,8.348150742773319255e-02,3.184952428614451232e-03,-2.714128047451210349e-02,-3.824397977153912685e-03,1.329782992091411986e-02,8.641161202032129895e-02,-6.157330504736121396e-02,-4.876056368948745307e-02,9.488295502878741142e-03,-5.947613453754186513e-02,7.463179706194630891e-02,-3.595479863955249045e-02,-3.733668932303262078e-02,-9.461791810911540646e-02,-3.387523223171218928e-02,-6.477539248743856282e-02,-1.076326397560289638e-01,-3.612135265015292696e-02,-1.925422492024529350e-02,9.030189145426666467e-03,1.173460592656626889e-01,-4.014534491717181713e-02,2.560706737531612612e-02,-1.241567993867249801e-02,5.800672162266105186e-02,-4.800141139430984250e-02,4.328950645263742597e-02,4.914107735036782332e-02,-8.809457579492707691e-02,3.210631647992002319e-02,-9.645355365060848118e-02,-5.957801823053156254e-02,-6.512335263101122484e-02,3.928490583956505827e-02,5.585338986838465566e-03,-5.709868264276098115e-02,4.141502048182781753e-02,5.627448221137587581e-03,-6.065481627018533967e-02,1.774633615813058299e-02,-8.612768129710485221e-03,5.888472600156231113e-02,-1.919749637321766303e-02,1.262059955339112603e-02,3.643947942343100238e-02,9.877580739385100408e-03,3.662815592185800218e-02,6.357195237561304169e-02,-2.770325504910376921e-02,-1.557606138908218182e-02,8.600040834135366796e-02,-3.979268844273507050e-02,-8.565097081384083488e-02,-1.441709557706162721e-02,-6.961435339914499518e-03,-1.522480922105492324e-02,-1.101331553102267297e-01,4.038094567786772345e-03,2.985777893973588434e-02,1.145898064876918199e-01,-3.391157364995009416e-02,9.644360121258380159e-02,3.104211859720965028e-02,5.251443401556351448e-02
2.497773404851522105e-02,-3.440922498929212259e-02,1.833371786043851148e-02,3.968869613127921914e-02,-8.005254146082815825e-02,-8.253605742149248969e-03,-2.300702721727738292e-02,-1.041815130465159334e-01,-1.043908416650631693e-02,-2.902442034984439694e-03,1.193332542228498078e-01,-9.461582113894126400e-02,3.907013372082178415e-02,5.302738291447348096e-02,1.392341970864466316e-01,4.915922408544167767e-03,-1.392611867339321871e-03,2.778204445335631656e-02,6.783467605396684141e-02,1.457803816480880005e-02,5.249280139675444740e-02,3.386368048691392883e-04,6.789958529084844097e-02,-7.237920626164871807e-02,-4.888890680930896987e-02,3.660124147016503154e-02,8.430039771443142982e-02,-2.287344816448476370e-02,6.312906595924279440e-02,3.186090812351338730e-02,4.333343538582442450e-02,-1.543764931465501679e-02,1.896984233896420458e-02,2.816215850612100585e-02,-1.741810647361006006e-02,9.245764892874448748e-02,-2.726915987875799113e-02,-6.750058489714527710e-02,-5.611248070239983204e-02,-1.462934995122660252e-02,-5.415126047469445009e-02,-3.058149324006298117e-02,1.124330107344190255e-02,2.531233224359927605e-02,-7.004114430968907956e-02,8.510578698276269338e-02,5.224989887626346058e-02,-7.461975219220104427e-02,-2.851082063558738749e-02,-7.039744851504459167e-02,-2.577430433869492415e-02,-8.599369680324529808e-02,5.282734606311590558e-02,2.792894673468472935e-02,-3.502710411015210606e-02,-2.683080046430899937e-02,1.082919880956782627e-01,4.040775018906895416e-02,2.471669056406266760e-02,4.575251217959543787e-02,-3.343631973066774760e-02,8.485657434419284148e-03,-8.892849585223736031e-02,4.459117148983954282e-02,4.052688330790527732e-02,1.222775444067249716e-02,1.883511764388542953e-02,5.477197727128802623e-02,-5.521541740158163181e-02,-1.807400119572926886e-02,-4.737349200442168146e-02,5.216104987192518583e-02,-4.768497168860991176e-02,6.672598535625111349e-02,-1.371804302745043350e-02,-7.916354409953082344e-03,2.781553447183818251e-02,-6.425565723607427719e-03,1.543781142903304961e-02,-8.320199667152060330e-02,3.759100768348741517e-02,2.361862548979135057e-02,-1.050601557842487932e-01,-5.473680848403567750e-02,-3.273416985754078190e-02,-6.728302297945464028e-02,4.682362135310388571e-03,-6.903695735938421285e-02,5.096468755683482982e-02,-2.470568087277584882e-02,9.019194404681205035e-02,-3.817564936090184213e-02,-6.904896018391503158e-04,7.265503200670639372e-02,-4.948722454775497659e-02,-4.312011332670083463e-03,5.147926650229221746e-02,-5.046900808685984841e-02,-2.712216603053647576e-02,2.988885473946758728e-02,8.900292744087288932e-02,6.580007094511680643e-02,-7.312454396723386263e-02,-6.139667369056040630e-02,5.723020146736835373e-02,1.878791507556074047e-02,-2.560589403055416741e-02,-1.022814519106086673e-01,-1.188665883711341326e-01,-1.811103312986415536e-03,4.391575859948911031e-02,7.332710296953526274e-02,5.177608375548218428e-02,3.195142802713526325e-02,1.242476293828654460e-02,-5.379291880528382086e-02,4.447351044118237617e-02,-1.827037392148561992e-02,6.545023488444855382e-03,4.647875465009223411e-02,1.727951278635746560e-02,-2.422866843009419818e-02,6.973600682649913618e-02,8.830447708468986551e-03,1.610795996643765715e-02,4.963862478487550411e-02,5.950432830841449749e-02,-2.318618262462686375e-02
3.380677899065895331e-02,2.572573798433073003e-02,-6.291681522867438592e-02,6.690321666220960806e-02,-5.689832883756784903e-04,4.366000608019687812e-02,-3.882153901498594517e-02,-2.138090524587352159e-02,1.354409243323956985e-02,3.259902942647262269e-02,8.282933893310950868e-02,6.988654600658100735e-02,-3.621949679655494386e-02,1.818244849571266572e-02,-3.609859109690061185e-02,-2.865776350308983991e-02,3.247772459612140172e-02,-8.510527124843342284e-02,-1.225754947559837965e-02,-5.710225620545758551e-02,-5.781901903289313194e-02,-9.269618388553715893e-02,7.069476445898384073e-04,-3.514549033686439894e-02,4.635798434961373171e-02,-8.884588870186621579e-02,5.168270583500432849e-03,-6.761446890160359435e-02,-3.051172472604355909e-02,2.446030235427745433e-02,8.913828808509934032e-02,5.077133264408943691e-03,-6.159265931656650317e-02,8.790620219034205041e-02,-1.454726448181999435e-02,2.248297803899921773e-02,3.940191447687424464e-03,4.742519022872963147e-02,-2.118776863722832485e-02,2.942218193326013101e-02,-1.299493510039093601e-02,1.134995265538554232e-01,8.742263894881320552e-02,1.340756037138200914e-02,1.207858162939454277e-01,7.247240464466268850e-02,-5.653701368910882263e-02,-1.776765868768506035e-02,-8.410913675445680360e-02,2.271490245341618516e-02,1.536925472305694304e-02,4.004752890119402803e-02,-1.960595600724919507e-02,-1.690781957653358664e-03,5.483189750077045038e-02,-4.384900189530696601e-02,7.102627486788218314e-02,-3.820993471021715687e-02,-3.408224332328536887e-02,-3.639604824011692056e-03,3.754348819765201701e-03,9.721467029204330923e-03,-4.025806612563639225e-02,-3.362391054374412602e-02,-3.538145371660722516e-02,4.553528735989331028e-02,-8.828787490756861978e-02,1.525700739283871246e-02,-1.702353812634784316e-02,-3.221766101199922960e-02,-3.961180870457513270e-02,4.952124737978288310e-02,8.577850530478907387e-02,-3.672555871440461440e-04,-1.242758356872726150e-01,-1.255980979675415041e-02,-9.592539785844298242e-03,-2.006056703825057422e-02,-2.395869450823063032e-02,-7.242103575593342168e-02,-2.586969921433979192e-02,6.298941027052232158e-04,-3.633769223397756692e-03,1.688341417748550830e-02,5.322452460435803806e-02,7.694469906502503058e-03,-9.754437019801133479e-02,2.097936727488190073e-02,3.757071277334424197e-02,1.907977915217951709e-02,-2.752885114240835249e-02,4.212926668963366816e-02,-4.322110198688244864e-02,3.550538827397294733e-02,3.995510069073169440e-02,3.373861348206719929e-02,6.619776148509791402e-02,3.943108065411752433e-02,-5.449558808587853798e-02,1.174757010775400318e-01,4.436974908045764748e-02,3.833137998518412054e-02,-9.341189837057642387e-02,3.105477425310306308e-02,-2.648927386562040243e-02,2.541391939161055658e-02,1.509269994510949175e-02,1.922177179551855936e-02,-2.341872512799797815e-02,7.379807701742741033e-02,1.210075251655894600e-02,2.267143889558406646e-03,3.704004991459695223e-02,-1.118591137136166480e-01,-2.832013328492589618e-02,3.244858597577762217e-03,7.382685925567061824e-02,7.209286542693187083e-02,-2.383070481959734602e-02,-9.061032830700527230e-02,-1.429966574000178341e-02,-2.425619024305517187e-03,8.184752050007244872e-02,-1.374773236666512592e-04,4.879032108042419269e-02,9.307746863568770734e-02,1.271033617132147527e-02,-3.169049377810465723e-02
1.145753149425821071e-01,-8.419301400818568482e-02,3.289276067715776047e-02,-9.929595021427738318e-04,3.302883510898577124e-02,1.258872484251461615e-02,1.024468799657887209e-02,-2.369503053642179474e-02,-7.406413940268190277e-02,5.274693040107259617e-02,2.958679106117047611e-02,-6.591360690728327587e-02,1.296352998724099592e-01,4.224159345326516241e-02,-3.106863628019728568e-02,-3.604679877049081493e-02,6.766225189701839671e-02,8.886313722138711180e-02,1.341085529975102365e-02,4.434065073220764402e-02,4.412687440447039117e-02,8.059074235308542888e-03,-2.096908182144085336e-02,7.950635788757899614e-02,3.751014147706541874e-02,-8.566250456723303874e-02,3.016579880849449072e-02,-4.985521637341637502e-02,-6.080512166662228185e-02,-2.939814116624529447e-02,-1.823572589189329310e-02,-8.327653176889950049e-02,-4.921351228149223322e-02,-5.541263882626002585e-02,-6.598186542446660141e-02,-5.737822806599175013e-02,3.239624814172694083e-03,1.139941884852963905e-03,-4.792290689295659184e-02,-1.973423327208459303e-03,5.242728286029971901e-02,-6.500225652132057830e-02,-9.178058484054281430e-02,1.229234055805373052e-02,-4.710715146715777762e-02,6.920561614438318354e-02,2.555642101433627453e-02,-2.465331810036013732e-02,-1.036109391713590233e-01,-5.872348384860536646e-02,-7.758502897523139596e-02,-3.000130784825118940e-02,9.833489857203303597e-02,6.822879590006923622e-02,-2.477242441231348319e-02,1.048084639590072115e-01,4.211080048288994016e-02,3.072636592927356636e-02,-9.529700839062993020e-03,-7.138789446491326796e-02,-9.446238806850362768e-02,7.924620186543553449e-03,-7.346936148214295746e-04,1.507124529649956669e-02,-4.002132910468397808e-02,3.309530704525251443e-02,-1.550126061397537206e-03,3.237566693120160627e-02,9.819234648113076003e-02,-2.737727609679830101e-02,-2.194048800662757107e-02,-1.706451305827982878e-01,1.008577659484601041e-02,-4.761559343320814069e-02,4.187989716334945822e-03,2.766627405719641886e-02,-3.782754074411681655e-02,2.426820992243595293e-02,5.613582348952860651e-02,1.135919709241923169e-02,6.034792000831241260e-02,-2.894118507259114612e-02,2.553384214889001941e-02,-1.816637125162105446e-02,3.040306129994710307e-03,-1.575241493131403492e-01,-3.553709505064804597e-02,1.495670221354582219e-01,-1.317110985549766258e-02,3.119609130077186446e-02,9.722129759901915191e-02,-5.079367261514301964e-03,3.452318661396879679e-02,-2.665734786509598581e-02,1.220927743517350762e-02,-1.648991966830463604e-02,-2.537715706382392966e-03,8.688329784175240211e-02,-1.113502676533509317e-02,-5.334140146009684613e-02,5.592185349583386061e-02,2.330628596240174807e-02,4.927060713545650334e-04,-4.270391658748718539e-02,2.451701956242516647e-02,-1.904786803383729660e-02,3.478532456196510581e-02,3.362747653342899185e-02,-6.021969912874169766e-03,1.434976829372741451e-02,5.176652578676967098e-02,-3.561812241792434303e-02,-9.481744103494602061e-02,1.075178457911240698e-01,4.513272355460256485e-02,4.844638805570578716e-02,1.660047987398129490e-02,2.868083846541550144e-02,8.903421935837993462e-02,8.262333035434310177e-03,-3.294247853191110270e-02,6.025025643390964462e-03,2.845718245622911452e-02,4.693212277484756778e-02,8.692879675076021703e-03,-4.075780009466630806e-03,-2.813549193615565505e-02,6.216296798417276365e-02
-2.948877545965371272e-02,-9.952623017637909908e-02,-1.841197609294524182e-02,-1.903650460096076649e-02,5.278060902700356521e-02,-1.841433573488993405e-02,9.760415356881169124e-02,7.337681108214326453e-02,2.807473521882871553e-02,3.387917538738104140e-02,1.825641565067343680e-02,-9.105192703949750721e-02,5.044885422095950894e-02,1.099719105660386734e-02,-1.070014918097288437e-01,-1.968740255646871801e-02,-1.350943885763953960e-02,5.329814046527256433e-02,2.810851910793496500e-02,-7.768142490288851287e-02,1.168045570492543678e-01,6.963463752472720536e-02,1.073766270870886788e-02,-3.393971812255795143e-03,-4.052114395938951653e-03,2.517421277935591450e-02,-5.905209236916767607e-02,-2.693912694383092735e-02,7.930715954943128032e-02,-1.199019297642536265e-02,9.297850114256871190e-03,8.162733241389230621e-02,-1.031688754214746262e-01,-4.139768514817467743e-02,-5.206671114330227446e-02,-4.182044720069343774e-02,5.713662234101504062e-02,4.993509341956420960e-02,-5.408872652002739284e-02,-5.308367182291565817e-02,-2.724263272146068907e-03,-2.855428545635010223e-02,2.445528924220187472e-02,1.702671365381850863e-02,6.180637252915927721e-02,8.870563767228879792e-02,-4.194152186566254409e-02,-7.182328145695462962e-02,3.753092832390613615e-02,2.235218166909365423e-02,-1.314018511527650576e-02,-9.201523480698894919e-02,-7.042822546433566595e-03,-5.839455493049999085e-02,8.887294664241722833e-03,-3.039684122996449966e-02,-4.024810636320706042e-02,9.448182122783213566e-03,-1.214970599189163329e-02,6.042714485297372845e-03,-4.068578977974440097e-02,2.277589059557718482e-02,5.666280339824732041e-04,6.120724290489303748e-02,6.145749254585898547e-02,4.207741090203297174e-02,6.934480691230747451e-02,5.164508809054844246e-02,-9.104242044116568275e-03,1.326339399892592814e-02,-2.778859320954742140e-02,1.944607674264764788e-02,-3.317476680776284409e-02,-7.653871672175141527e-03,4.243597368579592188e-03,2.374360554103565474e-02,2.828474063550968573e-02,2.350187255162444061e-02,2.459938202067390653e-02,-3.697968189789727165e-03,4.612671241909346853e-02,-5.679524525946805930e-02,-5.876730144625645809e-03,3.157603900044215345e-02,-9.441347757218114534e-02,-3.247203690138231180e-02,-7.232565034449592312e-02,-1.253833783041016260e-02,7.285887407703556251e-02,-3.142995820667921630e-02,4.514344941187051208e-02,-1.885441714001064029e-02,4.426937884358874559e-02,2.126262571735795456e-02,-3.480566641410783035e-02,-1.335449746691994705e-02,1.886068391182868509e-02,4.920116668835565477e-02,-5.845787407435981513e-03,-5.910471495485848659e-02,-1.992973167370315490e-02,1.021668166853705040e-01,1.002886703894305120e-01,-2.495344747729483226e-02,-7.235843551078559137e-03,3.269603467696498289e-02,5.261198557322672997e-02,-2.939765321268476145e-02,2.455527796985465874e-02,3.973271411339093090e-02,1.180706778049313461e-02,-6.779815692335010302e-02,-3.531421038384483652e-02,-1.154220886120817802e-01,4.079663980981394072e-02,2.567605154259873859e-02,-2.728344274096314304e-02,8.598194166414971362e-02,1.386198438458737664e-02,1.302978372743314114e-02,-9.674109367607493237e-02,1.529699966404477786e-02,7.314070355779536681e-02,-4.114221898206115759e-03,-1.009126039170145095e-01,3.220153174987634703e-02,-7.505616942122153579e-02,7.194403513884067847e-02
-9.753427871516010678e-03,3.552384077996741021e-03,3.549966901506648731e-02,3.282567795707441033e-02,1.015838550414701127e-02,-7.713762751185483657e-02,2.339185826390103445e-02,7.069840350237741045e-02,1.634884600589833412e-02,-3.470081375988749717e-02,1.926277524248446197e-03,-2.154630921520732378e-02,-4.240713213971391421e-02,-1.023792918748759294e-02,-6.292528753190404500e-02,-5.905351733750802828e-02,8.604807473837839532e-03,-2.619442677239617115e-02,-1.054138478365072200e-03,-7.150476850101424031e-02,1.325044016632551461e-02,-5.868394559988056661e-03,-1.133330410058129983e-01,4.681971172660082808e-02,3.966398291066181719e-02,1.126273347532418395e-01,3.059783167629801306e-02,5.332614476458399227e-02,3.385472713095891845e-02,7.713966302328759128e-02,-7.681083255143755957e-03,2.420926181790662712e-02,-5.893721922260367757e-02,4.377443883190663271e-02,-5.988300833649213423e-02,2.056917548370463394e-02,-3.348305726748439519e-04,-1.343056332469560674e-02,4.947484724026797974e-03,-4.368560808875339430e-02,1.034430068742033249e-01,-9.110746588532609228e-03,1.809772020263427511e-02,-5.792026602941716118e-02,-2.411617022611511896e-02,-1.744634058559655851e-02,-8.653712380521555447e-02,-4.826111574074561789e-02,6.604101795842340361e-02,-1.518288623356313025e-02,4.687283728656549582e-03,3.173515329636870941e-02,-7.117017241183688260e-03,-5.211061739158047434e-02,4.521750117203225672e-02,3.596897309285792405e-02,3.558593138548985652e-02,4.915644565654311848e-02,-9.019113055149506966e-03,1.127407609618197720e-01,-3.985394586159110575e-02,2.420944640583326188e-02,1.573378172425608443e-02,1.275125857743959756e-02,-3.329276460301948404e-02,6.579114548151783134e-03,7.804930205061923199e-02,-3.114199888300281382e-02,7.766542810645568617e-02,6.792797476809107893e-02,-1.735957256656859085e-02,-8.352146865927230490e-03,-1.798459142245498535e-02,3.913683995821827175e-03,-3.599912979439134908e-02,5.521419819632981778e-03,4.388410994911957907e-02,4.690824499857441238e-02,7.506775910349117523e-03,-4.092270304309340162e-02,2.418203207533406104e-03,6.812429558637955740e-02,-9.287873493496402733e-02,-1.330835792202013090e-01,6.308671030839999895e-03,6.334356873675395239e-02,-4.892588479866405438e-02,-3.781304262224431494e-03,1.992481635872362516e-02,1.158608632422430396e-01,1.081670471565477770e-01,7.787187248836378688e-03,-2.470572525134904704e-02,-5.960137062954046216e-02,4.919118507088099390e-02,-3.837807237912922720e-02,-4.419377594356416888e-02,-1.760153692235799303e-02,3.900599244583967395e-02,-3.018073082135123292e-02,-9.958525570050026643e-02,4.096259398690554193e-03,5.902367663387257657e-02,4.106344549507201513e-02,-3.363483796950787752e-02,-6.854909939614560813e-03,5.673691438272727289e-02,-3.349645113363784732e-02,-2.598150235875941461e-02,1.364838662250878742e-01,1.816738938500472682e-03,-1.560816705975772399e-02,-2.553907341186262628e-02,-1.656214705850926269e-02,-8.234484844960970884e-02,5.957746592032301530e-03,-1.776063191922254165e-03,-2.277868056591451917e-02,3.985424334348024525e-03,5.222743417537522442e-02,7.100207050058580938e-02,5.470982745041767098e-02,3.957244054465217792e-02,7.729748320263883643e-02,-3.503516933898808555e-02,-3.082873194858914631e-02,3.151275635520908724e-02,3.956244400803107103e-03
-2.834137514622869780e-02,-5.215023810402339560e-02,7.593563282990373198e-02,-2.321230855229176188e-02,3.958697881842851082e-03,9.106037434830200478e-03,6.728627843392499981e-03,9.636282744927168742e-02,1.816321951364525261e-02,-1.205675318338018422e-02,-7.596044203034010844e-02,-2.665364203618883401e-03,5.280603306138551001e-02,-1.636201930922326353e-02,1.380164818584561637e-02,-4.696675345412839805e-03,7.970639419064506903e-02,-7.772244917591114577e-02,9.344537124812916928e-02,-3.928252750359830653e-02,-5.075388891080579584e-02,-3.291872012248199530e-02,-2.805550195933470894e-02,-6.950891011726149926e-02,-4.271579827370607790e-02,-1.484747942501317766e-02,-6.903088107012503305e-02,-1.670670657399397560e-02,6.988287878999343075e-03,-1.590699594220635060e-01,2.508324157476479396e-02,-1.364753298677635895e-01,4.969811404575544050e-04,-1.769822255220472942e-02,6.195725772064825110e-02,9.553082776228889739e-02,-9.318718499378321474e-02,1.974246501542904417e-02,-1.801578388975504444e-02,5.972609435241454240e-02,1.989020932870180780e-02,-3.417058210006575659e-03,-4.927807203766169930e-03,2.971019027814983393e-02,-1.253281900347697764e-01,-7.959177301757288867e-03,2.988824240246575059e-02,-1.877321126282987737e-02,6.624267575537082231e-02,5.105492817521715271e-02,-4.327148343845080986e-02,-1.702244043679208146e-02,1.949878837416706666e-03,-3.250363196651400929e-03,4.980258142464586563e-02,-3.708950227645506359e-02,-1.835087035249604454e-02,-2.617832170350733317e-02,4.454303170317781314e-03,8.510567015562398030e-02,-5.408748651317024647e-02,2.269577774596883910e-02,1.769654943027213975e-02,7.599859533163690756e-03,3.454100780712695325e-03,1.342787258298928574e-02,-4.650515984311532486e-02,1.045785866315037359e-02,1.388297895735590981e-01,-6.068868992855102479e-02,-1.991367948858484976e-02,2.575832159628080667e-02,1.088160979544820946e-02,-7.142713012325929700e-02,2.142059371889468850e-02,4.285831046795653132e-02,7.630249420389791960e-03,6.106881801486620763e-03,3.690391656568346029e-02,4.377519001033849944e-02,5.043960796727891410e-02,4.802585013292227228e-02,1.044248166779074456e-02,-1.204724163105250490e-01,8.419249459537324343e-02,7.567589021396710358e-03,6.584773458241470478e-02,5.767302453304940651e-02,-1.719574318585880349e-02,-6.098120907164519778e-04,-7.476397975356180881e-04,1.007710091837075439e-01,1.014734375595958138e-01,-4.996558000468812044e-02,2.598663106679268472e-03,8.337389529246945485e-02,-7.495236296219065508e-02,-2.743801176831442076e-02,5.860701293610087910e-03,3.189391397968226877e-02,-5.726252219397976601e-02,4.446591679129240776e-02,-6.482725485371683416e-02,-6.063265230309789616e-02,2.753094566625982620e-02,-1.107503394534489066e-01,1.271743389222885004e-02,9.045450175847201402e-03,4.543247120685394574e-02,8.802501475519688631e-03,-1.928757167235653838e-02,-7.393762110751593564e-03,-6.106346683195894298e-02,-6.037101512450397667e-02,-3.800853302295778991e-03,7.797508336068739720e-02,-3.270823343533671435e-02,7.481253465610850431e-03,2.464035590610154716e-02,1.336788598585075816e-01,-1.088862786292154553e-03,1.237247529578773195e-02,-1.253407954508477425e-02,-1.274127046561648879e-02,3.014964214114460028e-02,-9.308982301687526717e-02,5.369566361472911248e-02,-5.551845448555144807e-02
-4.412359051907992040e-03,6.610405288249172895e-02,7.291186140177118892e-03,5.161755603956436067e-02,-2.309193758250710493e-02,1.185692220715561622e-03,3.581540741516736626e-02,1.518693989332615436e-02,7.404870703529380094e-02,-1.199373563515059998e-01,2.471552238804709117e-02,7.361205143505240855e-02,-4.041452077400057435e-02,-5.365398252835682641e-02,6.718943117432045475e-02,-1.656409065078860710e-01,-5.947781193387915782e-04,-3.781772322468274217e-02,-5.959331316381256960e-02,5.587960953411051819e-03,-4.561940633090549174e-03,-2.927709930182767484e-02,-8.291459577659722469e-02,-3.630823271339391096e-03,-6.966350664853888930e-02,4.898937660199121844e-03,5.231872878649154041e-02,6.458420715403827631e-03,-2.281861368144780938e-02,4.576722875775734306e-02,-3.055115456282497116e-02,3.811245697391515974e-02,-4.982015743398470614e-02,-1.071687161581483527e-01,1.079971753324470291e-01,3.939444395661528993e-03,-2.711700512522658910e-02,6.317207570101109060e-02,-9.204975451899370664e-02,-4.736274443419187519e-02,-1.958119002360738867e-02,7.761045382306056006e-02,8.953426932280507400e-02,-1.753736274580317694e-02,-8.014019305868393117e-02,9.367688730066545122e-02,4.051273503071896320e-02,2.715364290261152412e-03,-1.580551253569795200e-02,-3.071199125939521116e-02,8.633509955006450631e-02,-2.701569516864545106e-02,3.082708960503372994e-02,-2.865223337947333387e-02,-8.072216063094646288e-02,-1.133187437803603523e-02,2.478998689074680614e-02,5.077819092001395994e-03,-1.415267464172262693e-02,-7.794732702558981874e-02,1.870954253220854721e-02,-6.615129407122743999e-02,-2.030426506024084893e-02,1.868432960926829506e-02,-6.765480186176678346e-02,-1.991467299571005045e-02,-7.331580457395496563e-04,6.671701966810662798e-02,-4.866082137312378181e-02,-3.069647120775880270e-02,-5.733200427462053356e-02,4.011740320352889799e-02,4.008244927973431126e-02,-5.256049665955401552e-03,-5.282445628118915409e-02,-5.245433142979229017e-03,-2.867598719390105147e-02,-1.754732999439350891e-03,2.591271593808812043e-03,1.299112838532139325e-01,6.749199674659067325e-03,-4.391007516885556128e-02,2.713626629972164597e-02,6.289708011795174837e-03,-9.587150370808801558e-02,-8.113768615665400974e-03,-1.761725089173088107e-02,-9.198579978567447690e-03,1.847211417410365639e-02,1.214877473963320471e-02,2.026712481824596152e-02,-8.084235225672378733e-02,-1.248687473935727009e-02,-2.777011449422383746e-02,6.314936850180340178e-02,2.471377713396881795e-03,-1.003266539005411434e-01,-6.147989456442937151e-02,-3.322629584115602795e-03,2.091158395204439913e-02,1.296116488643919012e-02,-2.859775323067538164e-02,1.061739693405309472e-02,-7.990077537622310155e-02,3.774125256925778965e-02,6.376165204499097605e-04,4.395147460999399014e-02,4.193451648503403184e-02,-1.132532538398834873e-02,-2.119177622357552165e-02,-1.080857094397268819e-02,-3.588970296784878278e-02,2.002059619216548653e-02,-4.057538257184467589e-02,-3.139364352493741878e-02,-2.644688008682357858e-02,-7.365635545806914486e-02,1.122676130421948471e-02,1.141520136680888864e-02,-9.271631323424721349e-02,-9.702713002924524821e-02,-3.867744139245454793e-02,-2.876304955508624320e-02,-6.283305980260719958e-02,-4.358176941604605115e-02,7.653070776950093336e-03,2.568370537749583085e-02,7.569098487630494809e-02
