4.783834446653396216e-02,-3.395406603868889733e-02,-3.649612577778009459e-02,-1.619225524136394187e-02,-5.884058163562232852e-02,1.025438954818258530e-01,-2.871758281390904624e-02,-7.635260776843709636e-03,2.003896246361730124e-02,9.052447578584028876e-02,-3.014526658503570780e-02,-3.378758938259971562e-02,-2.870022377454462068e-03,-3.807216709120166825e-02,3.489451591409972742e-02,5.127590439042571668e-02,-3.577562237064525058e-02,-1.841456119943297651e-02,3.804222606409236873e-02,4.785235244877666244e-02,5.640417433727712600e-03,1.383498791625283053e-02,-1.358120575697669419e-01,8.517160979813602831e-03,-5.778840281948858376e-02,3.983509488759367362e-02,-4.693450994577733765e-02,-6.183271091742294917e-02,-6.389009426781376913e-03,-6.128422087086448505e-02,-6.271261670560915324e-02,2.336792976639234191e-03,8.717420627762767493e-02,7.953882039780056645e-02,5.092665152962283157e-03,3.149223634852637427e-02,5.365288696724800771e-02,-6.982923094109672046e-02,1.214794342872501168e-02,-1.972575327167743753e-01,-1.505259948661940017e-01,1.550278547513683249e-02,5.693042556193669834e-02,-6.072021551352172614e-02,-5.441830819175911410e-02,1.919871148109974016e-02,4.833758580863374565e-02,-2.597162338942390208e-02,-4.333554098046651926e-02,-8.316522896793932321e-03,-1.485278610429672380e-02,9.337391350648284460e-02,-1.696057724420909490e-02,2.426788039938980804e-02,-4.691185608789145978e-02,8.743964933297727893e-02,-3.347652884760274165e-03,1.518727324263627115e-03,-8.522298016234844398e-02,-2.748423172316395019e-02,1.050294763271467742e-03,7.400253307761203540e-03,-2.576569385983589269e-02,-5.169116029727823663e-02,-4.139886542097136191e-02,3.646374257852461748e-02,2.864728637035856076e-02,-5.242736246116614512e-02,-5.239243865224870594e-02,9.996443485636972992e-02,6.165054428837155737e-02,3.596069839756529940e-02,-4.429453534376957477e-03,-7.561030793279573115e-02,1.898337263873654812e-02,-7.790024538776328666e-02,9.292511516302592867e-02,1.099978984900153028e-01,-4.305593323229104513e-02,-1.230627705983184245e-01,3.607484077024940283e-02,-2.523308807544036303e-02,-6.851092709854129936e-02,-4.474798572558416621e-02,8.022246010053973864e-02,-3.883902304319408055e-03,-3.365511154170893610e-02,5.814849895787841533e-02,5.130764517307504630e-02,-6.363099258811569237e-02,-8.674514032306450406e-03,2.487878172152217446e-02,3.485646683009072100e-02,-4.355284699508017721e-02,2.342574713701079878e-02,-1.301942063229677947e-02,-1.067253710178878157e-01,-2.654686017909391529e-02,-2.968788855439868229e-02,3.920071948149973784e-02,-3.853920987352771332e-02,3.242600997195210083e-02,-6.003753915790453061e-02,-2.769723268437171773e-02,2.966502795976948964e-02,-3.405870651944230970e-02,2.414838024038046954e-02,2.726873902904517616e-02,-8.485714075556710645e-02,6.138030096701287130e-02,4.097037912783456359e-02,7.624245782743654942e-02,-2.734716100147616472e-02,6.254460950272257291e-02,2.872135368516338244e-02,2.245019966245424825e-02,3.204328948959949547e-02,3.325054703478133589e-02,4.255491821218868043e-02,7.663608113889898953e-03,7.955179294790237776e-02,1.685690100922095438e-02,-4.019417417873993870e-02,-3.819451008686072097e-02,1.991805761131142799e-02,4.026178559323221468e-02,-3.477982392354164731e-02,2.327404223795779756e-02
8.794512583273896011e-02,-2.201354133780650951e-02,1.169969042940050864e-02,-5.847543058564880214e-02,6.724254270827349778e-02,-3.301435369873000417e-03,3.408211890541192751e-02,6.756086528041552186e-02,4.374754297479646614e-02,-3.561932952760805265e-02,-4.929561354267978507e-02,-3.753399809620251715e-02,6.606827692155416154e-02,-3.541696986652527468e-03,8.596098583692229900e-02,-1.019516210534250449e-02,2.781095626199343862e-02,-3.579796337556981345e-02,6.117651828745730019e-02,-9.540900761909266309e-03,3.269033166559853071e-02,-2.969173577409336615e-02,-1.654040337555592183e-02,-4.706401074715801935e-02,7.651647233799500902e-02,3.920432090116780788e-02,-2.761240879580668592e-02,-1.040461914948600380e-01,9.264010302347984796e-03,-3.928159667312164371e-02,4.419486397555944662e-02,4.169433229271411051e-02,-3.906952957719937725e-02,-3.719606009233088900e-02,2.731303040272036256e-02,-1.389410923396132425e-01,4.335539941155271138e-02,4.951759099908566858e-02,-3.461934951987114678e-02,-2.071504232272614737e-02,2.295646707803369879e-02,-1.788163328848173944e-02,-2.822241055413824556e-02,3.054946764313125340e-02,2.725502884411643012e-02,3.614638351477346412e-02,-2.272787024779559378e-02,4.095041277876976249e-02,-4.975539253859703748e-02,-7.738170035092608451e-03,-6.707768313667980542e-02,-5.758376204116019692e-02,3.464894521309352503e-03,-1.422628208292468777e-02,-2.602697314633886649e-02,-1.621838138285035605e-02,-3.608224198125659695e-03,2.514049061184889244e-02,-4.267534862100819809e-02,2.679755214639417162e-03,6.179995534611052582e-02,7.414673183851047678e-02,3.677309594797423253e-02,-2.189789407948050312e-02,6.465386222689466222e-02,-8.571861540165613691e-02,2.251073271857577385e-02,4.965075780411245393e-02,-1.484901701684673836e-02,-9.765556079559046740e-03,-1.439558399874452943e-01,1.120972123225382200e-01,-2.379406342607088415e-02,-6.324593641381946567e-03,6.955688327297550322e-02,5.817336932264821105e-03,2.884467087168979607e-02,3.078058786632764665e-02,-6.348017663671341737e-02,-9.349269979176032253e-02,1.155037775469403352e-02,5.634462185137192707e-03,1.546902420131844764e-02,8.164584368849533286e-03,-3.488258819047562742e-02,3.155914077289130593e-02,2.862775326597816195e-03,-6.202686572570173355e-03,-4.234222390687683579e-02,7.204034079178755351e-03,5.579749827542189455e-02,-4.686492198322667058e-02,3.890898325422337961e-02,-8.909275656572630819e-03,-3.029622733539771504e-02,-1.966550789597244775e-02,-4.752710099995837573e-02,3.417790593406582617e-02,-2.995820164798392374e-02,-8.588391838133717371e-02,-9.573062593222412403e-03,2.271168978310068517e-02,5.463907070645347003e-02,6.010796370499812274e-02,6.110911019774992875e-02,2.799465782159735183e-02,3.422971014358536235e-02,-4.216657660111138711e-02,-9.340856517486428520e-03,3.310806926013037943e-02,-1.453429605632801658e-01,-2.318746498607432774e-02,-2.228332364851269912e-02,1.662074180151060926e-02,-9.212340050733146268e-03,-6.755308232200711582e-02,-3.969477340229560225e-02,1.012652435502798404e-02,4.864391294139699257e-02,1.351861817523125966e-02,-5.204860068021818775e-02,1.903906115530757531e-02,-1.958909717784194232e-02,-2.603783754626449662e-02,3.791377497679374736e-02,-5.824639640567334103e-02,-4.342609909384773786e-02,-1.640637812624624187e-02
-4.565836598457832796e-02,-1.184550187184638531e-01,2.015641429656543984e-02,4.772005949111760709e-02,-2.844906056182408896e-02,-4.014301023051920075e-02,-4.019599461833663762e-02,-3.293749468497481764e-02,-1.527996962153709698e-02,2.510863872420425469e-02,-3.400690056398262412e-02,-5.409121117690615654e-02,6.314631555538260943e-02,-3.440148898766495072e-02,-2.632094973454570525e-02,7.775534584289477136e-02,-4.268853808155216589e-02,-5.722746187277007873e-02,-2.671769931368177600e-02,-1.959909034094862654e-02,-8.473421056725830014e-02,-8.216288356128857717e-02,3.623315811208700776e-02,6.469153787261142097e-02,-6.507509026609582803e-02,-1.259011959242398726e-01,3.787464018996811437e-03,9.220569500132464597e-03,1.043880907310560519e-02,-4.413200715778922180e-03,2.018645648373673315e-02,-7.933404396437918060e-02,-9.023701932776076462e-02,3.656427612858195036e-03,5.227154700096691559e-02,2.212496227255631234e-02,-4.016332888337144358e-02,-1.572571188610266115e-03,1.229807278454882885e-02,-1.643263304268433207e-03,-4.587543252106557334e-02,4.305526366410544759e-02,-7.571955284477287218e-02,-3.164066477444447793e-03,-1.100095963433927737e-01,-1.997768201778705316e-02,2.837663474280245623e-02,-4.157672167156368365e-02,6.790987287991180621e-02,5.253675715416181169e-02,-5.283203471359209508e-02,-1.611869792597108580e-02,4.723599352181755834e-02,3.668189431616023649e-02,-2.217777911631753363e-02,-3.999501693831269966e-02,-3.510952535510820927e-02,9.383258012546486643e-03,-6.503577725094071560e-02,-3.825517905207052871e-02,-6.113652031450229202e-02,4.229059372468552819e-02,-8.295499429195836438e-02,1.277426987413348980e-01,-4.427512233885353560e-02,3.437333692737844920e-02,-1.436232775641960342e-02,6.015552907813136868e-02,-1.769747876332271319e-02,-6.661212729194357363e-02,-6.006501139643111858e-02,6.925851449937006632e-02,1.555606931583496718e-03,-5.530310750979899881e-03,-4.457753686960309013e-03,4.505165062846561153e-02,-3.461989799448352695e-02,-3.122640481523309558e-02,-2.622331044054063229e-03,2.316113774929213359e-02,7.696827450162957440e-02,1.828513626462802827e-02,-3.996952118583255165e-02,5.220811072330325958e-02,1.439608584503352870e-02,1.835988096752357024e-02,2.582989860866891606e-03,3.416441173703506362e-02,-2.588750552841719010e-02,7.914003934680290120e-02,7.958088994713939657e-02,9.908385657975248006e-02,-5.214055681530621600e-02,-7.598976241122233632e-02,-6.230438397473204298e-02,-2.428486736554619566e-02,-4.296778856410891217e-02,-6.715225035623099969e-02,-4.747184316684325243e-03,4.818696381143419694e-02,8.636188696588721972e-03,-3.788766235121623221e-02,-3.383069772607436021e-02,1.845797080068507096e-02,2.991215544305469987e-02,-1.085886373039056559e-02,1.014676488030637723e-02,4.904511575575540294e-02,1.086226791265193503e-01,-3.504629846569083662e-02,-2.854442937464806915e-02,4.945386113909205905e-02,-8.670030771284389925e-02,-5.393430490880077310e-02,8.562714222983453666e-03,-7.490910554247366682e-02,-2.485015467669545938e-02,7.556624801187852847e-02,1.997707065764607257e-02,7.283863146888453453e-03,1.037089320116140953e-02,-4.668022572714215085e-02,-3.611666606580948846e-02,-6.244515977637880161e-02,-1.107797420016451428e-01,-2.294050441031789817e-02,9.183360405776275215e-03,-8.273244536030725793e-03
-4.952970377324129869e-02,-6.750962171145379054e-02,-1.404773784304689382e-02,-4.104549361381031741e-03,3.527223486686190124e-02,-5.331087491122009359e-02,-6.130835725705573863e-02,9.759372313475362520e-03,4.500664429631735103e-02,-1.164738292918792717e-01,2.137406884304674654e-02,5.243220977499616492e-02,-9.932312301862242232e-03,4.097656497558774258e-02,3.466607632244467219e-02,-7.616352403383588876e-02,1.157303970749203222e-02,-4.979814754578271857e-02,-2.422861504307123950e-02,-6.809315963388971882e-02,1.078847688260017304e-03,-2.696538935508780918e-02,-1.645967641897975314e-02,-1.354650701093989933e-02,7.947219157850791971e-02,-2.820501346513405033e-02,8.506988415862933028e-02,-3.753656278661534479e-02,-5.493259699574575688e-02,-2.696946200263491619e-02,-6.333062604724992717e-02,-6.643905119332231546e-02,6.986770550602290630e-02,5.171950863279804874e-04,-8.093922483019367481e-03,5.127262544950753065e-02,-4.452471664065136420e-02,5.304054144023496314e-02,1.245497316522684896e-02,2.488485420818557867e-03,-8.849366985938428992e-03,-2.879893213381734540e-02,-1.708633256682973514e-02,2.974861805421911867e-04,-1.260621094228564151e-03,-7.547758211677822737e-02,1.872440038339661522e-02,2.314828988067623491e-03,3.688894547793162421e-02,5.241866347638182710e-02,-4.474019727889725490e-02,-3.065743202531228014e-03,2.088832140281746824e-02,5.511451491063956015e-02,-4.059091794233331794e-03,-4.834741836179079488e-02,-5.111192234924235439e-02,-1.181280490699267941e-03,2.192791024617160578e-02,-1.164939278640074599e-01,-3.218133690850558115e-02,8.046689480638390124e-02,-3.994350283776386401e-02,-5.918879924808426174e-02,6.129337542450669779e-02,-3.370218797095145269e-02,1.779606488510449003e-02,-3.161993252747870905e-03,-1.727153337201613528e-02,-2.895308410963869789e-02,1.011662619531005641e-02,-6.369333713362736182e-02,5.571371385731169190e-02,-1.580449898814823007e-01,3.492889194528895486e-02,-7.294333926291793335e-02,6.518674746842037515e-02,5.316141716962220071e-02,4.059692554736210601e-02,1.047326736461250268e-01,-3.701072408525345192e-02,-1.294312988363352512e-02,-1.391509920260421010e-03,-1.835097513705431088e-02,-5.368725250216318384e-02,-1.187528785202625510e-02,-4.416207859520823037e-02,1.061425883200853466e-02,4.195361879320377158e-02,2.602662116895946426e-02,1.460979066763831193e-02,3.010125855314493143e-02,5.185301946868862283e-02,8.994814195268423240e-03,-4.433867062433066025e-02,-5.254478575539616760e-03,6.338745088299842928e-03,2.914365537619919080e-02,9.552270513725590051e-02,2.558313290098615522e-02,4.003355689869192435e-02,-1.348747085503383160e-02,4.131270815536435687e-02,-3.943827630345595608e-02,-3.261065549849850864e-02,-9.844750935331568475e-03,-6.501105389970701642e-02,-1.024311574801378688e-02,-6.553089770208536669e-02,-6.209764410249033612e-02,-1.497243433420024361e-02,-1.811373576956011588e-02,-1.718309839394009317e-02,3.649335388243715728e-02,8.737765900680890749e-03,4.100466840062474971e-03,-1.314834319025118790e-02,-6.339843703392196439e-02,2.207597568483309416e-02,-1.451811789742066539e-01,-1.017671429675325034e-01,3.050817167182260856e-02,-3.920644567638480182e-02,-5.220615438856395646e-02,6.996216205517587217e-02,2.513534291535820652e-03,2.474240577573973490e-02,-3.191120932572476948e-02
3.964611853130910191e-02,1.602582537907859192e-02,-5.558576315307280774e-02,7.657576682815868396e-02,-2.430454641131236590e-02,-5.655902653540954839e-02,1.489237466420375612e-02,-2.116745828286377071e-02,8.597520252649491768e-02,-1.415101411963212187e-02,-3.942544349337220866e-02,-2.769912458369090322e-02,4.127855355152701411e-02,2.416164451375639108e-02,1.457954932134584818e-02,3.396234188772182666e-02,5.197890604814942028e-02,8.650013569040837513e-02,6.043437085164948125e-02,8.669867979530504476e-02,-2.535875990978275415e-02,-8.935657350625825224e-02,2.365038568529852572e-02,1.756794349904163693e-02,-1.057200512653099292e-02,4.287989002326391547e-02,-4.388692347489054485e-02,5.516991577577007658e-03,-6.304829206419734766e-02,1.618593701198796364e-02,2.191229058942043353e-02,1.829967247101856043e-02,-5.320241173418394781e-02,1.257454593424420924e-02,-2.908241841527336655e-02,-5.893145933925936220e-02,-2.660997249674815213e-02,-5.335922279970176790e-02,4.259937292658495106e-02,5.160832667587634398e-02,-1.140641667786273378e-01,1.005829229078165736e-02,-4.659279583235248490e-02,-6.194070278849117539e-02,-5.262825680284194396e-02,8.471069692108104676e-02,4.016965673998817987e-02,2.378903714679597714e-02,5.588523184929660576e-02,2.506289108289259937e-02,6.078139817945758805e-02,-1.595105193772296953e-02,6.067021620814731092e-02,4.718137335379946756e-03,7.585969275736528794e-03,3.468611616797633024e-02,9.015100285213260844e-03,3.728703853490759196e-02,-2.953914616182024347e-02,-1.818285171995286803e-02,-6.412343761635308503e-02,1.257253882241041176e-01,1.320485584313522628e-02,-2.834119065098504933e-02,-7.233832856437084902e-02,-8.458567216953611495e-03,6.586433654038931218e-02,5.414515552521763538e-03,-2.770826500750998150e-02,4.264191640775077952e-02,2.170463052446384988e-02,4.503956133190577249e-02,1.206778753985168415e-02,-1.146874882656583605e-01,1.109649453723657482e-02,4.739254560275300149e-02,7.849358565516748043e-02,4.489290281726787679e-02,-7.414677366069533787e-03,-6.398150677267569475e-02,-5.073990309778275525e-03,4.419075586068112182e-02,-2.954615553960319996e-02,4.177937354739400672e-02,-2.518617356247522879e-02,7.450512561034966378e-04,-7.724106622165102798e-02,6.171982287604570877e-02,1.760450934280028551e-02,-5.323179659117013157e-02,8.296664221878134737e-02,2.733536645618004322e-03,-5.916297251689152381e-02,-6.857038225979297796e-02,-8.442989605824801486e-03,-7.087717169398974337e-02,-7.393674103409632326e-02,-6.476836042226771784e-02,-4.372265013472161066e-02,5.119710607013747833e-02,-1.272114699429603146e-01,-3.887636042185781821e-02,8.988737226206480746e-02,7.446761049680666877e-02,3.839080520068207519e-02,1.579672802906870177e-02,1.534146367533665081e-02,-4.765498057751293981e-02,6.905398618401041577e-02,1.132061783915487008e-01,7.359814656454734261e-02,7.461241643148206100e-03,7.341295203848760553e-02,6.324634796719075247e-02,3.916796049444526417e-02,-1.282251029847974663e-02,8.671940173198632029e-02,-3.019031069175938040e-02,8.119648774990265161e-02,-2.070150094105801045e-02,-6.305474652164788033e-04,1.138550939475085899e-01,-1.524625353524693139e-02,-9.892558730590857163e-02,-1.710334566752206437e-02,5.823261566038649695e-02,-6.334572175099774383e-02,5.381755777745659414e-02
-3.705277857071735681e-02,2.012123227711680104e-02,-6.297808206440549950e-02,-5.218141943734790067e-02,1.293782084822659925e-02,-1.201518826105365118e-01,-1.105590560196793026e-01,-3.659001191246871038e-02,-1.375429642852966754e-02,-2.743223478154706990e-02,-9.389977939313312594e-02,-2.706832991046662865e-03,1.466373125694257935e-02,7.504523146060564087e-02,2.605387039765272306e-02,4.232311550988229060e-02,3.385650800937185095e-02,1.964450375484273759e-02,-4.370699081560973365e-02,-3.727636091828094578e-02,7.609206596924354693e-02,2.110297088718578878e-02,1.821237742926497608e-02,-3.704727581293733307e-02,1.785057112937109280e-02,2.737331174558269020e-02,-3.199372365315733546e-02,6.304754738713765072e-02,-9.523913785714049549e-03,2.258015442888808635e-02,-5.038860661809149016e-02,-3.138617300459374537e-02,-1.340467396882338499e-02,-3.772511080395365979e-02,7.233651229024448681e-02,2.709832824096617201e-02,3.187406929688326590e-02,1.535776120632479681e-02,1.519262057770275759e-02,-2.867688927962040377e-02,-5.350757927193623004e-02,2.219923106511136404e-02,-4.554918702785011597e-02,1.186459559982894381e-02,4.797609709604719330e-02,4.746023634596540502e-03,-1.508411909548820415e-02,5.074269731675334211e-02,-6.465446855764613379e-03,-6.804069552874031368e-02,2.801330729592393237e-02,-2.927607438254593158e-02,-1.612270393928991741e-01,3.700411655264778527e-02,2.789893479015100389e-02,-3.186324871517790674e-02,-2.102426976229893486e-03,-4.146608142947869058e-02,1.639156135938318604e-01,7.006639651179465134e-02,1.784490228615256968e-01,-6.229566187801691135e-02,5.877239906239527939e-02,4.471825486330943678e-02,-5.124120086356780124e-02,9.508228999817737448e-02,5.084347977372219440e-02,4.831952244348523828e-02,-5.192674071374987765e-02,-4.329029085530709808e-02,-1.141176601519427319e-02,-4.696060142478652305e-02,-2.900709962304478390e-02,6.535897561523075494e-02,-2.848827250051043369e-02,-3.478322565448796130e-03,-2.480412349838001865e-02,-7.717704992797237359e-03,1.318006551239514837e-02,7.271943181461819339e-02,6.447191937449897603e-02,5.632306126010858810e-02,3.388415144611228030e-02,-9.180870338393783137e-02,-1.401455182078891783e-02,-4.119529455973017923e-02,-4.305714396567747460e-02,6.712755338828695073e-02,-4.195636946821115071e-02,3.996077644528919087e-02,3.970412340656113981e-02,7.849119193175276010e-03,5.513229781302702789e-03,6.023759276832371667e-02,1.307452543101785339e-02,6.014578865126294499e-02,6.203379604714231131e-03,3.764593104553267539e-02,-5.925105356348412539e-04,-8.802714587574259758e-03,5.561588486753967636e-02,-5.579930041550896710e-03,8.769883232430424058e-02,-5.565508557195027878e-02,-8.293434229726132784e-03,5.205280696397004275e-02,-3.503331556467564889e-02,-3.445884767744159666e-02,-4.822081374848316213e-03,6.332868561943093277e-02,1.714394453404508370e-02,-3.686104229015015055e-02,-4.393759125151806139e-03,-5.355616063516435710e-02,3.016820230973977709e-02,-2.069720693513481258e-02,6.804559404739324302e-02,5.808871614824084872e-02,-4.339067311835731466e-02,-1.592217412713224298e-02,-1.530003890181824873e-02,9.759276455082424584e-02,5.337271413735524689e-02,-4.168006759930956151e-02,2.517747561082862157e-02,-6.782566534347006515e-02,3.558895673683263455e-02,7.103005815903733200e-02
-7.724697613693566611e-02,-8.976859684276018020e-03,6.195608488016882825e-02,7.854386350667150185e-02,-7.303373664073405146e-04,-7.751431686955449762e-02,4.698742689160555902e-02,-9.042225159468630924e-02,2.284089259339743341e-02,7.036512167802183582e-03,4.155902025629924085e-02,6.147925720994628501e-02,1.283277366587180432e-02,7.030692499863935852e-02,-4.899603629898102199e-03,2.660300811803106499e-02,9.907446201323354129e-03,4.045573948358920785e-02,-1.399499925718359489e-02,-8.138940418745176097e-02,1.360129394912932936e-02,8.073412083725818589e-02,-2.094780735740350841e-02,4.952556218486226652e-02,2.115778612568408601e-02,4.563924207620555923e-02,8.983313050006212427e-03,-7.775510324604774370e-02,4.724104117900256722e-02,5.376078469140111588e-02,-8.311643066938825819e-02,-5.283102945708547521e-02,-1.043316803611625543e-02,4.885481799270234744e-03,-7.641761683181676201e-02,-4.963348540155013144e-02,-6.553668637858250934e-02,2.436539565930251686e-02,-8.429955823619546262e-02,2.888708793204991521e-02,1.440579064997322793e-02,3.374161502305721150e-02,2.347851262497780214e-02,7.166079168248682893e-03,-5.713233113462946877e-02,2.418528645953107667e-02,9.355824726538845143e-03,-7.527645408073846411e-02,-1.781189303375655883e-02,-3.299297377726476826e-02,-2.027492693073783617e-02,4.874079132191171115e-02,-1.659594929721406112e-02,4.790671628137416205e-02,-8.442892608449621000e-03,2.887677548128148291e-03,4.388357510555723762e-02,1.191857909888631439e-01,5.121597166891227702e-03,-2.397278660095269673e-02,-2.267411872682319890e-02,-4.172168175768659754e-02,-4.100867018514416096e-02,-1.030649761613251260e-02,-7.040876055279474133e-02,-2.568798679056089052e-02,-2.672774096183039294e-02,-3.840137180722705962e-02,3.540198426593904667e-04,3.049865309085069733e-03,9.424304701124135153e-02,5.300955616285395189e-02,5.224399378967393287e-02,2.900700575621253940e-02,2.945590621450627170e-03,4.255738975910850624e-02,6.016095204929051976e-02,8.122886055010283823e-02,-6.029453425250833401e-03,-1.862886635103368563e-02,1.246966194644838835e-02,-1.620691877202010307e-03,-1.165326384648720723e-02,3.342555183368150357e-02,3.352684039661019133e-02,7.454434176580027049e-02,2.904972293594869359e-02,6.175931708508029978e-03,1.074423555896273363e-01,8.306953868822292142e-02,5.390478444103050798e-02,4.705377710532336610e-02,5.027672865530892488e-02,-2.268585880316313294e-02,2.285824856521876964e-03,-1.040160897449411703e-01,-2.218891185924836470e-03,-4.147637027474580101e-02,-2.685224066541023330e-02,6.608250158330520978e-03,7.319279859574955027e-02,-6.707367398182552398e-02,-2.084533266890133477e-02,-8.433761222885383449e-03,4.162173711080756344e-02,-8.886955109850375178e-02,2.594082177718629034e-02,-3.446619885466152555e-02,1.147034263114942408e-02,3.595769019400520215e-03,1.418470267391081299e-02,-7.239235925081743961e-02,2.426097947356892215e-02,2.126772315692037479e-02,5.211869183178692577e-02,4.007646489165361120e-02,1.461710532556634648e-02,2.163806673917101353e-02,8.082849528854557652e-02,5.061491599347656134e-02,1.547558967644822349e-02,-5.654784569819033130e-02,-5.677220678453887004e-02,1.313756880874342864e-02,1.639174680745007773e-02,6.174576602339093556e-02,-1.392261418928566162e-02,-1.197871184157963363e-02
1.052150345105236449e-04,6.798969075083226288e-02,-2.184638018715181693e-02,3.909882787491402584e-02,1.651469698439121947e-01,7.147730511100318894e-03,2.647477759515191181e-02,7.469688748164338143e-02,1.070646604979226188e-02,5.570833456884602712e-04,1.844080182340786592e-02,-1.658662138752164603e-02,-1.008966505401952436e-02,6.183584136356402861e-02,-4.249918505150294956e-02,-5.473944271822618612e-02,2.424233490443673811e-02,7.327126773346892552e-02,-3.418321704873453909e-02,-4.936484457102300466e-02,3.414192756497859416e-02,-1.689273638433132566e-03,-6.452129477524373713e-02,4.841520798186506325e-02,5.903789912444775551e-02,-5.538812390105152250e-02,5.927733742338974626e-02,5.383507339185744645e-02,-5.716017196802058997e-02,3.045402995405995308e-02,1.225098014821329566e-02,6.863346550467355062e-03,8.058370037026618693e-02,-1.033716591124114390e-02,7.342223800563063563e-02,-1.828494345583786540e-02,2.073902304230790597e-02,6.029761712213127511e-02,3.269845679652845505e-02,6.828596207969574866e-03,4.618227799902872160e-03,3.345307259975451378e-03,-2.798722561805277228e-03,1.093620202820332239e-02,6.631684169758192415e-02,8.280715864062000720e-02,-2.223080737053149264e-02,2.171776882620349292e-02,2.300688578329327869e-02,-3.759334667405428432e-02,-4.396014723965695897e-02,-5.043850739061588734e-03,2.093345038595522539e-02,1.807276551199143294e-02,1.212432919624645000e-01,4.425441024024927977e-02,6.036094389300766805e-02,3.357707524208557170e-02,-1.348610759076987334e-03,-2.655188444818582308e-02,-3.764884483849579438e-02,-6.227221618911702589e-02,1.938824347351780081e-02,6.665307002828667338e-02,1.317507959620896063e-01,2.938564044009144699e-03,3.113716824321180812e-02,-4.514278972907430354e-02,-7.602244450993209113e-02,7.526252085380228697e-03,1.452308242649130547e-02,5.318334849447020618e-02,-2.231855446625251576e-03,3.859131792967508690e-02,-2.436135237281839006e-02,1.216228075087988879e-02,4.621731342609356266e-03,4.782167118052713106e-02,3.867310214413408054e-02,2.900084892964027716e-02,6.938214613193309510e-02,-1.973949995027274654e-02,-4.895973467874868701e-02,7.255818446670528332e-02,8.185723211696109211e-04,-2.016953830979042669e-02,-2.950986916742483201e-02,4.744886126334591468e-03,2.197960929429409668e-02,-2.651031833456288928e-02,4.495169825632405053e-02,3.886958472212476839e-02,-7.203088014189349200e-03,-1.313865672085099551e-02,2.071248081847841538e-02,1.079747574526498666e-01,-2.907210506738385630e-02,1.661748180678475351e-02,-4.075641317733699753e-02,-6.117985045085767848e-03,3.482333700709529939e-02,-1.746632837609311123e-02,9.684605799201356779e-03,3.140690264158615269e-02,-4.275565109369778433e-02,-7.276451216337976799e-03,-9.046406177039614804e-02,2.751057614467746978e-02,3.508102894859667364e-02,5.079568793155617851e-02,-1.039434412318712871e-02,-4.498915272400203988e-03,-3.734439671580199599e-02,-8.246918432434462154e-03,7.394906487300302589e-02,-5.794213734638111943e-03,-1.018958143807901021e-02,-2.915243213370183675e-02,5.912777820079142752e-03,1.443578294226212019e-02,-2.383658275970428064e-02,-8.413037898248581364e-03,1.811267044077024407e-02,-1.599278181280331876e-02,-1.083258652216385759e-01,-9.317801710648316790e-03,3.708557192473378034e-02,2.540227629390155728e-02
-4.282872482859605145e-02,1.095146417741068093e-02,-8.660917480692127690e-02,-8.523365601613624998e-02,4.894760188590513428e-02,-6.479635552818080457e-02,3.189999867898481861e-02,6.241125469855063855e-03,-5.335111291557662755e-02,3.532532590439307896e-02,1.819590233864728721e-02,5.059277317142797659e-02,-4.454003530103770730e-02,-5.165579281541719803e-02,-2.730079167524925368e-02,2.880602251572463024e-02,2.629785021742279960e-02,-1.132026070803529398e-02,-6.450616714518247682e-03,9.562573651765927940e-02,-4.996320997023876581e-02,3.534286009208040258e-02,3.091692208217860756e-04,4.342183615312285305e-02,-4.599316590062714483e-02,4.824571756770194148e-02,6.305146187598804734e-03,-1.621937081163910173e-03,-6.479249189618134508e-02,5.610857298829827894e-02,-1.014396103866848156e-02,3.925289973908940855e-02,-3.937072603238690738e-02,5.422066651805508564e-03,1.730305367052634938e-03,2.175806836986689339e-03,1.545219167672338099e-02,4.537286571959342485e-02,1.322290075407897211e-03,-9.124202870986851746e-03,-6.002601081741114515e-03,4.386432565675765782e-03,4.150852245259142176e-02,6.052005525949231274e-02,3.988759145209577750e-02,9.179245015584491102e-03,-8.134111703977366103e-02,-5.580422865602582133e-02,9.567077750646794942e-02,1.728095232951608329e-02,-5.004550299867410734e-02,-3.776739077207643541e-02,-2.483365432831927469e-02,4.207080107393603580e-02,1.738475350505914313e-02,7.304180980169522330e-03,-5.367675032259142109e-02,-6.408485001445927975e-02,-2.460624005351027405e-02,-1.229096530160199083e-02,-2.208226568046389379e-02,-2.887520984146244377e-02,-4.129256066428824146e-02,2.277822580030598038e-02,-2.005156867727041214e-02,1.839495346594194336e-02,-6.697309375152568633e-02,7.915583920847578392e-02,-1.775932876769901331e-02,-1.733453495331369705e-03,-6.446377240615579207e-02,3.805939035950338389e-02,1.638806452948963349e-02,4.170849906533376922e-02,7.024176342175177980e-03,-1.463287597449829981e-02,-5.108899909360069963e-02,-5.237503008211085581e-02,-7.363037343323636241e-02,-1.169957140582134764e-02,-2.882425053512643887e-02,5.397409193322704607e-02,4.581294692914890040e-03,2.797960561488295472e-02,-1.018749025224462840e-02,4.790604440193621527e-03,-7.761170393417205458e-03,-6.884004106520064115e-02,9.463548263844827335e-02,5.376588687808901701e-02,9.499910803970627871e-02,1.069563463899288192e-01,-1.312366586576922158e-02,-6.448010949028797067e-02,-4.069138888615898147e-02,-2.078751168811054234e-02,-1.150457225359713051e-02,-4.432642762937504671e-02,4.875787697266632109e-02,-5.206554167393728089e-02,1.310189984251800693e-02,3.370694639339544968e-02,1.201286179298464811e-02,-1.107457793135952356e-01,-7.395853243912410210e-03,2.012412388838779806e-02,-9.331169788111888519e-02,8.801218180227537990e-02,-9.407215137111807346e-02,2.624592204827244299e-02,5.615243835876553014e-02,2.785385095972332109e-02,-4.134200311600624844e-03,4.266583960799232716e-02,-2.202796205648240545e-03,-6.681457726790091672e-03,-1.252349872012216148e-01,1.870612230780500929e-02,1.597534267146264245e-02,7.792311136786168879e-02,3.402433643882121772e-02,-4.358288870861984181e-03,-6.966819133779772813e-03,-1.732954678152923492e-02,9.642610771073313949e-03,2.690457763779240119e-02,5.174952586561357842e-02,1.503444985735019057e-01
6.334681651452595853e-03,-9.367561568769254554e-02,-2.200515229493585703e-02,2.947384126439580795e-02,-4.677280898643414175e-02,1.024830547771610062e-01,-1.533516088824366831e-02,-6.750996334937013621e-02,2.709374113596624972e-02,8.323337269039721154e-03,-5.431140270523631547e-02,-5.923816188693090123e-02,-4.049868904955362253e-02,-8.413862678538948370e-03,-5.877730956180998723e-02,-2.182264005706581467e-02,6.234955788862175941e-02,2.636416163626532222e-02,-5.885795105552591583e-02,3.604228460829238256e-02,-5.227124573431354837e-02,-1.343009018055707667e-02,-2.086472972817350613e-02,6.578768477031131205e-03,-2.888079567932051381e-02,1.823151413522488759e-02,-3.343610739774082602e-03,-7.140968594604367448e-02,2.061262388613618185e-02,-2.557563728074079001e-02,-2.724751593660441895e-02,-4.349834856664040045e-02,-6.687648407679966378e-02,1.733383682080259780e-02,-4.002274405629549503e-02,-4.223484385570145522e-02,-1.068414425253939176e-02,1.682820238008858951e-02,2.735324726499580375e-02,-2.610992524449378736e-05,3.506662217890419916e-03,-3.000903284645905708e-02,3.821067573108958421e-02,3.784486784414751309e-02,-5.992315001640587634e-03,5.691903168197891966e-02,8.871553742449266033e-03,5.823359924265643361e-02,-3.664872021211032505e-02,5.387939845785172377e-02,-6.201804294122649844e-04,8.466206641460499727e-03,1.618759214509006908e-02,-3.846265543638104772e-02,3.744141501761395763e-02,-5.264081459613663416e-03,4.920424390904765827e-02,3.135559449331892009e-03,3.066007764718302331e-02,-3.193963012792102457e-02,-1.910882195896540167e-02,3.692432272444515218e-02,1.182255742343471311e-03,1.103761240299444002e-01,2.176230927047583669e-02,-5.573801138136125211e-02,-4.227946614881449017e-02,-3.449071662865404314e-02,-5.990554050744044401e-02,4.790106744266233417e-03,1.136499970414106032e-02,-4.636174791762220221e-02,-1.452265838647653733e-02,-4.233251038315864745e-02,-3.713811675831023285e-02,-9.723659914553131611e-02,-2.831957369675600425e-02,-1.062407214367411951e-02,-4.313414016050008334e-03,-5.026567932154021867e-02,8.000189096429048685e-02,-2.175766383283133862e-02,-1.361290442012700296e-02,4.127615802250339527e-02,1.383481331425513994e-01,4.483160223724650534e-02,-3.544979878976986542e-04,1.533881502831016368e-03,-1.809305997305221680e-02,-7.498728015159997207e-02,4.531525220948933418e-03,1.264077749490877534e-01,4.214015795165425987e-02,-2.195574625882998343e-02,7.847032482379329155e-02,-2.881955674209137064e-02,5.698500365903046844e-02,-2.570423645219331588e-02,-5.100333760070144273e-02,-1.606145101685657606e-02,-1.678404721717376277e-03,1.475855635671143896e-02,-4.138519926192029547e-02,9.231215958463567794e-02,-5.078643771296032774e-04,3.326495226543900886e-03,-1.451273474771534559e-02,-6.542748127887243470e-03,-7.482177196167504041e-02,-4.971341087863113961e-02,1.525981735331909811e-02,1.225966511186283581e-01,-5.971337346856495087e-03,-1.965379681676304030e-02,4.387297707514909578e-02,-8.511074486184400101e-02,9.489742574868628711e-02,-4.267338894171603114e-02,-1.076991235058193941e-01,2.752543872843670608e-02,-3.955956825490512807e-02,3.970916886123751488e-02,-3.130265605514400556e-02,5.819585442312191770e-02,1.670767773690860422e-02,1.215042657600134621e-02,7.439106668700866398e-03,-7.219446045507413312e-02
-4.200581754577948496e-02,-2.640690367173793331e-03,4.081013403200285661e-02,-2.171469431143548470e-02,-1.990429310168942423e-02,-1.834637230978502370e-02,9.851156538868847956e-02,-5.694846394383385607e-02,-7.014687226156372801e-02,-5.381099451197929144e-03,-2.439331343691314435e-02,5.219961632522972933e-02,-8.821089824097367443e-03,-1.807801419742769778e-03,5.906489660315925733e-02,-1.989570990518207960e-02,-7.130776061138767441e-02,1.500257246629152323e-02,3.466504215465723848e-04,1.499503715214823597e-02,2.333839643281305359e-02,-5.407560543466626707e-02,-4.375294949098840203e-02,2.663269875537181003e-02,-2.081261070236051572e-02,-2.101380347633777929e-02,-1.197867528987778818e-01,-3.109844689787663249e-03,-5.394461600469495355e-02,-5.872459014940439870e-02,1.273005342510983781e-02,4.503077029168348067e-02,5.868099059174148452e-02,1.468531809687568038e-02,-5.140754731236870517e-03,-5.506585737627962135e-02,2.491409454916609575e-02,-4.559300755802841824e-03,3.155333861101974890e-02,3.792149990410154797e-02,-5.662684015738188824e-03,-5.085914927728422269e-03,9.515989566020842394e-02,8.218366503555828151e-02,-1.142653614958523585e-02,-3.560672169316352748e-02,2.175026744464959340e-03,1.354323021618002165e-02,-6.471802293953855811e-02,1.182509042963250240e-01,-2.148304713350144765e-03,1.825174635119051689e-02,5.908973462670944615e-02,-8.629964747955680415e-03,-1.338033813173399866e-01,-9.722569674516448254e-03,4.675438205284153381e-02,5.154188841348490702e-02,-1.338975094828489740e-02,6.143041909298752046e-02,-7.349057485812838728e-03,-1.144016396963178951e-02,3.466007118148629190e-02,6.300315778800197331e-02,1.610699406641600065e-02,-1.698561172617026743e-02,-7.173900712194977020e-03,-5.685748471187612382e-03,-2.111572019671174860e-02,2.205386181127171399e-02,-2.682847685962847298e-02,-3.494224018845738799e-02,-5.920957014440660776e-02,9.934773167771483379e-03,-2.425916372141716584e-02,-1.284199783129943984e-02,3.968173132149753479e-02,-9.087653473618222122e-03,1.370600681002425401e-02,-8.273609046650422238e-02,4.765974624762843448e-02,5.785809209795875208e-02,-1.435025279998623608e-02,-1.202951008894601048e-01,2.126924850640220244e-02,6.905765019474581490e-02,1.468316211158474972e-02,3.729369287140604089e-02,-3.516486495937100332e-02,7.500240105964869897e-02,-7.816635897262487476e-02,5.831580418308814073e-02,-4.812859871469769846e-02,-2.109382253540133603e-02,4.867662172756809236e-02,3.632184841895959738e-03,-5.400382305924212450e-02,4.881981044790389968e-02,5.221862562693108112e-02,-3.596837868418119311e-02,6.743934032984616467e-02,2.256481515774007990e-02,1.117788643372729165e-02,-8.304657707675415501e-02,-4.318224645441750414e-02,-3.942386479892121356e-05,-5.033115985398690928e-02,-6.939788307971968273e-02,5.182635990497810180e-02,-5.338796558268729675e-02,4.308908757635400433e-02,3.890386754359469179e-02,-8.755840211195857481e-02,1.403935583033594503e-01,-7.244366244874679561e-02,-3.105707015507841104e-02,6.220515547813973423e-02,-4.328252364022223270e-03,-5.748006749465295329e-02,9.112094682843107848e-03,8.080728309704202084e-02,-3.098490124961933434e-02,-2.411125366074430912e-02,-7.481325317645157180e-02,2.671950122363906180e-02,1.657589829440025281e-02,8.125023644511369936e-02,-5.219444447512286422e-02
6.025675892380311788e-02,-9.233512541565737364e-02,1.909005023334590934e-02,8.126829043202368763e-02,1.004389653138039983e-02,1.107495557221760060e-02,7.766145856952811136e-03,-9.181517790661154754e-02,2.984160440867640162e-03,-5.438534989508255618e-02,6.884853503807353281e-02,-4.861233762537964936e-02,-6.784366147077386389e-02,-5.990250760125225699e-02,4.107960729071277739e-02,8.359485588926515720e-02,2.590640169940129287e-02,4.211674117808042461e-02,-8.708106108113820160e-03,1.232777796484367007e-02,-1.810714673449474786e-04,3.355505908472874305e-02,-2.618989948582292615e-02,-9.179462155783820951e-03,3.203545081531202626e-02,-2.036768697376879766e-02,-4.704445625900620376e-02,3.916881205416418432e-02,-4.051236626770157723e-02,1.063258593622755203e-03,-4.519016957515467614e-02,-4.058233607384233166e-02,1.776510493475787818e-03,-3.052152830208910116e-03,3.426599573919259997e-03,-1.998538943061913681e-02,-3.936367540082356953e-03,1.173748378943297865e-01,4.324383127166212676e-02,-5.481785178579848955e-02,-1.023249190388467039e-01,8.116592158338208074e-02,2.868273226187340388e-02,-1.070132176824069997e-01,4.758335132179348365e-02,2.302489211902608232e-02,2.975959169156076542e-02,4.205394671598156053e-02,1.832074706170476637e-03,-4.516547013437156866e-02,7.812518028471737708e-02,2.617451517490194252e-02,-7.370107556331852855e-03,2.986760180166282697e-02,4.641841376691305254e-02,-2.738594053562536101e-02,-6.723145003008230980e-02,5.199591028052491515e-02,-2.058784643560963162e-02,4.353080610134504869e-02,6.022653398778733680e-02,2.659720724561332253e-02,1.193247589257882130e-01,7.870888634320721833e-02,6.986933777378380450e-02,-4.530539951265158405e-02,-1.051870657253422929e-02,5.635343476468988866e-02,3.526848859240631299e-03,5.040190605466487658e-03,-4.609450917975391193e-02,-2.957995823873743255e-02,-9.718780706997214025e-03,-1.938865303268494584e-04,-3.860796792781985565e-02,3.922292721700094964e-02,4.322996869076654869e-02,-1.008953852050118762e-02,1.845549404720061779e-02,-4.494783018599762814e-02,-5.376575387063353695e-02,9.951512457884473251e-02,1.564782874224640574e-02,9.445818902607301670e-02,-7.299234837853553481e-02,8.548387903533387344e-02,5.165415070383209267e-03,1.068166036926881807e-01,-1.717568989116900410e-02,-6.454404474519313990e-03,7.165985219592688193e-02,-7.469096139404461654e-02,5.269138695533701761e-02,9.369016306218067025e-02,8.608099152185304248e-02,4.247486749416863605e-02,-4.702745815773693577e-02,-6.916096302591161205e-02,-1.089987427268645191e-02,4.123432893174481390e-02,-2.994799718062335706e-02,3.289003021301938751e-02,3.109836436761392875e-02,-4.866808184048965896e-02,-4.800316857625146899e-02,1.152975178619002929e-02,8.269477097521425735e-03,3.393595690656844334e-03,6.083595932986523430e-02,-5.762654458662107293e-02,-4.369386602426019589e-02,-1.821273819474015978e-03,-3.154923135007049739e-02,7.127666167948924769e-02,-1.236143786991066862e-01,9.601063907679668885e-02,-1.566435504869458442e-02,2.680020302143785657e-03,-4.121192986406973548e-03,1.613029031666708690e-01,-3.245995655623350878e-02,-4.174119322966281936e-02,5.962012519521039250e-02,3.116945819317475802e-02,7.990472405009285684e-02,-1.139626799259743119e-02,4.613604459791500328e-02,-9.408844868671571715e-02
-2.120103107313339036e-02,7.714039162267448402e-02,-7.750591283981783652e-02,1.994650584999793641e-02,-1.962742980085822875e-02,-3.261861888643011187e-02,-5.122423802462099801e-02,-7.029636729911485638e-02,3.197320420125432383e-02,-4.282342381553867067e-02,9.001093966234478003e-04,9.543281530957659076e-02,-6.446480544627092302e-02,-3.705887054468733760e-02,2.839205744604298906e-02,3.089309493599996792e-02,-2.407524428244961143e-02,-2.816661604510310377e-02,4.780239012628802187e-02,6.121685639830514586e-02,1.816069571207655151e-02,1.064121891154336114e-01,-5.148292453736699054e-02,3.398687888970226140e-02,-2.389324027514685370e-03,-4.618088114466854799e-02,-6.902696553617072850e-02,-7.167402531599911461e-03,1.089471716158669223e-01,-5.162233105267141631e-02,7.537144217507625588e-02,-3.406607348506637128e-02,-3.077809512858214677e-02,1.927425146639950848e-02,-4.384757757280251071e-03,4.195778772873601237e-02,1.347232046382844384e-01,5.243329392303739539e-02,1.633320639386481171e-02,-2.305382975899151338e-02,1.154267265544520887e-02,3.960054180656571998e-02,2.053128770770585448e-02,-1.609747712897673750e-03,-3.464963511378764405e-02,-4.629013293695549702e-02,4.462291660153759609e-02,-2.845982731898320101e-03,6.549989597082458981e-02,6.470807538497048983e-02,-6.170908598065789896e-02,5.512295274494294003e-03,7.574713784857244059e-02,-4.816264611753483596e-03,-7.279799341136192203e-02,1.109033644069387300e-02,4.495271949219844382e-02,-2.669159880896193604e-02,-5.224739056657759506e-02,8.654220469166035157e-02,-4.149905355654658068e-02,-6.085683381603316372e-02,4.692030533106286705e-02,-4.641566051965004096e-03,-3.049378871670408234e-02,1.080393896591151301e-02,-4.431086161394102996e-02,-7.095469819687554025e-02,8.461645378877243051e-02,-5.904695976981227945e-02,-1.399618233686545643e-01,7.541994426621376202e-02,5.474047936282721606e-03,1.110238284509027645e-01,-1.121468891297274922e-01,-5.350756813014451163e-02,8.205762561536808497e-03,-6.051197218466515537e-02,4.878397837366286321e-02,4.641595016758902348e-02,-1.847936813402034986e-02,-4.663902862105630959e-02,-1.851404730058589065e-04,-7.952062985459728769e-03,-1.323686137430845483e-02,-1.609050871028568086e-02,1.369707355442864420e-02,-1.380640171332812990e-03,9.728974946070039626e-03,2.762539167210873586e-02,-3.977274760517741231e-02,2.604842271660444408e-02,6.426068106592209075e-03,4.214780738320603182e-02,2.497160917420195372e-02,3.849169218726925662e-02,4.032354798195451895e-02,-2.368214113660995542e-03,1.413231410791249143e-01,-6.306336258544829876e-02,-5.813015120756084841e-02,4.051124081509599462e-02,-4.689251704572269808e-02,2.691835230768814188e-02,7.946214582129521031e-02,6.941939365069547951e-02,-2.559396841931744354e-02,2.372868841561923819e-02,-7.762777762428445250e-03,5.127464267707264323e-02,-1.024038897347256429e-02,4.583338678580785308e-02,7.156634244662488098e-02,4.451788679591368869e-02,-3.502218212150713748e-03,-3.336393026117548226e-03,-5.442002995231904477e-02,5.211007618131870134e-02,1.818161128967322321e-02,9.445446514210800379e-03,2.359623944225526689e-03,7.409682815057082273e-04,5.252459497389806546e-03,-7.869439368673813995e-02,1.351493403049644840e-02,-6.392216946865861282e-02,-1.579853680096994983e-03,7.640191142747819464e-02
-7.974761395712372941e-03,3.009309629240642867e-02,2.244348934162540901e-02,1.226961039476408451e-02,4.716585011034906544e-02,1.448768367889391451e-01,8.716880655441636497e-03,2.491093204514012449e-02,1.530878153532933342e-02,-8.702924036570051924e-02,1.759095833914736673e-02,4.891948460826166245e-02,-2.674982803556893995e-02,-3.136592546259563824e-02,4.720820618776028210e-02,2.278692885848359814e-02,4.116810474718536617e-02,-4.185794801875263732e-02,-4.120661487516857208e-02,8.776454154560648507e-03,5.214990483666871735e-02,-9.696548955329221953e-02,-8.910519838299506279e-02,1.250523720659100883e-02,-4.092116471105942954e-02,-1.295351729036435529e-02,4.387019588464796671e-03,4.257262430077382066e-03,-1.505476673302524144e-03,-5.951056273159784082e-02,-8.832229051745629778e-02,-2.429279505921432686e-02,-6.224930627743644612e-02,7.116079964759414699e-03,7.700364120903727128e-02,-3.504344908953799242e-02,7.336141922097987045e-02,-6.696173096025005711e-02,2.504153060800592620e-02,-2.016992852472348705e-02,1.842524735017903731e-02,-4.665710293011209042e-03,-3.843912993124275201e-02,-1.025423163950580641e-01,5.543241813005735097e-02,7.409480205310048882e-03,2.018384658926093700e-02,-2.003958307066330390e-03,5.109285112884084760e-03,3.889232270416398407e-02,-5.412120256735480917e-02,1.558786526145699083e-02,-4.281516439071984814e-02,6.419557578263913877e-02,2.547324176172761565e-02,-1.093716542729556429e-01,-6.245223563952599644e-02,5.838505882537404351e-02,-5.762465505829979934e-03,4.559971785326297905e-02,-3.475023792498986575e-02,6.842806383281160865e-02,-6.954967078983429439e-03,9.599199553573301014e-02,1.514797366310515446e-02,1.224136773892793989e-01,-6.313212346235384798e-02,6.744216019747939495e-02,7.443151722202984329e-03,-2.811767963276894794e-02,1.498314606878507760e-02,-5.085175476573708386e-02,-4.937293038453334504e-02,3.695472250149560434e-02,-8.360141067316292918e-03,4.206200423760737828e-02,-1.122640209801203937e-02,-5.894807057729619867e-03,6.417988277798167274e-02,1.730479895291613460e-02,-1.099735383618523007e-02,1.061736492105709063e-02,3.401731544012959185e-02,8.696077801444575608e-03,-3.424779532339138760e-02,-4.192577707912799323e-02,1.976110060798850349e-02,1.231617672709441752e-02,-1.731956989891509507e-02,8.491871815352042274e-02,1.645326980715870746e-02,-3.114968359290981245e-02,-3.212490312013127625e-02,5.150242600440918528e-02,-4.992391478837807789e-02,4.427308012034456355e-03,1.889763013925664095e-04,-1.645615010365489295e-02,-1.647717757264118010e-02,4.670064638791506656e-02,-1.005090704185963441e-01,-2.326723120329805133e-02,6.143321147360485124e-02,-5.633950575825112661e-02,-4.428680578920405481e-02,8.475687409270538444e-03,9.753370288252412312e-02,-2.114629677879952506e-03,5.356949681519161677e-02,4.095368026063218869e-02,1.100122576406107194e-01,1.063752939572996659e-01,-8.310059782747937496e-02,9.362303202185429107e-02,-1.543686676069948131e-02,-5.326320749052527309e-02,2.164523820796047937e-02,8.141727306224884331e-02,5.288520362474303377e-02,-4.508803644934743227e-02,3.154290195651012125e-05,9.949490460857733989e-04,4.558040945781985376e-02,-2.957678798244574997e-02,-4.013936991316672045e-03,-5.009021530990448445e-03,-1.445743997863681990e-02,7.501006830003141036e-03
1.248151104268351019e-01,-1.409017096201125099e-02,8.508014295272078864e-02,-2.882505122228972566e-02,-9.004850940973801923e-04,1.098181539284816439e-02,-8.533781653630299890e-02,9.354337343431234908e-02,-3.117999671755001655e-03,-1.522058632962562316e-02,-8.338434881676802524e-02,-3.889008734305471338e-02,-6.904016239228528973e-02,-4.393626729153790600e-02,-3.435001650056984830e-03,-1.265757563749355351e-02,1.991052146008431833e-02,5.404668132703799310e-02,-6.323027068571632214e-02,2.968847298893666567e-02,-4.377999115295914956e-02,4.699418882176724377e-03,1.859241544485217001e-02,-1.710755608144531176e-02,8.948038384494615138e-02,-1.274652993520729131e-02,8.427594077731375213e-03,-4.648928525298148123e-02,5.655059320827483110e-02,-1.866285791166539393e-02,-3.846014553953886611e-02,4.240840958765072603e-03,3.066821131118087351e-02,5.806587207082899646e-03,1.775891572119464579e-02,1.956153775875717551e-02,6.915627947514664531e-02,6.033972935067953569e-02,3.009314336777420273e-02,-3.745559072703357612e-02,-2.007785400244979646e-02,1.910930538623767730e-02,3.078764513412012363e-02,2.487577656327874878e-02,-2.197477445177673655e-02,9.356795409815960030e-02,-2.662438420108134349e-02,1.526745865243117270e-02,6.401084775878358550e-03,-9.532746623860359134e-03,3.620453611708728675e-02,1.276386797350631715e-02,-9.951062747664563002e-02,-1.006045287813212841e-01,1.944721629209557323e-02,5.868370098236059401e-02,7.304881231763657792e-03,1.068071520652197869e-03,2.829914689599508787e-03,-3.646905499395282357e-02,-8.560179879079910653e-03,3.529645866366747098e-02,5.973073219497267161e-02,-1.250879458560214159e-02,-1.838542098129564151e-02,-4.402196378805940669e-02,9.517596446885497052e-02,1.858150668514162857e-02,1.034121656425976941e-02,2.724380805977214687e-02,-1.333086179799056470e-01,-5.310949560820575448e-03,-8.975353784605237528e-02,8.357987254167212332e-02,8.502262665835109978e-02,2.650053582485316014e-02,1.086091746336662403e-02,-4.744536405756336062e-02,2.249474063514629758e-03,-5.420321446394310051e-03,4.924769361490388686e-02,2.617776254419884596e-02,2.557632730863772588e-02,4.438264685396448722e-02,-6.325029093588352413e-02,-8.401239760729500849e-02,4.271178561071468233e-02,4.027353950616070766e-02,2.131341338591407480e-02,6.879115814485024794e-02,-1.649297964960400303e-03,-4.399280521283421147e-03,-4.574868195114735296e-03,1.302835763363662490e-02,-5.482692282533017936e-02,-5.325125724227234431e-02,-1.136498962587000928e-02,-5.761235814168066266e-03,-5.524060008250893800e-02,3.977023278888482116e-02,-7.844819347282670774e-04,-7.708068687003000186e-02,-1.175757112918141868e-02,1.014862469443578719e-01,2.086592711967507133e-02,-8.456620618161171318e-03,-5.961285754445942719e-02,-2.542955234827747046e-02,-9.480577658114934525e-02,-4.761794270118838157e-02,-6.515945439039272369e-02,3.140892013010385814e-02,-1.750445757781731587e-02,-7.202316992579216315e-02,1.150036594554665684e-02,-5.312886123395713783e-02,-2.871493824120650504e-02,-8.744787435573744133e-03,-2.656297394158891462e-02,2.700494682901940016e-02,1.742534161441134169e-02,3.130625589540127901e-02,-5.167119871491789723e-02,-4.815460579015431661e-03,3.142822996388659751e-02,-4.796142903503599481e-02,-4.686569522853380881e-02,-6.459052119043183493e-02
-3.152720128324330850e-02,6.062372719530962489e-02,1.740032369898581897e-03,9.644214838307215223e-03,-2.961306122569459104e-02,-5.319758312202622907e-02,1.347543750765106858e-02,1.371488922371543080e-02,5.587402744137790617e-02,-4.343211458862436536e-02,2.308949048863267323e-02,2.337122955978155475e-02,4.193254785999100259e-02,-1.040450880127132037e-03,-1.027932030537507049e-02,-1.353804691823133448e-02,1.669387838682982392e-02,-1.182323318952565178e-01,-1.135196447731165181e-01,-9.556919214554610714e-03,6.949041383960463669e-02,5.743732604861970931e-03,2.540529979980742786e-02,-1.741667286256841016e-02,7.378403049838686001e-02,-1.083654503919059542e-01,1.377275617565045136e-02,2.532148597894641907e-03,6.107394047012880064e-03,-1.818423341354622608e-02,-2.988729902738225877e-02,6.371218369382880553e-02,-1.476843304736252457e-02,-8.940138636594005539e-02,5.237210639211373198e-02,1.013900449143028369e-02,3.208645937796127112e-02,1.990478020086300717e-02,1.233405292922338733e-02,7.749927296479253158e-02,9.797546927912047232e-02,1.377109693402244761e-01,-1.084698443764047365e-01,-3.448745110699841937e-02,3.989326466538604954e-02,-1.314490331501606823e-02,5.407558620089870927e-02,-1.408311630296568001e-02,4.452846692294415432e-02,5.132525896473982482e-03,2.650544494281209529e-02,3.967606113638975224e-02,7.400358927956897370e-02,5.053636947038919747e-02,4.204666221716068381e-02,-1.669343619532513007e-02,-3.238385213566714882e-02,1.037901448564026129e-03,4.203159353398937259e-02,1.079397385895416832e-02,-6.650464487575456773e-02,-2.091786925967959419e-03,-4.454374906542279966e-02,5.897433340141357283e-02,6.724432478209648768e-03,-4.488859017234472087e-02,6.001429548897644489e-02,3.247016244850029713e-03,1.877206730042103519e-02,3.163758815494568943e-02,8.399107171142024264e-02,2.217576979986000257e-02,-2.471812785632873655e-02,3.663061405145179306e-02,4.651637510606205367e-02,1.398537849418624371e-02,5.394341938297698286e-02,9.072140820618285195e-02,-5.372410156242374280e-02,-1.774553409569992616e-03,-7.607731392880670573e-02,-7.154039210297118319e-03,3.355002506205135432e-02,-3.671592757735633178e-02,1.918799598570125262e-02,4.032017726912327099e-02,-1.961061933496577661e-02,1.028610807811284646e-02,-7.237872969911772481e-02,-4.499168687793747567e-02,3.758383585312313063e-02,-6.735805466664775143e-02,4.319961756674656900e-02,2.534620253359857328e-02,3.890804118013545948e-02,6.290364020672245537e-02,-4.155889254395580407e-02,6.815986385503674562e-03,9.495404167218950142e-02,1.067820519255577444e-01,-5.585154870964132139e-04,2.900793449808440616e-02,-2.684874552257624294e-02,-4.188638666523382403e-02,6.806493817743734798e-02,-3.839092238482121056e-02,5.712232607792500083e-02,1.475543446550205400e-03,-1.427428799294948036e-01,4.295484769272228665e-02,-2.574029743679382212e-02,6.406704157444671754e-02,2.869288402217764350e-02,7.578480253270453160e-02,2.991281076662022365e-02,-3.559719059886198161e-02,-4.147532448049078002e-02,5.557439491699895512e-02,-1.083554489817356303e-01,-2.677808612370936457e-04,-4.258699987030098444e-02,2.837465294732185311e-02,1.887075014050633784e-02,-3.375644952681478711e-02,1.201248788816016745e-02,-8.439239257246294867e-02,-4.920038547374704432e-03,-4.356749358895583429e-02
2.895102097253030721e-02,-1.478264296139706474e-02,5.429742741629121211e-02,-3.032232873011040178e-02,9.208525124356260749e-02,1.057835986024140314e-02,-1.267606259444195235e-02,1.014942631378482202e-01,-3.895915509548176364e-02,3.902897013350684063e-02,4.243409997932701128e-02,9.928117487088283094e-03,4.307235125642369308e-03,-1.894598507312108757e-02,1.421374237258133180e-02,5.075745283864023516e-02,5.465757204558412824e-02,-1.319990648487077804e-02,-3.857302855945950876e-02,2.643200606732978158e-02,3.312035853759579679e-02,-5.023693151942938001e-02,6.683619598096218750e-02,5.922931283221244403e-02,2.501870237594328722e-02,3.858737414603877203e-02,8.000571908257025910e-02,-1.376145431731620045e-02,4.678691280533538860e-02,-2.482813511440499707e-02,1.164000452390095419e-01,6.117990673540214114e-02,5.136776604889380093e-02,5.097008476949624854e-03,7.818803618385003484e-02,2.301049700678912957e-02,-7.488342854655965185e-03,-3.860676858105079046e-02,3.062280988061246226e-02,1.874407183118663792e-02,-4.611976120505702909e-03,5.454539930335762510e-02,4.022691834340364619e-02,1.995806720952356117e-02,-2.919572195207163767e-02,-2.764366729798690622e-02,1.456831828672555153e-02,3.352682388532189639e-02,1.623129403926658028e-03,-3.084732731106469561e-02,2.409511160828663526e-02,1.055872066887463337e-02,7.202393116311554822e-02,-7.501542587394216532e-02,-5.127669860682305264e-02,9.136385785602478549e-02,-5.948532594109126777e-03,5.560007399850605547e-02,5.154008668946420679e-02,5.766293833083134535e-02,2.862387600186519845e-02,-1.131297600244919738e-01,-6.282055120904329881e-03,-1.136891965456384400e-02,6.891371871158483327e-03,-4.583072142993632747e-02,-1.878333728426287430e-02,-1.195053843623092651e-02,-4.774439339190814091e-02,2.147867143749578045e-02,4.375574112029777252e-02,4.938005741239179930e-02,9.181712655069763918e-02,-3.399050223979712543e-02,1.353462000199271049e-02,-5.394590956093997525e-02,-3.556168105027634769e-03,-3.593806139728639420e-04,1.338900917372250893e-02,-9.046228007586931685e-02,-6.142298556814445448e-02,3.090364515142289895e-02,1.816936774232164389e-02,-7.347432621457304983e-03,6.968609517476674620e-02,2.278012228073047693e-02,2.206232968380975740e-02,2.491016854008908446e-02,-2.563255276011368669e-02,-9.375078874456214961e-02,2.975919207651307047e-02,4.051510500503583551e-02,-1.509604617711655375e-03,-4.185187646157993019e-02,-1.574799494859170298e-02,1.452375952870373597e-02,6.488975174096851817e-02,9.747759823118162109e-03,1.188912915220458610e-01,4.138065568229058744e-02,4.410853895993181728e-03,2.887201746733761981e-02,1.941899326126543188e-02,4.638733316275627655e-02,6.304154914805938648e-02,2.449780274888902279e-02,-2.286559764019556462e-02,-3.960214718987136590e-02,-9.362016759615535144e-02,-4.086155552679383851e-02,-3.168086497071118113e-02,1.257317845161802852e-02,-3.332276197599998158e-02,4.890447608435539995e-02,-1.139509752592164915e-01,-3.316047985682032961e-02,5.496998850437321421e-02,-3.887612384321630782e-02,-1.579788655349082882e-03,-8.949695124427714532e-02,1.574942803121801710e-02,3.671717452793652609e-02,5.820826029695923276e-02,3.962480858565855558e-03,1.523873319978030251e-02,-1.011314740026481029e-01,-3.462930215389228850e-02,-5.769329032680512066e-03
-2.363782582452049474e-02,3.102823427723825755e-04,1.480392943221427692e-03,4.555180132242413887e-02,-5.932311540987184051e-02,-2.659283369751142684e-02,1.438973647967856616e-02,7.111801290514202512e-02,6.907126301535415104e-03,-2.971823907757985966e-02,3.889627421892954962e-02,6.668233350040900231e-02,1.160960778289723584e-02,1.983534028420592173e-03,-8.935257320356722321e-02,3.437080098321329547e-02,-2.332457616398376718e-02,6.461010612099535311e-02,1.755264111058303482e-03,-2.195919163292689436e-02,-1.127963845615034995e-02,7.443432317685282074e-02,-5.628976593367782111e-02,8.200265036962070542e-02,7.251579462252394359e-02,2.308996392801587749e-02,6.527945172337418916e-03,1.073147183215350520e-01,-6.638380981731116688e-03,-6.185372579305189328e-02,-6.836185348780456604e-03,-4.962984627421070973e-03,-1.064878568220163288e-02,2.077862329974208312e-03,-1.823447408260867736e-02,6.660018512568313676e-02,-5.429619795292097914e-03,-7.510429864735328198e-02,3.873764577870228432e-02,-5.142838894179143500e-02,5.786844225653377249e-02,-2.123089948493218221e-02,-5.541383713594724009e-02,7.254244206858199984e-02,5.443706246368858193e-02,1.957962165700093127e-03,1.027732817433321151e-05,-6.347584365312243515e-02,1.620614440393279912e-02,2.116345806700366261e-02,-4.129830592362939562e-02,-1.580032149382675812e-03,-3.472906856220461802e-02,2.465440803762559280e-02,-6.821754489406638144e-02,-7.283443955907403788e-02,1.267213818137899461e-02,-3.110655735084682377e-02,2.069203706186798289e-02,5.179285455190390380e-02,-1.517232819940926396e-02,5.354351748261611255e-02,6.107203322710234861e-02,-2.932504902677942824e-02,-1.359435978268678513e-01,-1.307956965754263068e-02,1.239857269424347527e-02,6.321547860580407560e-03,3.237285123480858340e-02,-6.649187976274339995e-02,1.287222246319645429e-02,3.020612301235238786e-02,6.408481464454596210e-02,-4.740285204717185896e-02,4.024087178401840326e-02,9.815477014784433629e-02,-6.754295811765301250e-02,1.848749872918253531e-02,7.376127584284936090e-02,-1.874808627226314667e-02,-4.151520846108515406e-02,2.635934885072697964e-02,5.330291947426203658e-02,1.019470266295778443e-01,-1.969289068526429778e-02,-2.535759356591615540e-02,1.487141182231012382e-01,-1.721163590256653830e-02,-1.391239466984732845e-02,8.140442560719354098e-03,-3.526011507398727624e-02,9.903171875656667511e-03,-1.106550552757082917e-01,-2.572176962271909700e-02,-1.139898064355343854e-01,-7.454331352523108079e-02,-2.260178419889285681e-02,-8.582351857267212294e-03,7.123698252324755197e-03,7.412570693446085546e-02,2.621347598581254615e-02,1.391248588580332179e-02,3.301960393338838201e-02,7.115953598020901411e-03,2.618781821026577167e-02,5.399235420640197819e-02,5.194601556884700239e-02,-3.307978072199004027e-02,9.626427749442926021e-03,2.165316178336295500e-02,2.544615199047569123e-02,-6.333518116910503981e-02,2.917082761615494985e-02,2.152220457191489703e-02,-1.390246309691985441e-02,-4.777367675204836905e-02,6.252360328136850887e-02,-1.754746656335735150e-02,-3.319701186466537945e-02,2.190411680670292099e-02,5.613755457687056444e-02,1.091499254910717059e-01,4.263247413117411677e-02,-4.976986490197152918e-02,6.837632002102045359e-02,-9.975235566730248499e-03,2.654291932362637385e-02,7.307668552022365815e-02
-5.067519598969266736e-02,-4.887033756260083378e-02,6.583283765880236504e-03,3.747307446473234493e-02,7.206547205767993569e-02,4.110690551165979006e-02,-6.197318293947753562e-03,1.526825278463555917e-03,-9.448584102752821678e-02,3.271246220843374020e-02,1.398717738888664505e-02,1.548094246450759937e-01,-4.559148033094215235e-02,3.376482993013181499e-02,-1.075496935893754773e-02,1.345087531781410939e-02,2.744922368963903861e-02,-8.833881481367929916e-03,1.914254654745230211e-02,4.218189777591234424e-02,1.255260440687966939e-01,8.658648011870606620e-02,1.741629917301758257e-02,8.193344995736079328e-02,2.553510314003056003e-02,-4.425558145498762613e-02,4.092588995395090440e-02,-3.688383835022742557e-02,3.515652934072173441e-02,-2.432731316695428692e-02,-5.822084798775136599e-02,-1.943594585459572713e-02,2.621366835654680844e-02,-1.164470554971717454e-02,1.530733953347134663e-02,-7.597615659224644935e-02,2.240923965505368584e-02,4.418978291347777643e-02,7.403720213135468742e-02,-5.320083075782062673e-03,-1.277909029154631892e-01,-2.004854155443998309e-02,6.741970963966348318e-02,-6.767662545155875981e-03,5.239478625446682136e-02,1.842331229774812895e-02,-3.904781071738661850e-03,-7.271175137504297392e-02,-1.412438683677012807e-02,4.588985842628857600e-03,-5.974182802572089446e-02,-8.553320706603327606e-03,7.224985119969062897e-02,-9.690381310779444795e-04,-7.043344645547307270e-02,-7.339397645183971808e-02,-1.185288970041055781e-02,5.510307067197189879e-02,-3.418339855668618699e-02,5.763322118554745077e-02,3.261661880432615429e-02,1.174103547401666309e-02,-3.850034566984640583e-02,-9.302065034137538269e-03,1.254230415066668117e-02,-3.449871614862264763e-02,4.108966036558544394e-02,-1.201748632668977849e-02,-4.989158823492699513e-02,1.669081738787448269e-02,5.435516672683948086e-02,3.991051178814165878e-02,1.238662932637126478e-02,-8.395580233205809928e-02,-4.664882514047372780e-02,-2.491225152325900541e-02,-1.792750029648773093e-03,-7.123209987168921398e-03,-2.854541636018705433e-02,4.153912221128252917e-03,7.785193381721693118e-02,1.467045589900706215e-02,5.538752986489236391e-02,3.958888513764230455e-02,1.348370179441983063e-01,1.121335276657072638e-01,4.076723697528930601e-02,-4.952779196905583714e-02,3.717302806824147876e-02,5.180297341360838581e-02,-7.740482090201249166e-02,-7.667649740773196942e-02,-1.522153661556433502e-01,-3.899415820127432458e-02,-4.404206878069413800e-02,-4.626553710424057692e-02,-7.304325723185939312e-02,2.777678715182636815e-02,2.316783368482050812e-02,-2.890466276092356832e-02,-1.236632843373266649e-01,-1.556772772866871039e-02,5.207351167757731138e-03,-7.278857519748362093e-02,2.673986485099344099e-02,1.658312520957633263e-03,-1.207696060081284856e-02,5.915797907773336084e-02,-1.035591390761638891e-01,-6.064516309148141812e-03,-3.419108369082723281e-02,-6.921895597784931409e-02,-4.914562085559810029e-02,-1.092948046561649789e-01,3.638545216601076632e-02,1.860957366009151695e-02,8.441396169680165373e-02,-9.086011480976689814e-02,1.754982746446956399e-01,3.201852860544257551e-02,4.958904713304450318e-02,-1.284465233369160714e-02,-2.358956599609914051e-02,-2.977689294427734307e-02,-1.966981344292907663e-02,-2.018143361400425578e-02,4.394165230996121413e-02,-1.433311290441401271e-02
3.067205377229505897e-02,-5.023234505724753773e-02,2.108685098240784678e-02,2.262228678608732557e-02,7.707173664819530479e-02,3.306613212113033995e-02,-4.139927315547597270e-02,4.061343068802236028e-02,1.168238018387178501e-02,1.837255898753303862e-03,-1.136736957115200460e-02,-2.408150495831026458e-02,-6.143662538720979366e-02,-7.589311979611562675e-02,3.910689059732352924e-02,2.944108093831135711e-02,3.568259507358317179e-02,7.222271828192320872e-03,-5.840542896401874906e-02,-1.031703017517752868e-01,-3.448063671987701504e-03,-7.332772560093211165e-04,1.720292020270002345e-02,-3.580908832906746359e-02,5.220653479573326289e-02,3.724023005681964538e-02,-2.334823866364020561e-02,1.912673698422998059e-02,-5.760162314471010264e-02,1.415025579837705071e-02,-8.954713945343056869e-02,5.779055279474669404e-02,3.513563269010203105e-02,4.656482223150884558e-02,1.245955978682313295e-02,5.344783211678083568e-02,5.216619087740440724e-02,-1.980046787102971231e-02,-2.210229601540656882e-02,5.961217662582806581e-02,-3.473819711504839980e-02,3.282750274152253928e-02,-1.927710804404682635e-02,-3.686483258104729377e-02,-3.522597987334412373e-02,5.119658611093196032e-02,-4.422320647510883523e-02,1.303996830033197704e-02,4.516146308860967407e-02,-3.590501853312626224e-02,-4.321810383406941153e-02,5.542808857974280273e-02,3.709059010015587632e-02,-7.678956460095695546e-02,-7.045038110592803660e-02,-1.223799146804135582e-02,3.936548497803517288e-02,4.955787842483880962e-02,4.291016975639731779e-02,-5.280477583419175558e-02,-9.144687297136471979e-03,2.330301686645339446e-02,-6.517452624276819095e-02,-1.334439908642488619e-02,1.029695286423537928e-02,7.071303360849051298e-03,-3.847110121633599139e-02,3.302549313398032982e-02,2.073157490343680021e-02,-2.116027556616817060e-02,4.792748795153723568e-02,-2.882034914108906956e-02,-4.867236346867401947e-02,-2.004086040993691142e-02,-1.351512618596376579e-02,-5.129478932774773903e-03,2.242609158832211888e-02,-1.076127949627214524e-02,2.658679580133919279e-02,-1.770934609309381819e-02,-1.316217544808151235e-03,-8.805986978408403276e-02,-5.868449491874094121e-02,3.842302969706080235e-02,-1.275080219123812982e-02,3.881942879456597162e-02,2.735732193890436786e-02,-7.233202160111847079e-02,-2.294965775772072822e-02,-1.473310074991420748e-01,1.676814366446607862e-02,-2.995637125925031119e-02,3.497346267035723877e-02,-1.691597564952834060e-02,4.513783797958455246e-02,-4.154592528325247447e-02,-3.216854444311613437e-02,-1.243597412207252811e-02,-2.730719229054300208e-03,1.091407504931342365e-01,-1.228905901303960213e-02,4.384864306957383245e-02,1.495214308322703398e-02,-6.289512737959374045e-02,5.557940295118992541e-02,-5.659784215086031967e-02,-1.260223167910370749e-02,2.230914351571238602e-02,-2.738730012636969233e-02,-5.006246318868207146e-02,-6.813842123481615720e-02,3.375426507743129606e-02,5.772097386137182984e-02,2.796903010095402268e-03,3.048214253114158584e-02,3.011152081232659067e-02,4.240188189168368760e-02,-2.133973933434543321e-02,-2.079504272381261717e-02,-3.823980273968829221e-03,3.006049281874925011e-02,4.719855759545601992e-02,-1.097558008082195023e-02,2.132657479470826886e-02,-3.652677472272430198e-02,1.393910180958923273e-01,1.609666405262133101e-02,-6.829287745194125014e-03
-5.956066965522774370e-02,-8.636161526377916786e-02,3.488287980060829352e-02,1.762855774589128788e-01,1.044280134868468823e-01,1.023605487089164490e-01,-4.335971609713388381e-02,1.083627906948596113e-02,-9.058869028629564640e-03,-1.120000177568133831e-01,6.402435142477254544e-03,3.689158076451293233e-02,-3.567401968384881217e-02,-7.988235333473130140e-02,1.237088416426329468e-01,-2.265924440214785174e-02,1.331532370844229658e-02,-4.059764587953028359e-02,6.522093184553529044e-02,5.544115226724675993e-02,1.696105534446340213e-01,-9.520384487923787276e-02,-5.965413767605282080e-02,-4.915804665356878628e-02,-1.795332092076587505e-02,-2.187278525935951179e-02,4.652623511553317243e-02,-1.924183691676041238e-02,5.194406271292373312e-02,5.057829920983810540e-02,-3.545353333608248364e-02,4.993965127959372474e-02,3.194922848332681919e-02,2.142903439057723680e-02,3.601138843643556658e-02,2.826468877822049808e-02,4.846695861082620654e-02,-1.125193965555992270e-01,-2.252885135206894596e-02,-6.509744711542343742e-02,-7.356411944297669425e-02,1.951232849529102933e-02,6.488721309492020972e-02,3.811091499714065745e-02,4.388312317163236415e-02,-9.975760802178161579e-02,-3.290122179628197224e-02,1.275455902418138037e-03,4.820594297796469002e-02,9.075112275757662994e-03,1.206501071093248924e-02,5.280338435824850039e-03,1.566461474946500426e-02,4.504732669271707679e-02,8.655700178001630996e-02,-4.407951197035125251e-02,-2.404479126884738124e-02,5.955392558401868125e-02,9.493658455974918198e-02,-4.250914734270629103e-02,4.602067637594390442e-02,-7.283278208239883644e-02,8.265787328835698389e-02,4.850128634695376195e-02,1.111194092202900420e-02,-1.097603969260611545e-01,-2.741656407871255127e-02,-3.112061652912446671e-02,2.256655319555220598e-03,-2.604839119990234615e-03,3.083260948125596257e-02,-1.848670783810407725e-02,-4.254240594342767467e-02,-1.406744770116352510e-02,-4.981992364022596459e-02,-1.900199751898789743e-02,-7.377024697744795356e-02,2.080546523618908086e-02,-1.013319503767215468e-01,1.485954183514340450e-02,-5.836252568970319576e-02,5.467267644807099342e-02,8.361021527336913450e-03,1.126503739704099935e-02,-4.875397189166713607e-04,-5.284394887249850570e-02,8.249975311898798125e-03,-5.819630638213171836e-02,-2.686867122781892367e-02,2.158871432175231767e-02,-1.338707463523555914e-02,4.076865149597099641e-02,-3.418361169048663578e-02,-1.577624062499686326e-03,7.252825086901208695e-02,-1.705440240581916969e-02,3.960882789018987070e-03,-7.939391311475710311e-03,-5.483249304878567044e-05,7.804280450716777296e-04,-1.119917446811813030e-02,7.808345453434113563e-03,2.563771407214631565e-02,-1.632001014121524027e-02,-3.287603003281240610e-02,5.418086414971923920e-02,8.255615676506609935e-02,-1.968341945939270157e-02,-6.375104368320192415e-03,1.132956850465819537e-01,1.435091453073407963e-01,6.821427091735267345e-02,9.090183900654911706e-03,-9.240957243214471817e-02,6.852963105057192916e-02,-1.829721276450420667e-02,-5.723614633377523304e-03,4.501667901656430243e-02,-1.935540231309480080e-02,-8.250712373339467954e-04,8.771527931936354272e-02,2.993889789881765476e-02,-5.287106728374516007e-02,-2.606995874975152894e-02,-2.196997236406511914e-02,1.326625418750222371e-02,-1.032925219245753139e-02,-6.804162232568859714e-02
3.170984420969611556e-02,-4.263976906762572544e-02,-2.182051199110705136e-02,2.258315601770041758e-02,3.987069632647361611e-02,9.385246621583488713e-02,3.286944544400285939e-02,6.859818902104009020e-02,9.539541411817678562e-02,-7.102234149167323263e-02,5.912387417828951497e-02,-2.919945375405409715e-02,4.150916674430604747e-02,2.771301230118259837e-02,-7.393670445026792604e-02,-1.052118214304417765e-02,-2.348949367444171446e-02,-4.257116053577918863e-02,-3.331723769733437122e-03,-3.164885530464082303e-02,4.213655425858970488e-02,-1.816503074390345140e-02,-4.976903572608831067e-02,-5.858532102492902682e-03,7.589308580695429407e-02,8.785893689111706761e-02,2.636491286052504435e-02,-1.944852753721335384e-02,6.704523738398472654e-02,-1.969690765540666605e-02,-1.286946382361860708e-01,6.646768427296172177e-02,-4.454576721267873574e-03,-9.314290097974041449e-03,5.222676868652784826e-02,2.813041904336281360e-02,9.451460051820330388e-02,-5.260375695690791553e-02,3.914410299448857489e-02,-7.683040405904750271e-03,-4.139453803517808422e-02,7.931105657995634467e-03,2.122785377113981659e-02,-4.424262248016421623e-02,1.592390644799000429e-02,-7.542453256860578992e-02,2.400582079699791621e-02,-8.934972088742695927e-04,3.067435968068979793e-02,4.140753434545949019e-02,8.571461595714780293e-03,-6.203001394819949305e-02,3.227829269773060950e-02,8.433407122167802319e-03,3.261050770129500682e-03,-2.849491205976962746e-02,-1.266618416097351624e-02,-2.422690475806088192e-02,-3.932166531480696392e-02,8.001142129921187673e-02,6.918581670491678881e-02,-4.381407446169427455e-02,-5.873345639605113272e-02,7.947731268138091831e-02,5.723735674584494448e-02,-7.304839080089687957e-03,-5.095875356263997180e-02,-6.129292313595982589e-02,1.906643017192221831e-02,-2.224440985809167382e-02,-8.000843635787544678e-03,7.091717417442490456e-02,-8.595879680605331141e-02,1.200525178917076774e-01,-9.737573010970532184e-02,-1.353740310774095325e-02,4.699894587970043086e-02,-4.771421172293327517e-02,-2.600773331323500207e-02,-2.096567896122174951e-02,-2.644622870732544779e-03,-9.558635724894841423e-03,2.174722247994115634e-02,3.474002150592052363e-02,7.319363819062439658e-02,-2.495992188403993797e-02,-4.629319901974256884e-02,8.614871941596513594e-02,8.101191996228473968e-02,9.578922354211562296e-02,2.108353431686141310e-02,4.594883889611324490e-02,-5.455502561215819224e-02,6.946321464702555348e-02,-7.282276423806131882e-02,7.145678143628027279e-02,-1.913237035952350396e-02,-1.008148332372180329e-02,2.151878428792896453e-02,-1.227283303953330407e-02,-1.725872924771160513e-02,3.434200268618000512e-02,-2.232585117811977660e-03,-5.414609710873198589e-02,-3.954640166450191369e-02,2.961004765943095474e-02,8.904356211275438193e-02,-4.123148257641340297e-02,-2.258189169836615547e-03,-4.533581095503092656e-02,-3.704395918371966665e-03,1.316090030912258312e-02,-5.895004560725057574e-02,6.251944350122684568e-02,-4.265247700234096190e-02,4.596595810559658130e-02,3.657396183114049876e-02,4.539534678047402877e-02,-2.838505758664194509e-02,-1.542346477318316637e-02,-9.316934591216637085e-02,-9.291927666469664351e-03,2.579153987948410234e-02,-2.731456878442917527e-02,-1.152126976025900223e-02,4.372359447845113045e-02,3.555582486084811478e-02,-1.166230598194242657e-01
-4.536740207182583806e-02,1.244267018781418238e-01,-4.378789147076645599e-02,-2.994181348215734645e-02,9.791803906237385446e-03,3.885446738514140852e-02,-1.328855101406713202e-02,-2.424649538298358220e-02,-3.421452873163017411e-02,-4.219928343022406880e-02,-5.575956563363884677e-02,7.663393406165602828e-02,-5.165002998279984159e-02,-4.404562889431325179e-02,-8.869345944984279029e-02,2.697164572555552781e-02,-6.303871026174874548e-02,1.113672762535950975e-02,1.908548053921300947e-02,-1.170177087585961770e-02,-2.430755101862151421e-02,-3.296660964899190971e-02,3.812887151840362813e-03,-4.357417773252950793e-02,-1.854871400962070527e-03,-8.952517577485188255e-03,-3.150665604423770472e-02,5.099289358198607486e-02,5.027640970406845045e-02,-3.861664641334326686e-02,6.528146066278130155e-02,-4.377368111958806346e-02,1.549036468429088563e-02,1.801497694512201042e-02,-5.139581126450943477e-02,2.099571855615666935e-02,-3.305749085457328207e-02,-8.996886280131105584e-02,-6.129454524904727648e-03,5.478697483083250219e-02,6.475416679052097002e-02,-3.359017440161559537e-02,-3.444418193553256541e-02,-3.270989899475248812e-03,4.150372533169623124e-02,-2.476851928028722324e-02,-4.733509237187953633e-02,-1.811484126348024068e-02,-4.368016511269519342e-02,9.084028256201382226e-03,6.579771315993976355e-02,-6.108251764203161127e-02,-7.458885075580733159e-02,9.184144863165500869e-03,-1.613954184776155570e-02,1.705944069719600442e-02,-6.305543560878190679e-02,3.517445924090652903e-02,-3.592661396957827491e-02,1.383058808945560603e-01,2.785366703141560832e-02,2.977184949428987593e-02,-1.269809858584600333e-02,3.003586760145927209e-02,-5.431567394728206016e-02,-6.633487740028286284e-02,6.406071704276197765e-02,1.824792698737195051e-03,4.057077456534227689e-02,-1.138116496350189723e-02,2.946415980957096600e-02,8.488718876300686833e-02,1.051514571711014909e-02,6.428205264294808985e-02,-1.371282985101603081e-03,8.445241192914738904e-02,-1.939334080687785122e-02,-3.447549739015190462e-02,5.130290367033023269e-02,6.680063232206928658e-02,2.193064655326017881e-02,2.103350387330514895e-02,-8.596394997121013792e-02,1.408433642591846308e-02,2.102824512926802856e-04,-2.960451646250939969e-02,-5.603985905813801700e-04,-6.612923280355045320e-03,-1.601345909512554705e-02,3.532583094842645793e-02,-7.727896529505277889e-02,-1.582306829141400320e-02,-3.388619097148210663e-02,-1.999894092428067260e-02,-4.384769170213362668e-03,-4.055142441352418275e-02,-2.359971295571604288e-02,-2.138445182374395376e-02,-4.574154627610449442e-02,-9.371523848512099131e-02,1.366148847419920188e-02,-1.377570625129881203e-02,7.873442126339473546e-02,-6.137832200699310653e-02,1.050696774344928724e-03,4.790775836644856067e-02,9.200889317345431473e-03,3.918008009799696378e-02,7.437714093378471059e-02,-3.816304655071536822e-02,3.092555082100565799e-03,-2.345387304766063507e-03,4.207417779010575593e-02,1.224585547432435195e-01,-8.178302251701729478e-04,7.526170389681860473e-02,9.587443340306837924e-02,-9.079278487652258506e-03,4.149875338057772839e-02,3.596803390397125544e-02,1.150539863434823645e-01,9.499578231797331171e-03,1.892779440398647747e-02,-1.785630858781592570e-02,-1.316158417661049580e-02,-1.087454254813999092e-02,2.849890919323656499e-02,7.803553694778840588e-02
4.174252533918319102e-03,4.929472307446408630e-02,-6.361976723703561360e-04,-3.356878495380861277e-02,3.063971904299587698e-02,-5.247466088764878370e-04,1.561552052539378135e-02,3.183923744387032878e-02,6.776562795620462432e-02,4.323349615648325490e-03,5.579379346087688651e-02,-2.752729235929232340e-02,-1.019550545286168272e-02,9.564369377704928787e-02,1.104448984390115317e-02,3.847553053385960233e-03,6.116910932667155021e-02,2.695463503050750734e-02,-1.314335105627863730e-02,1.312768138810000394e-02,7.589548056164093989e-03,9.049993033994749303e-02,4.307403721683221443e-02,6.558812466332067381e-02,-1.105165321256234290e-01,5.374575215089111985e-02,5.377038582462525043e-03,1.327601874499120468e-02,1.854476286792803782e-02,4.433247239108032388e-03,-5.879102716401237577e-02,-1.225959644780170651e-02,-1.306720162796133622e-02,1.181106571673962678e-02,-6.997136386836253288e-03,-2.052669519911640844e-02,-2.560476775966965407e-02,-7.681383441210275220e-02,3.687415417866241746e-02,-1.911913369549155320e-02,-1.528851955139478962e-02,6.801317411767619781e-02,-4.662491170367320456e-03,2.960388865102162384e-02,5.104714045297388536e-02,-7.260777394740211554e-02,-9.209069726031755831e-03,6.972073818854310212e-02,3.121890360531231687e-02,-4.767754209159758699e-02,6.085190106840309560e-02,-6.385984776670533374e-03,-8.386010963670148533e-02,-4.952433702422958349e-03,-4.509848301648389929e-02,5.980470748085251614e-02,-1.592198529069871124e-02,-5.373689161572774847e-02,-3.890934495363128354e-02,7.187439863680511118e-03,-5.440651174489258453e-03,-4.329536178525323492e-02,-9.885662481851034689e-03,3.473013212389049198e-02,4.244748710817016803e-03,4.024313138137397550e-02,5.546469042078602807e-02,1.258694613811723872e-01,5.139166312447413648e-02,2.334745557087086754e-02,-6.204067320995879792e-03,-3.460190913847403099e-02,-1.650029465461572836e-02,-7.575192181092110788e-02,-1.313058627334287749e-02,-1.933556584792910787e-02,9.047321020969201211e-02,1.117661490940219243e-01,-4.952100811829467791e-02,-2.042536290022626405e-02,9.973498020046218070e-04,-5.068913227525575355e-02,-5.494172814191448928e-02,-1.295055196837213013e-02,5.474580006697187667e-03,6.410946065191333587e-02,-1.939207680323357455e-02,-4.141704131367938968e-02,1.185479531943110613e-02,-1.070122462519647842e-02,-4.620862019949435046e-02,1.908673954687927984e-02,-1.305942167392124161e-02,1.173531927677938166e-02,-1.031378823639253345e-01,7.366227936800748277e-02,-9.903428075826668439e-03,1.132502259249107716e-03,-2.972753448937840923e-02,4.233179893380660530e-02,-1.457673503227381248e-02,-6.156940170549801694e-02,-3.556300120574948376e-02,1.125355133104622221e-02,-1.451566272976289283e-02,-4.275691914510473118e-02,5.157291836609852187e-02,4.778322631100410250e-02,2.107716978716763986e-02,-5.747853400328118562e-02,-1.822742861117599561e-02,-6.262776862813849987e-02,-4.151120287500829203e-02,3.611066626231392712e-02,-5.828499281171820728e-02,-4.079884578327738764e-02,-4.164084484371845772e-03,-3.174508355631850548e-02,-7.656777345544585334e-02,-4.566161135313889438e-03,9.812484057107929980e-02,-8.395352653241335006e-02,-5.895714709946026783e-02,-1.648434866245180675e-03,-1.299866823346347289e-01,-1.691347974334937027e-02,-1.510733674169575241e-02,-2.678032240929844113e-02
5.950576618756088509e-02,7.263619844110513757e-02,-4.002135953764699577e-02,-6.630105271878038165e-02,3.813259509095201505e-02,1.962652145482806157e-02,2.671657564046211672e-02,1.408909401339211442e-01,-5.131299305123480231e-02,-4.589176874958168784e-02,6.891813625575964053e-02,-3.994779605009277784e-02,-4.562974366266739357e-02,-5.189023277486001090e-02,1.218971017491569109e-01,6.349789403454515757e-02,-1.783704552124928261e-02,8.879254669139020895e-02,-1.816614744302987548e-03,-8.030387363777054255e-02,2.303036997963667232e-02,2.527736921239013418e-02,9.716130533395175850e-02,1.552674430817463716e-02,2.797876885268977404e-02,7.187975385656966698e-02,1.251487417627341336e-01,1.068328530688505799e-02,-1.123343355751495187e-02,4.331023174880247600e-02,-4.060649622439542472e-02,-5.132387610359555319e-02,4.151434062655450126e-03,1.725348762689504420e-02,4.073440114315866889e-02,-1.120723352083243321e-02,-8.714326407746974743e-03,-3.251884285251723308e-03,-1.064869557651601517e-02,-2.322162827933704071e-02,-4.627695321386700311e-02,-1.209634287813902975e-02,3.433058944765129267e-02,-2.836984279038570755e-03,-5.818419722878696854e-02,-8.000035734305519994e-03,-1.469498213759771674e-02,7.225181131921408484e-03,-2.667716967595071959e-02,-8.936655745826945288e-03,4.084843692414785732e-02,1.007219684821010833e-02,-4.412102761022946434e-02,-1.012491136200615455e-02,3.341399674179127560e-02,6.408204705026343539e-02,-4.919685346151701777e-02,8.906887615449975149e-02,4.040580744422120341e-02,-7.677594871450600655e-02,4.069485878988188254e-02,5.820791513505971931e-02,-6.282126077232026186e-03,4.014012616451165943e-02,-2.552642054984781764e-02,-1.739983169852313619e-02,-6.066481044010445939e-02,-3.909585834158667977e-02,-8.213810373524790820e-02,1.872330567475041785e-02,1.102107030124157595e-02,-9.491094713284332907e-02,1.604361792459806785e-02,3.959863667460082615e-02,-4.103282840345203603e-02,7.935900853948622824e-02,-1.020665822519089688e-01,-9.039434014149441698e-02,-6.118179659657889402e-02,6.420490591945920977e-02,-3.246582471486036264e-02,2.158145487742670759e-02,-7.942762393028546253e-03,-1.661789723093130486e-02,-2.616845474820968243e-02,3.383675824169673357e-02,6.614166171805122008e-02,4.073356957561530267e-02,-2.276325534989494248e-02,6.802319422919639313e-02,-3.092924274763686129e-02,-3.946133171013542495e-02,-3.997902301974869815e-03,6.847003367232415427e-02,9.716861203476786016e-03,6.328033028839182006e-02,1.073069833777369822e-02,-1.672097901559125091e-02,2.295759539589476914e-02,5.570263452976232516e-02,4.001605108336617894e-02,2.707127561138985075e-02,-7.242860388356493762e-02,-1.892291989413379116e-02,6.792920181119288525e-02,7.272884085312887603e-02,-2.902324577053294608e-02,3.953160313032764300e-02,-2.266463061299195739e-02,2.028693881889485906e-02,-6.635641333600889036e-02,7.238279345241259433e-02,-4.104778761526620828e-02,7.007285594300313725e-02,8.186849216938187068e-02,-2.197830779657176069e-03,9.248668170940191335e-02,-9.901635294891705449e-03,1.838032870537594995e-02,-7.977212050184953607e-02,-2.210017476538826339e-02,1.381377711398869002e-01,-3.811321052871925741e-02,3.963270154052862815e-02,2.321216617908061775e-02,-1.933666779354446530e-01,-4.806140001709471865e-02,4.224083740728369618e-02
-1.414098631100410737e-02,4.938756894121560520e-02,4.071036470165338705e-02,-1.445732895997587850e-02,1.810990801474861691e-03,5.740311100204311540e-02,-5.508038387702239580e-02,-5.072741172508786478e-02,1.170764116676625832e-02,-7.620422822244020400e-02,-3.137116550730682796e-02,-5.683910053712698529e-02,2.071487781473132020e-02,-2.947037550019781724e-02,-4.128284328627813277e-02,-2.500963521275998205e-02,-1.964447262306143541e-02,-2.150969025654997716e-02,-2.522375197753604602e-03,2.262178142369972167e-02,2.753089735422933546e-02,-5.336610401152350885e-02,-1.033846433745966471e-02,-2.129762236325258989e-02,-1.505549554148815153e-02,-5.225677891353636140e-02,-1.998028495755995934e-03,-5.135078928095027084e-02,-8.327781685565971426e-03,-9.571482589034738600e-03,2.252850013032753340e-02,2.532169785894144987e-02,4.445502420934598770e-02,4.643950784697731260e-02,-5.079758353982236768e-02,-3.520224719713409278e-02,-7.310355745157640084e-02,2.732982942754729958e-02,-6.865251697675820060e-03,9.785566118721926443e-02,-4.294410693228779136e-02,-2.195133894630430307e-02,-1.196677028072864885e-01,-3.526423197525547018e-03,-1.671642579215009208e-02,-4.572034654808115710e-03,5.786888381767153755e-02,6.274890367750775300e-02,3.288678836491269047e-02,-1.788868674526007674e-02,-6.219967532398060911e-02,4.765830465992013792e-02,-2.967595364459098273e-02,-1.446677748778997172e-02,3.687425707673300246e-02,-2.099575392582342034e-02,-2.892075827226481266e-02,-6.870548947564029951e-02,1.715888994132212103e-02,-1.045366459557861560e-02,-7.293352912588231887e-03,-4.761658137235976612e-02,5.537108065787569450e-02,-1.129924081666514729e-02,-8.436716746983687065e-02,1.076757476773332854e-02,1.985886535881795090e-02,9.579507714660652484e-02,-5.143542776841136810e-02,-6.749529415482725947e-02,-5.085853986008135805e-03,-2.502483925894695427e-02,3.674474842551129355e-02,4.480088610257179985e-03,-7.316208649030374322e-02,4.672941699625768677e-03,-1.028313299158302302e-01,-3.888211627800115637e-03,-7.922194859148516677e-02,-6.040811782065230728e-02,6.368025800893485243e-04,2.964811954816018100e-02,-2.222440464980935532e-02,-6.879312863690614788e-02,-5.343014896298340505e-02,-1.444618593636506042e-02,7.951616649513439106e-02,2.225134606443730876e-03,-2.232740527056645274e-02,9.393355431326782818e-04,-2.346895332146858859e-02,-7.505155618904170434e-02,-4.386632261065867393e-03,6.919946845970142979e-02,7.090719873461399925e-02,-9.327390394549102404e-02,-8.394369036419328800e-02,4.795211045207890994e-03,6.796911777953174028e-02,-5.474094568892060031e-02,-3.800646049890033656e-02,-1.409784206101367260e-02,6.242173258063552638e-02,6.142848769574384138e-02,9.090242743231506661e-02,1.352394263591164339e-02,7.127750143411186456e-02,-7.596214784601621091e-03,1.456766769396962251e-02,-7.850851722374461994e-02,3.354890625188148342e-03,-5.238195207130484643e-02,6.171269522783748990e-02,5.312676927593994874e-02,-9.412894229980031321e-03,-1.091099474799792947e-02,-2.691125120896221967e-02,5.243857893352769223e-02,-4.189296491375438941e-02,-1.331892519905726047e-01,1.095835117422438477e-02,3.553634656623284177e-02,-9.151696652796352202e-05,-5.976759662029007547e-02,1.016451432000399085e-01,2.482253938693175510e-02,-4.348110938387084873e-02,-2.511850961513958924e-02
7.627530052116225645e-02,5.154162638495467935e-02,-1.323679345437038524e-01,-5.565185232539104562e-03,-9.678861634221493093e-02,2.544351778912559356e-02,3.893244315324372734e-02,3.319994674878742891e-02,1.449339450296979227e-02,-4.764744327975863059e-02,1.052272628602256982e-01,3.616780250064154795e-02,-7.044625916454180792e-02,3.760977205715337890e-02,2.308531559539104758e-02,1.642722692391370906e-02,5.659642437480529725e-02,-4.175180943066683636e-02,-2.338538175415297293e-02,-5.154183851341379713e-02,-9.568029040047125802e-03,-4.911589497796439024e-02,-6.981470207684248308e-02,-1.791699174939258505e-03,-9.136496885473193927e-03,1.707697037662294151e-02,-2.359523332277009902e-02,-6.833161763121700649e-02,6.034326239838383975e-03,-1.619671557365471443e-02,-2.305020891387494358e-02,-3.920713621093713935e-02,9.943116703971333157e-04,-9.081043907913241564e-03,-9.521352331147764012e-04,1.418203839429053653e-03,-1.888398318848068941e-02,-9.253259801153857779e-05,6.915107255120706009e-02,-5.654667012051639574e-02,9.940382907493142042e-04,-4.091663384828394395e-02,6.040836724885263048e-02,-1.063786135051018357e-02,5.075191382108021343e-02,-4.134376591803096135e-02,-1.437161878993445385e-02,5.349452725167470196e-02,2.272975217028258901e-02,-8.247472693720567585e-03,5.658572420900472716e-02,3.619439192381498221e-02,8.250287436904957250e-02,-2.542734831186490088e-02,-7.538864403917677759e-02,1.458677931564109423e-02,6.559605629227668877e-02,4.980093986568698977e-02,-1.297742374554325655e-03,-5.188650289823512618e-02,-1.435017425234969219e-03,1.084106402665497605e-02,9.527073277726885378e-03,5.790536575734293867e-02,-1.256643060384734015e-02,3.475415070108911486e-02,5.794100322579826684e-02,-1.418201700141139866e-02,-1.117111921068165113e-02,1.593586078977963019e-02,-6.851315695063842082e-02,7.542799149030150752e-02,4.554923614595179221e-02,-1.554538049706700661e-02,-1.108830584071843345e-01,-5.022671429114214381e-02,-8.625721785510616010e-03,4.549272187154419778e-02,1.467548098130045872e-02,4.140531391052199028e-02,2.657474792727851018e-02,2.584482705735131891e-02,2.364896534675905299e-02,1.051549440241135447e-02,8.681711981850069940e-03,4.275039696126829714e-02,4.682053038889627539e-02,-4.499033670050020181e-03,4.344643802010029338e-02,-2.402187740702879312e-02,2.835766082644718133e-02,8.954161431391131562e-03,4.822178281544178130e-02,8.325156935642163969e-02,-1.824324028935068748e-03,5.185282723695206625e-02,-3.165207517210840739e-03,-2.435425247404272853e-02,-3.335967728931628351e-02,-1.213576096156934042e-01,-5.769172152602953380e-02,-1.253546603015656159e-02,-1.435285928146631459e-02,-3.858618816932726792e-02,-1.453365546702337606e-02,-4.354343304196587466e-02,-1.296838169177993438e-01,3.836616913432014386e-02,7.699021075882345189e-02,3.122177395400861644e-02,-3.043117108862292489e-02,-1.037663510474649484e-02,1.119384487186653870e-02,1.322439689860650108e-02,-9.778544865844576717e-03,-3.296108100033084964e-02,6.182051381036274273e-02,-2.967906370175524972e-02,-5.829403518536732144e-03,5.352448232883529056e-02,2.612450431061568226e-02,6.043178542730066882e-02,4.728096991900920809e-02,-6.026659026895458265e-02,6.389387597131225560e-02,7.245384148841495231e-02,6.097424262471453499e-02,-6.245615941380307234e-02
-3.659280805578252194e-02,-5.861977602685153332e-02,-2.409375219751672820e-02,9.210099725917951854e-03,-1.296969247020477237e-02,-1.374192062845336869e-02,4.354993744648724685e-02,-7.193024169811274016e-02,5.815423343768183310e-03,-4.257783753805979843e-02,-7.600442006627069341e-03,1.410514128849041371e-02,-8.901158982557473565e-02,-1.906735388631163389e-02,7.387668949920999512e-03,4.067748298801289464e-02,5.000834818805806326e-02,6.307021225246635041e-03,1.133481217693297488e-02,1.781568406245558067e-02,-7.028001852671138250e-02,4.054940445484271627e-02,6.676320325079262985e-02,5.351554123294404580e-02,-1.239103624574450571e-02,1.117607410322109945e-02,2.235025951206495026e-02,-3.494317738026083559e-02,-1.031133324075226079e-02,2.643904996734209104e-02,1.722183117115598169e-02,1.316322523825654844e-01,-9.843267741708310384e-03,-4.825595723703980655e-02,-5.535326748465940402e-03,6.348069483165254268e-02,1.303473841039688164e-01,-8.942047551874414066e-03,5.718748523251645371e-02,4.249049849780700550e-02,-1.880686954435415370e-03,-1.745539842682323484e-01,-2.746461813711216504e-02,1.553541263693051892e-02,6.447910080512107844e-02,-9.861532653051808053e-03,-1.578359175778756016e-03,2.754521487288971726e-02,1.138695834046920229e-02,1.015027856192142475e-02,1.344881496544780841e-02,-1.998580829577242812e-02,-7.355324054279041568e-02,-1.001397656710986545e-01,-3.269887587337343138e-02,1.249214445191164508e-01,-2.257122947283341299e-02,1.055003478280924951e-02,-6.588987545347965713e-03,-5.291886579700414567e-02,6.652580340859501340e-02,3.288610764175560475e-02,2.876625613352087538e-02,1.064179760069073888e-01,3.233760960139377139e-02,1.083809149363024193e-02,3.975366174971664904e-03,-1.140546869129136637e-02,9.612085032737295587e-02,5.734325149584463405e-02,-5.735127510909543425e-02,-4.047753760411053336e-02,-7.886009093028727157e-02,-8.850671796625124432e-03,7.686075279627026247e-02,5.060542246597635185e-02,4.050365981717471420e-02,1.388222124605122398e-01,-9.681869076266280683e-02,1.074843151329530483e-01,2.883027865567091425e-02,1.051783530089868551e-01,-1.013192556776926212e-01,4.280561462200959538e-02,1.872680432182846286e-02,1.956513616094236394e-02,8.081433721817762872e-02,5.310653076015504209e-02,1.621454311986473412e-02,-3.395365880146524601e-02,2.738450165174894507e-02,1.034979427283927028e-01,2.275850593709306813e-02,-3.752084881291551516e-02,4.151102043110951184e-02,1.169378462832635149e-02,-5.008796383902948401e-02,6.406294048475141313e-03,1.003123550003190596e-02,6.051222942314663997e-03,4.660559754960300755e-02,7.414845701341025823e-03,-5.331657553782014058e-02,-9.854039848427667558e-02,5.676761848482193840e-02,-2.744792693177858234e-02,2.872702079576204201e-02,-1.932365859185406279e-02,4.509080401031503871e-02,4.326848934340882247e-02,-2.261450334896582259e-02,-6.809092222957324747e-02,4.679455946528467830e-02,-2.440045656325648404e-02,-1.140738398858089503e-01,4.938428915674711317e-02,-3.602372250977137463e-03,4.165890036994202711e-02,6.631296822032488325e-02,-3.680727257106188033e-02,-3.370885559334775572e-02,-1.304147496452174627e-02,5.949492235636717058e-02,1.918582605279576386e-02,-3.347785562744771178e-03,-5.717495992338884198e-02,-4.494267288417278655e-02,8.793116139074437856e-03
-1.216781219328426540e-02,3.839498811334749601e-03,-5.510349169569468686e-02,-3.679539683273212736e-02,-2.215930726434323095e-02,-5.169723003247761461e-02,-4.625191308714748060e-03,-1.043857805182004300e-04,-5.220590053494315180e-02,1.485098420438975969e-02,1.693903525495707788e-02,5.704988062122395148e-02,-4.576383192355770041e-02,-3.252156967969311446e-02,-2.007040186842926413e-02,1.582197037221950986e-02,-5.068138144901815356e-02,7.051628744728296282e-03,-2.605842822697010050e-02,8.436899987587360983e-02,8.512670865875596182e-02,2.640747767354386169e-02,1.359777918830949207e-02,-3.691723692199073981e-02,-3.287542486300424477e-02,1.833328300470581096e-02,-9.082082927808433903e-02,-5.415457331896578880e-02,-5.532798451250138527e-02,-9.935432771994393009e-03,-2.538992551642968096e-02,-4.026862665311764511e-02,3.258910880283912015e-02,-6.735538163054963744e-03,-3.713180310079196300e-02,3.675881883548284129e-02,-2.659120447360328182e-02,-5.125787056635044275e-02,4.985559002633993542e-02,-5.510808800555092556e-03,1.313948538368723828e-01,1.012290296601736812e-02,-2.656061052523712995e-02,9.530234090316047624e-02,8.064869006938765739e-02,9.134179660882446594e-02,1.310886201924108332e-02,-7.190076208112340661e-02,1.878045391894995683e-03,-4.848432454819679056e-03,6.768654613454344604e-02,-7.072646938756228796e-02,-2.617909091464710319e-02,-6.430884489253969882e-02,1.827987452333459592e-02,2.286365682703950242e-02,1.188481434933900092e-02,-6.762854709350021865e-02,3.003054012943024570e-02,-1.902874688215788063e-02,-9.698916859294698031e-03,1.836908217385591416e-02,-1.624166042416454875e-02,-1.057970565769850158e-02,3.759803666483467477e-02,-1.468232914141767882e-02,-2.502603222218661994e-02,-5.247280700600954334e-02,2.105803883357012032e-02,-1.169060059398975083e-03,8.298488542372493837e-03,4.046184209431926641e-04,-1.667292668556557764e-02,-1.975910519387143963e-03,-1.019267425940535146e-03,-3.024997700442835433e-02,-6.603047262321028177e-02,-5.984884254988148689e-02,-4.507190648089862833e-02,2.692524951762586757e-02,-4.885323752508480971e-02,3.378757065449017327e-02,8.084864008621100995e-02,-6.099603022319043805e-02,2.888210179448590098e-02,7.126831571044967527e-03,2.255762210060607842e-02,1.481162502281240098e-03,6.019937486886835221e-02,6.330967716375329561e-03,-2.037468189946368621e-02,-1.242160100034085946e-01,-4.584936686220258267e-02,-1.193007229638030908e-02,-7.836879868994968412e-02,-5.885848289730289534e-02,3.222922778265300409e-02,3.870776935941890734e-02,-5.187089110856113461e-02,-1.749973269010823493e-02,1.642000681949834853e-02,7.313967059161952111e-02,2.045008314075406203e-02,2.317463824014770815e-02,3.649636858550200230e-02,-5.586753218179487529e-02,7.601969010348598454e-02,4.917566010602519161e-02,-6.385581199049868151e-02,-3.388400847800071558e-02,6.719876381935326048e-02,1.653524419723119768e-02,8.105486327566779892e-02,-6.356707092612427779e-02,-3.509132386539430548e-02,2.998676938988541554e-02,2.033877555571156695e-02,-4.386422570344330335e-02,-1.134704690081271145e-01,-5.755089495981588477e-02,-5.988292513087382918e-02,-2.538561004288969816e-02,-2.010765862620796096e-02,5.300318711156448009e-02,1.651378177592924745e-03,-9.659749311872870003e-02,-1.392646673954199381e-02,6.283783912533927318e-02
4.985492303897338939e-03,3.295099723406984260e-02,-3.683576865946733975e-02,6.310144958169829066e-02,1.061006384012839338e-01,6.661105804398719139e-03,-5.429863386612970855e-02,9.654846665380908965e-02,1.580820873257686790e-02,-1.858639403812525556e-02,-1.914156409356431235e-02,-6.938310558397184358e-02,-1.571378616970002182e-02,5.008861010783346307e-02,-6.509873593704262884e-02,-1.168363352648905604e-02,3.344968180650619710e-02,-2.093561893770629762e-02,9.264458024021518870e-03,8.972065660631159401e-02,-7.991271014469913947e-02,3.668911472396655608e-03,-6.492533544512697763e-02,5.740154718904184189e-02,3.567564262407678377e-02,-1.321804005569694393e-02,2.481192704260709939e-02,1.221971011834792169e-02,-3.780412477575243596e-02,-7.991924504901322390e-02,-6.823174874234469445e-02,-1.587091464693313192e-01,4.480145440797370093e-02,2.394341992428453830e-02,-2.794159471892212684e-02,-7.267857240978128908e-02,6.166369636815446399e-03,-5.668531521583392713e-02,-5.426861047332487420e-02,-8.185365372156470573e-03,5.541662703951774627e-02,2.863879583374457846e-03,-1.072429020221306317e-01,-7.067148292642000396e-02,-2.273607571922157955e-02,1.061629698312583844e-02,-2.801794212184476832e-03,-2.501100869953751249e-02,-4.530777477447510415e-02,-3.867831808431396179e-02,4.423954159899984306e-02,1.207352549318568488e-02,-2.881308781927538823e-02,5.582399445283755396e-02,-1.890373501760629973e-02,-8.856050641403168111e-02,8.624767129851353825e-03,6.958150148850036909e-02,-3.395934722159759528e-02,-2.837132245405905168e-02,3.561419342589793730e-02,-4.478739159395508235e-02,9.800721409305775123e-03,-3.233261054330961726e-02,-7.258166982111517685e-04,-2.850018296982443147e-02,2.556041739635387527e-02,-2.538689301042285421e-02,-4.883773285038147706e-03,5.612588924210648068e-04,5.352356720073893348e-02,-7.182586824931885827e-02,-2.146881878648084635e-02,3.480347109687924496e-03,6.750035342195905008e-02,-1.062281926493204576e-01,-6.187585271566317657e-02,1.212467601046023080e-02,-2.815322419820778452e-02,-3.572240630779874304e-02,4.015880735027637510e-02,-7.690504678479220813e-02,-9.259999402186821701e-03,-1.433673790156599764e-02,-4.368429940705095826e-02,4.303288513702056839e-02,3.329183890144259139e-02,-5.860901392365580609e-02,-9.666128900198750484e-02,-1.663513057021590025e-01,-4.200325034883228836e-02,-5.445382614846958763e-02,1.242389854101327018e-01,-3.801651176200751547e-02,5.828109679944885185e-02,1.753481002801160482e-02,7.516810299127717199e-02,-5.986905483515518600e-02,1.621076724879142936e-02,-5.494027807329698171e-02,5.243870494529559965e-03,-9.757663229281426931e-02,-7.800055868673300141e-03,-4.422467293629445129e-02,4.893177571719049823e-02,1.021939765710309228e-01,2.341227300329877525e-02,8.232324177369361451e-03,-6.550125542413041957e-02,6.496990115731285376e-02,-1.319757284779253309e-04,-1.147743474598848443e-02,-2.923400533168320214e-02,-7.405651061013153458e-02,-9.119738578569821022e-03,-1.461840201282676305e-02,3.882461094733113960e-02,1.091867176356889867e-03,-3.647674414249460310e-03,-5.252210083048621664e-02,9.834234373947429303e-03,1.210374339717108262e-02,2.783618288524826109e-02,3.729301624798389558e-02,1.276730284539157878e-01,-1.440701980137862499e-02,1.592984300680949650e-02,-1.392626482992114813e-02
